tree
version=v4
num_class=1
num_tree_per_iteration=1
label_index=0
max_feature_idx=52
objective=binary sigmoid:1
feature_names=Column_0 Column_1 Column_2 Column_3 Column_4 Column_5 Column_6 Column_7 Column_8 Column_9 Column_10 Column_11 Column_12 Column_13 Column_14 Column_15 Column_16 Column_17 Column_18 Column_19 Column_20 Column_21 Column_22 Column_23 Column_24 Column_25 Column_26 Column_27 Column_28 Column_29 Column_30 Column_31 Column_32 Column_33 Column_34 Column_35 Column_36 Column_37 Column_38 Column_39 Column_40 Column_41 Column_42 Column_43 Column_44 Column_45 Column_46 Column_47 Column_48 Column_49 Column_50 Column_51 Column_52
feature_infos=[-36.886791229248047:13.446762084960938] [0:1] [-36.886791229248047:18.44444465637207] [-100:13.446762084960938] [0:3815] [-3815:1] [-3810:1] [-2.7027027606964111:100] [-78.633995056152344:225.74502563476562] [-78.633995056152344:27.94651985168457] [-1238.4298095703125:38.254016876220703] [-36.886791229248047:13.446762084960938] [0:1] [-36.886791229248047:18.44444465637207] [-100:13.446762084960938] [0:3815] [-3815:1] [-3810:1] [-0.8849557638168335:99.266181945800781] [-78.633995056152344:225.85166931152344] [-78.633995056152344:28.003345489501953] [-1238.4298095703125:41.466945648193359] [-30.660377502441406:336.87841796875] [0:1] [-30.660377502441406:336.87841796875] [-100:2.7442371845245361] [0:3815] [-3815:1] [-3810:1] [-0.32051283121109009:97.725845336914062] [-41.330924987792969:227.1998291015625] [-15.512457847595215:258.24441528320312] [-26490.09765625:51.466667175292969] [-30.660377502441406:336.87841796875] [0:1] [-30.660377502441406:336.87841796875] [-100:0.80160319805145264] [0:3815] [-3815:1] [-3810:1] [-0.15576323866844177:96.9840087890625] [-42.949382781982422:227.95074462890625] [-26.018989562988281:258.24441528320312] [-26490.09765625:101.98141479492188] [-78.633995056152344:38.986415863037109] [-78.633995056152344:27.94651985168457] [-1238.4298095703125:38.254016876220703] [-78.633995056152344:28.003345489501953] [-1238.4298095703125:41.466945648193359] [-15.512457847595215:258.24441528320312] [-26490.09765625:51.466667175292969] [-26.018989562988281:258.24441528320312] [-26490.09765625:101.98141479492188]
tree_sizes=6722 6760 6755 6774 6800 6782 6808 6792 6819 6819 6847 6842 6828 6875 6845 6843 6853 6877 6847 6883 6863 6867 6878 6866 6864 6858 6878 6870 6882 6876 6865 6883 6880 6866 6876 6839 6905 6865 6851 6900 6899 6902 6890 6898 6832 6883 6903 6840 6896 6885 6879 6863 6894 6882 6853 6914 6820 6926 6861 6824 6894 6909 6911 6895 6874 6816 6928 6811 6858 6854 6857 6813 6872 6874 6855 6881 6827 6902 6836 6915 6860 6865 6840 6917 6903 6878 6901 6879 6858 6916 6854 6883 6874 6829 6851 6899 6945 6902 6902 6902 6867 6849 6845 6883 6885 6862 6837 6845 6792 6863 6830 6877 6816 6840 6856 6908 6889 6920 6915 6849 6848 6871 6872 6865 6831 6846 6860 6915 6818 6866 6914 6862 6881 6894 6881 6860 6837 6843 6852 6866 6846 6893 6837 6899 6891 6884 6894 6868 6875 6849

Tree=0
num_leaves=63
num_cat=0
split_feature=33 31 33 33 31 36 32 9 34 33 47 36 34 24 36 2 36 24 33 32 47 36 10 47 12 14 2 24 3 10 33 18 10 34 34 32 36 32 47 1 22 33 29 10 4 29 2 9 47 18 5 8 11 8 29 24 1 25 14 4 2 34
split_gain=226578 42741.2 19597.7 11691.5 7441.22 4117.37 3875.33 3712.12 2509.44 2273.3 2018.89 1791.58 1609.72 1660.03 1423.19 1409.81 1535.01 1344.26 1314.22 1264.87 1258.96 1197.72 1048.69 1085.26 1125.67 939.277 848.489 843.215 989.917 818.816 1421.12 812.99 774.457 779.143 763.233 786.771 762.203 742.973 728.051 717.714 708.206 883.384 701.58 701.263 699.273 650.608 648.441 631.571 608.736 593.597 582.922 1040.94 577.032 572.473 659.913 572.086 565.24 561.702 567.843 630.857 652.273 551.225
threshold=0.97931620478630077 1.4088922142982485 2.1495552062988286 0.21429267525672915 2.9599630832672124 -0.62922909855842579 0.74106085300445568 0.72389081120491039 0.28141081333160406 1.3641099929809573 0.22065170854330066 -0.26632291078567499 0.41762629151344305 1.7107252478599551 -1.5307155847549436 1.5201687812805178 -0.38379940390586847 0.54546231031417858 2.7847716808319096 0.11812473088502885 -1.4382608532905576 -1.8280376791954038 -0.57082626223564137 0.60603305697441112 0.43361103534698492 -1.3270459771156309 1.4619572162628176 0.40921455621719366 -0.40825812518596644 -0.061360580846667283 -0.1351220905780792 26.190952301025394 0.28072166442871099 0.37957693636417394 0.54438853263854992 -0.2792579978704452 -0.064471088349819169 -0.25649233162403101 0.89111042022705089 0.10832284018397333 0.81179973483085643 0.64595898985862743 10.219182491302492 -0.001551281369756907 0.17311855405569079 10.948919773101808 0.20594512671232226 -4.1202797889709464 2.4908978939056401 33.726531982421882 0.46166266500949865 0.46932350099086767 0.8655638098716737 -0.010858445428311823 5.2679002285003671 0.96628719568252575 0.88895055651664745 -0.23343022167682645 -0.37271882593631739 0.10642739757895471 0.34827683866024023 0.7416820526123048
decision_type=2 2 2 2 2 2 2 2 2 2 2 2 2 2 2 2 2 2 2 2 2 2 2 2 2 2 2 2 2 2 2 2 2 2 2 2 2 2 2 2 2 2 2 2 2 2 2 2 2 2 2 2 2 2 2 2 2 2 2 2 2 2
left_child=1 3 6 7 25 22 9 8 27 11 20 -2 13 49 17 16 40 46 37 55 -7 -14 -5 24 42 -3 34 47 39 30 -16 -23 -18 -34 35 -27 -11 -4 -38 -29 41 43 -24 -12 -32 -22 53 -1 56 57 -41 -52 -35 61 -55 -13 -15 58 59 60 -9 -10
right_child=2 4 18 5 -6 10 -8 12 14 36 15 19 21 48 29 -17 32 -19 -20 -21 45 31 23 -25 -26 26 -28 28 -30 -31 44 -33 33 52 -36 -37 38 -39 -40 50 -42 -43 -44 -45 -46 -47 -48 -49 -50 -51 51 -53 -54 54 -56 -57 -58 -59 -60 -61 -62 -63
leaf_value=-2.4960453120553669 -2.319824477855998 -2.2069054621442552 -2.2560561600360414 -2.2209714439867256 -2.0012792736338749 -2.2543925612263798 -2.1314363858074525 -3.0117687568327809 -2.7798883923823756 -2.2185622780073997 -2.4540016754072029 -2.9435001113389623 -2.2106228672469044 -2.4373346482800509 -2.8161459449251827 -2.3594767115564261 -2.7114118213859317 -2.4635394505685309 -1.9889912242127412 -2.3915256234022184 -2.7726046377951055 -2.6643269059051695 -2.3823029337558155 -2.3308855078072508 -2.6711985423430176 -2.2662705485069923 -2.2845193588584829 -2.9313036574923763 -2.873565880894323 -2.8349408566354706 -2.9141887358638257 -2.2424822184053586 -3.0117687568327809 -2.3335248471938987 -2.3851324086080541 -2.6387471347091003 -2.495181787903463 -2.0646492024803451 -2.2745165874406919 -2.6224984519080339 -2.9162284324022738 -2.3186982889177723 -2.6867459082544163 -2.7225991759322441 -2.5982279799427137 -2.9753186905526703 -2.8919186827963683 -2.9098191126762467 -2.050959163476481 -2.4567713747119209 -2.9573963176633731 -2.3471820680370605 -3.0117687568327809 -2.8585977581092745 -2.4421434914598481 -2.6009941514688957 -2.8957495858139519 -2.655147263703967 -2.9299160451721051 -2.8019586535275574 -2.379527450153732 -2.5365576924615887
leaf_weight=9.3470980860292894 220.14540987461805 52.705292150378227 58.684693526476622 40.23207438737154 184.14044219627976 10.183615807443855 334.02335835620761 5.2498527169227627 128.8906429708004 352.48075959086418 55.312179256230593 14.122200869023798 27.678330946713686 35.245424527674913 280.91765154153109 47.296779125928879 407.65214046835899 59.791622713208199 1205.6271953471005 90.154975395649672 157.21437486261129 66.596711166203022 93.428924735635519 76.461846299469471 101.91063520312309 16.812040165066719 67.609928447753191 35.944907765835524 320.89608726277947 621.55237773805857 19.760264758020639 13.785680942237375 6.0467053614556781 32.693815238773823 93.850787900388241 90.460234377533197 55.988841146230698 372.56319798901677 112.46206734701991 111.45124111324549 10.091063961386679 52.860330421477556 23.730110764503479 43.342545859515667 153.86833944171667 52.899960033595562 48.265478305518627 690.33646842837334 8.0274262987077218 15.634184956550596 35.462949223816395 8.7040881887078267 3.4686526879668227 12.588590957224367 38.9280153401196 89.187436275184155 8.3098639324307424 75.696219135075808 70.671099722385406 128.66348315402865 18.298776391893625 28.403062045574188
leaf_count=108 1808 320 411 255 400 71 1550 112 2183 2218 595 283 170 368 4951 424 6375 654 2338 863 2641 982 878 644 1516 121 510 712 6005 11176 385 93 129 277 887 1290 646 1257 827 1555 197 433 360 687 2076 1092 920 13393 25 169 720 76 74 232 410 1208 159 1103 1398 2233 171 350
internal_value=-2.47859 -2.68956 -2.1301 -2.74076 -2.25472 -2.60941 -2.27761 -2.79258 -2.816 -2.32986 -2.6663 -2.41738 -2.66385 -2.71394 -2.77022 -2.62248 -2.64282 -2.67708 -2.01579 -2.52838 -2.79733 -2.4943 -2.46046 -2.49307 -2.54967 -2.3999 -2.43775 -2.8686 -2.81987 -2.79764 -2.74664 -2.59198 -2.6903 -2.48642 -2.48927 -2.58037 -2.26037 -2.0907 -2.34786 -2.72993 -2.51064 -2.48363 -2.44397 -2.57201 -2.63419 -2.82364 -2.72675 -2.90429 -2.45106 -2.7571 -2.68342 -2.83714 -2.39858 -2.68857 -2.54391 -2.64781 -2.5248 -2.77283 -2.81279 -2.75841 -2.52048 -2.73595
internal_weight=7704.81 4799.37 2905.44 4293.79 505.579 1214.83 1268.57 3078.97 2605.11 934.542 879.062 413.61 473.857 365.796 1392.97 658.764 611.467 316.867 1636.88 193.465 220.298 108.061 335.764 295.532 219.07 321.438 268.733 1212.14 512.459 1076.1 454.546 80.3824 449.861 42.2092 201.123 107.272 520.932 431.248 168.451 191.563 161.606 151.515 117.159 98.6547 173.629 210.114 257.076 699.684 51.5827 314.214 155.618 44.167 36.1625 208.81 51.5166 103.31 43.5553 298.579 222.883 152.212 23.5486 157.294
internal_count=86474 73065 13409 69537 3528 16648 9403 52889 45906 7853 12995 4162 6983 5738 23337 9191 8767 4749 4006 2354 3804 1245 3653 3398 2754 3128 2808 22569 9068 18588 7412 1075 6855 480 2298 1411 3691 1668 1473 3063 1912 1715 1238 1282 2461 3733 4095 13501 552 5186 2351 796 351 3175 642 1491 527 5017 3914 2516 283 2533
is_linear=0
shrinkage=1


Tree=1
num_leaves=63
num_cat=0
split_feature=42 35 42 42 35 25 34 34 22 3 8 44 25 8 32 42 3 35 30 45 35 24 36 25 0 40 5 1 36 31 1 40 23 1 22 11 48 20 19 6 23 24 24 8 22 48 48 32 42 23 0 29 0 7 11 19 19 0 23 33 1 42
split_gain=55020.1 6081.81 2847.6 1859.18 1436.04 907.546 878.449 846.603 762.74 646.615 870.098 568.381 527.06 636.758 689.456 497.343 486.384 478.906 520.049 461.939 442.788 561.933 504.069 666.435 433.327 423.486 451.671 422.897 421.881 510.337 396.366 383.479 467.096 428.773 465.801 443.745 438.112 424.794 747.619 410.311 603.838 404.611 429.394 402.348 376.018 371.922 557.823 351.768 351.428 336.073 403.011 334.973 334.807 341.233 484.271 428.541 373.898 528.769 363.384 341.228 328.378 326.733
threshold=1.0427676439285281 0.77099254727363598 2.2383497953414921 0.3818036168813706 2.5058548450469975 -0.62494981288909901 0.39850553870201116 0.26761837303638464 -0.36681342124938959 -0.02356147579848766 1.2010887265205386 0.24915219843387607 -1.1584659218788145 -0.26803603768348688 0.015562384389340879 1.4410999417304995 -1.6958363056182859 0.30734527111053472 0.14504585415124896 0.40149076282978063 0.33334244787693029 0.22887120395898822 -0.67604872584342945 -0.12588157504796979 0.92906641960144054 2.089537620544434 0.28950069844722753 0.12310562655329706 -1.8523252010345457 0.52600806951522838 0.3289006799459458 5.528182029724122 0.63797593116760265 0.42568925023078924 0.076775442808866515 0.73149979114532482 0.24463268369436267 -0.19869533181190488 -0.050875246524810784 0.04617161117494107 0.9594731628894807 0.69768276810646068 0.73128181695938121 0.89828023314476024 -0.15481265634298322 0.029983693733811382 0.096322380006313338 0.10030486062169076 -0.34834167361259455 0.0088920788839459437 0.57870498299598705 7.4913508892059335 0.33257313072681433 22.775710105896 -0.14799103140830991 -0.155603252351284 0.030939253047108654 0.08674232661724092 0.078387796878814711 -0.80250844359397877 0.79802638292312633 3.7720094919204716
decision_type=2 2 2 2 2 2 2 2 2 2 2 2 2 2 2 2 2 2 2 2 2 2 2 2 2 2 2 2 2 2 2 2 2 2 2 2 2 2 2 2 2 2 2 2 2 2 2 2 2 2 2 2 2 2 2 2 2 2 2 2 2 2
left_child=1 3 15 7 6 28 9 20 60 49 -11 -7 13 16 27 -2 -9 -13 -19 -14 -1 -22 23 25 -12 -23 44 -15 -5 -30 -29 37 33 34 -33 36 -35 -10 -39 41 -41 -40 -43 -34 52 -31 -47 -21 -28 50 -3 -17 53 54 58 -55 -57 -58 -27 -59 -8 -4
right_child=2 4 61 5 -6 11 8 12 31 10 24 17 19 14 -16 51 -18 18 -20 47 21 22 -24 -25 -26 26 48 30 29 45 -32 32 43 35 -36 -37 -38 38 39 40 -42 42 -44 -45 -46 46 -48 -49 -50 -51 -52 -53 -54 55 -56 56 57 59 -60 -61 -62 -63
leaf_value=0.037387155455420408 0.30220012144288266 0.18538402270732035 0.38460180012460804 0.38598124354082147 0.34651627550295472 0.011304593629987481 0.39638279869273646 0.21551876452293089 0.32888513468443276 0.052422868886693688 0.3797752029409755 0.014259486571659184 0.086553227793932375 0.01941121666024484 0.52561911531561833 0.3657055060694458 0.076265097193374168 0.48955146089502233 0.17692683442362739 0.17336331741965921 0.57729047815343526 -0.029694023236270042 0.018751399226729845 0.59981070206474818 0.13962442649766146 -0.053109512517727657 0.031698144465159075 0.3289944827560583 0.27225786948539704 0.077770603607651409 0.16787659991248993 0.051813644944861431 0.10129750174444255 0.042136165314556238 0.44896004206660689 0.31104516445548258 0.39355022348690982 -0.053539477969902806 -0.053410889516653681 0.30073424181034503 -0.053663692698164879 0.57779072033362888 0.19536944346161325 0.34259835129607175 -0.0019930762282271714 0.49819904570770657 -0.053682594630774294 0.55737535592880882 0.22286697265905164 0.19869197785466453 0.68943292877267404 0.31492779498441892 -0.052994561101870043 0.049044206303036686 -0.053011065087544086 0.49259537487772231 0.0042465868702584132 0.54405879581516181 0.52973769802321524 -0.052901259276338791 0.11354021581232443 0.41148371434627101
leaf_weight=630.87680861353874 897.2646570391953 8.0775622688233835 2101.3646722324193 48.142275299876928 227.86072444170713 74.610607013106346 98.406169760972261 89.655656844377518 135.89382076635957 191.65771667286754 35.566901866346598 42.815320953726768 773.45840983092785 26.559659771621227 18.318109795451164 1007.5898736193776 208.60379096865654 14.205715697258709 209.25831289216876 106.45227203145623 6.1208891645073882 41.413481816649437 147.95101355388761 7.3845505230128756 39.807634551078081 2.9748220965266254 102.51022429391742 65.53477593138814 195.25740613043308 73.477698881179094 91.42508939653635 9.1439406760036928 155.49139692261815 50.3603908829391 38.340354967862368 44.898636065423489 10.765163514763115 22.336019095033407 15.719614032655953 252.82424298301339 12.619195036590098 7.6358151361346236 189.64709455892444 19.43442826718092 18.860428921878338 13.971825223416092 6.8106479980051509 6.3174799606204024 31.405553385615349 447.41892385855317 7.790149498730897 479.28649003058672 9.1104122363030893 28.318398378789425 5.189452961087226 15.890428841114042 16.806215696036819 11.300035454332827 26.464251190423965 3.0372516661882392 11.4565033018589 2446.1817205920815
leaf_count=11646 6076 108 3702 251 960 1209 556 1104 976 3059 257 696 12331 445 120 3728 3280 97 2636 1525 51 775 2659 49 441 55 1820 634 1957 1067 1149 132 2048 750 220 368 64 372 268 2186 204 35 2113 132 329 70 110 44 384 5575 33 2347 173 470 98 104 291 76 190 59 115 1695
internal_value=0.283613 0.160736 0.375858 0.11745 0.228237 0.190824 0.213308 0.0974699 0.242057 0.170993 0.109024 0.133274 0.123496 0.164537 0.233121 0.331598 0.118124 0.16745 0.196801 0.100337 0.0648358 0.101312 0.0950951 0.130319 0.252944 0.119252 0.141941 0.203925 0.248925 0.226134 0.235147 0.227847 0.183965 0.247616 0.372482 0.191693 0.104026 0.250484 0.229208 0.242408 0.283886 0.190719 0.210171 0.128106 0.205439 0.130591 0.317341 0.194876 0.0765305 0.206712 0.432844 0.349338 0.23829 0.262418 0.392336 0.202714 0.295236 0.194537 0.470841 0.417597 0.366888 0.399062
internal_weight=12135.3 5203.64 6931.69 3170.49 2033.15 678.55 1805.29 2491.94 1074.97 730.319 267.032 340.89 1386.33 500.097 201.838 2384.14 298.259 266.279 223.464 886.228 1105.61 474.737 468.617 320.666 75.3745 313.281 271.867 183.52 337.66 289.518 156.96 965.11 328.434 153.508 47.4843 106.024 61.1256 636.676 500.782 478.446 265.443 213.003 197.283 174.926 137.952 94.2602 20.7825 112.77 133.916 463.287 15.8677 1486.88 119.091 109.981 34.6285 75.3523 47.0339 31.1435 29.4391 14.3373 109.863 4547.55
internal_count=86474 68926 17548 47954 20972 8093 20012 39861 10539 9473 3757 4638 20632 6732 2348 12151 4384 3429 2733 13900 19229 7583 7532 4873 698 4824 4049 2228 3455 3204 1783 9868 3714 1534 352 1182 814 6154 5178 4806 2390 2416 2148 2180 1845 1247 180 1569 2204 5716 141 6075 1516 1343 343 1000 530 426 245 135 671 5397
is_linear=0
shrinkage=0.05


Tree=2
num_leaves=63
num_cat=0
split_feature=42 35 42 34 44 9 42 35 24 35 32 22 35 35 44 34 36 11 34 36 4 35 7 42 11 10 6 34 40 23 14 9 7 47 23 35 42 24 19 9 22 11 24 42 40 35 31 24 42 44 0 18 29 21 21 43 44 2 44 6 0 29
split_gain=26829.7 3537.19 1372.06 1308.04 948.303 821.773 562.017 534.374 715.937 462.116 622.527 449.202 446.563 380.297 380.717 410.59 372.85 368.257 412.645 590.412 366.324 332.845 478.77 417.64 366.144 340.16 332.566 442.697 380.958 325.322 315.049 323.828 303.889 306.585 330.619 299.968 298.107 407.923 343.983 312.648 358.125 358.037 297.015 418.265 295.03 291.504 480.676 417.887 533.328 498.287 407.815 321.289 295.696 285.248 307.691 284.261 281.833 277.608 273.362 266.039 431.729 386.661
threshold=1.0427676439285281 0.83050024509429943 2.2383497953414921 0.30771575868129736 0.3983128964900971 -1.9943752884864805 0.14165300875902179 0.36004573106765753 0.36703896522521978 0.26438727974891668 -1.1270092725753782 -0.1315491124987602 0.64367651939392101 1.705153286457062 -0.22156722098588941 0.42555135488510137 -0.48471868038177485 0.71741107106208812 0.54808425903320324 -0.20078347623348233 0.043512070551514632 0.38611185550689703 43.861600875854499 0.21477621793746951 -1.2392188310623167 -0.001551281369756907 0.6207537353038789 0.64587384462356578 3.2992010116577153 0.7645835578441621 -0.39018312096595759 0.33871252834796911 37.442213058471687 0.80154839158058178 0.45352779328823095 1.6430515050888064 0.61856487393379223 1.7662265896797182 0.18348686397075656 -0.52490466833114613 0.7299141287803651 0.53587359189987194 0.68446120619773876 0.81494703888893139 11.106296062469484 0.58750826120376598 -0.64040255546569813 0.58944371342659008 0.47902789711952215 0.0052504569757729777 0.20027656853199008 14.581497669219972 10.219182491302492 -0.13263412564992902 0.0058652602601796397 0.076298195868730559 0.41903358697891241 0.08532265201210977 -3.8243445158004756 0.31868821382522589 -0.27283544838428492 5.9355704784393319
decision_type=2 2 2 2 2 2 2 2 2 2 2 2 2 2 2 2 2 2 2 2 2 2 2 2 2 2 2 2 2 2 2 2 2 2 2 2 2 2 2 2 2 2 2 2 2 2 2 2 2 2 2 2 2 2 2 2 2 2 2 2 2 2
left_child=1 3 35 7 17 -3 13 -1 57 10 -6 12 53 14 -7 -16 -8 18 45 20 -20 24 25 44 -22 -23 28 -28 29 -27 31 58 -32 -34 -35 -2 37 39 -38 -18 41 55 43 -25 -24 51 52 49 -49 -48 -50 -5 -47 56 -55 -41 -11 -9 -10 60 -26 -62
right_child=2 5 -4 4 9 6 16 8 30 11 -12 -13 -14 -15 15 -17 36 -19 19 -21 21 22 23 42 59 26 27 -29 -30 -31 32 -33 33 34 -36 -37 38 -39 -40 40 -42 -43 -44 -45 -46 46 47 48 50 -51 -52 -53 -54 54 -56 -57 -58 -59 -60 -61 61 -63
leaf_value=0.038578627643717389 0.22272672318922615 0.28885716379343085 0.28160184159388224 0.078486425496913301 0.24122568963727675 0.056835147663016422 0.22313013223868539 -0.053995969416357197 0.52883244659207984 0.46635627987541639 0.095252290236973999 0.14854027141322232 0.053616517277386012 0.19702999569360824 0.12240328748609131 0.28616249208103306 0.39619150818687326 0.44344974830060269 -0.025090841528257031 -0.013853896474579222 0.24696502576963952 0.1987735856609682 0.46799050391610231 -0.053821988671315504 0.046775221639351293 0.063630530572223565 0.51379766716766884 0.08179181292457631 -0.013883693922289331 0.31659492491332392 0.0070632102557850384 0.17025145691202512 0.077418041612615368 -0.053649417855868554 0.46932288806316858 0.25417547811445973 -0.0030609211788049494 0.28666817310737575 0.15541965172127642 0.10407286673046263 0.073353416476402034 0.25446099711347164 0.3789813385869924 0.42868355754721837 0.096080097831239872 0.34035197746444423 0.52388487713245069 -0.016751434168596098 0.5483683693376431 -0.05343680132017057 -0.053769898982536618 -0.011274606526629875 -0.053994721669357718 0.40125020665839489 0.18921626911525236 0.40836653567730086 0.20339253804686586 0.38092707106164309 0.070659603394366208 0.00635266119376091 0.0018499448047832512 0.27119041913520903
leaf_weight=821.20445727929473 1326.7325723581016 164.03797067329288 6069.616431042552 263.20719518139958 94.359287396073341 191.12954272329807 539.5412484779954 4.2039627060294142 3.3033123612403861 11.10766953229904 323.2416076771915 218.48529250174761 26.610101081430912 179.26931446045637 251.55041877925396 45.146641310304403 14.942755024880169 7.748771119862794 33.778398983180523 72.992789320647717 38.416300520300865 156.08295871317387 31.408821910619736 18.01950773969293 96.033619705587626 32.690600033849478 10.194145001471044 14.177608508616684 72.585092909634113 20.794157605618238 175.859713062644 158.85960620641708 66.354433484375477 4.1597113832831374 11.050539668649433 1769.5739261657 37.230335142463446 104.10046209022403 426.19312965497375 97.604734748601913 83.155186291784048 118.66762616112828 11.125375669449566 5.9826603271067134 6.4229390025138846 31.731286101043224 10.021845653653143 78.442325741052628 8.005577974021433 5.9603716246783724 4.3344450108706942 160.47211791574955 5.5913132913410655 61.370064705610275 23.723892819136381 8.3298669792711717 123.22677582874894 28.832239359617233 225.00553426519036 80.560771092772484 17.446276888251305 56.407497022300959
leaf_count=14206 6668 402 5397 3822 661 2464 3439 65 8 43 4093 2209 284 1232 3050 243 47 36 533 1163 338 1432 180 284 1377 399 54 172 1105 152 2963 1659 1012 68 50 5483 468 470 3756 1193 993 985 65 22 81 188 63 1216 32 100 67 2632 85 335 214 37 1052 227 3282 1255 278 585
internal_value=0.213999 0.13173 0.267785 0.101829 0.126084 0.181082 0.172651 0.0656984 0.0985643 0.166404 0.128236 0.200717 0.247051 0.134755 0.111869 0.147322 0.190333 0.0997495 0.0977663 0.121488 0.135558 0.143677 0.174462 0.289576 0.103234 0.147062 0.0934119 0.26249 0.0607258 0.16198 0.0869294 0.115432 0.0440606 0.12383 0.3263 0.2407 0.170455 0.200604 0.142688 0.172841 0.161997 0.194815 0.16543 0.0664449 0.404849 0.0653817 0.126816 0.0728211 0.0313158 0.30858 0.336867 0.0444887 0.281275 0.270508 0.342136 0.128 0.225136 0.325582 0.0772887 0.0811873 0.116674 0.207565
internal_weight=15158.4 5992.49 9165.92 3731.59 2232.76 2260.9 2096.86 1498.83 677.629 882.125 417.601 464.524 246.039 667.096 487.827 296.697 1429.77 1350.63 1342.89 775.12 702.127 668.348 379.484 72.9593 288.864 306.525 150.442 24.3718 126.07 53.4848 644.593 387.168 257.424 81.5647 15.2103 3096.31 890.224 426.801 463.423 322.7 307.757 224.602 35.1275 24.0022 37.8318 567.766 144.087 106.765 90.7823 15.9822 12.34 423.679 37.3226 219.428 85.094 105.935 134.334 33.0362 228.309 250.448 169.887 73.8538
internal_count=86474 68926 17548 50147 26607 18779 18377 23540 9334 8891 4754 4137 1928 6989 5757 3293 11388 17716 17680 9475 8312 7779 3946 632 3833 3314 1882 226 1656 551 9042 4949 4093 1130 118 12151 7949 3725 4224 3255 3208 2215 371 306 261 8205 1751 1478 1315 163 99 6454 273 1644 549 1230 1095 292 3290 3495 2240 863
is_linear=0
shrinkage=0.05


Tree=3
num_leaves=63
num_cat=0
split_feature=51 24 51 34 25 24 9 43 0 44 32 3 34 20 0 19 9 22 7 3 12 12 18 51 7 12 19 21 34 12 34 1 19 33 19 3 21 44 22 11 27 1 1 24 7 44 34 33 20 22 9 1 22 34 27 10 11 3 41 34 18 41
split_gain=16853.1 1678.44 1280.39 1224.79 568.293 514.191 483.486 482.98 448.12 433.554 413.454 412.202 410.637 406.6 404.929 355.265 348.001 345.231 336.486 333.124 361.583 366.043 328.197 324.952 294.02 353.721 289.858 279.115 273.592 300.131 289.447 295.25 269.565 259.217 401.723 291.616 263.339 262.467 251.167 250.436 249.626 300.131 245.131 276.631 237.214 252.207 246.38 280.539 236.681 242.861 235.965 234.296 254.763 234.555 233.329 230.702 230.527 328.613 228.075 239.447 227.724 225.212
threshold=0.90522906184196483 0.67192500829696666 2.3946975469589238 0.47373531758785253 -0.64694595336914051 1.7107252478599551 -4.1202797889709464 0.13979434221982959 -0.16006459295749662 -0.19932179898023603 -0.00081494974438101042 -0.83755648136138905 0.01668406464159489 0.60603305697441112 -0.19529660791158673 -0.33700259029865259 0.10467951372265817 0.25487177073955541 17.986320495605472 -0.039093047380447381 0.79922226071357738 0.90663275122642528 13.573066711425783 1.4410999417304995 58.072704315185554 0.28470627963542944 -0.25921547412872309 -0.00083823595196008671 0.31823188066482549 0.45746834576129919 0.33846852183341986 0.38060463964939123 1.0382986664772036 0.10252029076218606 0.30842724442482 -0.057865094393491738 0.23566546291112903 -0.15900017321109769 0.7781532108783723 0.482905924320221 0.3482337892055512 0.038323219865560539 0.6730121672153474 0.44763943552970892 45.63618469238282 -0.22156722098588941 0.086772777140140547 1.4411365985870364 1.1600007414817812 0.30828689038753515 0.026659156195819381 0.3289006799459458 0.46668741106987005 0.4498427957296372 0.34179002046585089 -0.25925049185752863 -0.9185345172882079 -0.94044277071952809 0.6315799653530122 0.13831320405006411 22.503977775573734 -1.4741913080215452
decision_type=2 2 2 2 2 2 2 2 2 2 2 2 2 2 2 2 2 2 2 2 2 2 2 2 2 2 2 2 2 2 2 2 2 2 2 2 2 2 2 2 2 2 2 2 2 2 2 2 2 2 2 2 2 2 2 2 2 2 2 2 2 2
left_child=1 3 23 6 8 12 -1 10 13 -8 15 14 -3 40 28 -6 24 -9 -18 44 32 38 -10 50 61 -26 -16 -27 29 -11 -30 -32 -21 35 -35 37 -37 -20 -22 -17 54 -42 43 -24 -14 46 -46 -48 49 -34 -2 -23 53 -53 -5 -12 -33 -58 59 -7 -44 -13
right_child=2 5 -4 4 7 58 9 17 22 11 55 16 19 -15 26 39 18 -19 33 20 21 51 42 -25 25 27 -28 -29 30 -31 31 56 48 34 -36 36 -38 -39 -40 -41 41 -43 60 -45 45 -47 47 -49 -50 -51 -52 52 -54 -55 -56 -57 57 -59 -60 -61 -62 -63
leaf_value=0.2748536309872574 0.21107114360028728 -0.054010986800263443 0.22381711340280269 0.12247520690404215 0.2347441380353873 0.10942614204723998 -0.012944935792808299 0.27712869767013282 0.24644984704148648 0.08108458839117276 0.37757908724432343 0.1227829927325414 0.13468182244475788 0.264703578867162 -0.053878491918186326 0.072194920244038591 0.00024384169203777264 -0.054745876380171067 0.53543808266948623 0.062858779941975071 0.27892609879743646 0.32241579777831503 0.28226357665329321 0.2004024720937165 -0.053184780126330239 0.45951781060767083 0.31009391434408096 -0.053401238472086901 0.2429912269590655 -0.053340728009864946 0.052664724977328027 0.3163122374328291 -0.05467866407925967 0.38242165001322831 0.018187340595521167 -0.053458457496653483 0.32119674039686413 0.086497156971490102 0.094989595184477998 0.3272473833055789 0.18445672308368577 -0.023532489326657219 -0.054638871550424066 -0.054745684497921811 0.46038109277621059 0.22245246042995115 -0.054708162935339144 0.27854330995968496 0.048861243107361167 0.34156568698518108 0.16441928624385863 -0.054101659616456722 -0.054557012052347531 0.34331660900545902 0.43987487515381662 0.014498213960062015 -0.054135330591938605 0.3113673710624294 0.10891087938260709 0.20567933147557238 0.16624723643530184 -0.0039801096965370328
leaf_weight=26.265106454491615 332.53466298431158 31.018866885453463 6837.033777743578 613.93082016706467 46.542484141886234 75.484367936849594 190.41947212442756 46.325460702180862 153.03380547091365 329.76269565150142 4.4519456736743441 38.309183448553085 1110.359003700316 48.049040388315916 6.5075898654758921 220.75025279819965 143.10915803164244 9.431517940014599 3.2741243243217459 402.02559350803494 66.37715507671237 7.6608991697430602 31.44422610476613 2737.794234469533 9.4373265802860278 11.273718338459728 34.307281080633402 3.4682918526232234 48.459303390234709 47.504654128104448 99.127386096864939 23.358616899698973 4.6000775545835522 17.640286684036258 13.260974340140818 58.755148265510798 5.0970850326120845 576.50388536602259 25.763028532266617 10.063218310475348 24.07611333951354 62.037984482944012 25.261989198625088 7.5514863170683375 3.748023346066474 156.09757374227047 24.161098435521126 8.550056077539919 18.377756990492344 24.264536436647177 1465.9579426348209 6.0321028083562842 32.735988203436136 9.6555809453129751 5.8453560993075362 253.33018843084574 14.730519812554123 10.556627098470925 98.555560424923897 448.62772691249847 21.684405811131001 410.40920615941286
leaf_count=152 1051 469 4725 5977 334 556 3126 221 891 4956 15 547 9446 236 103 2623 2213 122 18 4706 411 38 197 6747 170 76 208 60 329 838 1222 133 62 87 167 1004 12 7502 263 55 181 822 343 101 18 1043 330 8 173 91 7702 89 438 29 20 3510 219 87 619 1606 158 6819
internal_value=0.173888 0.107997 0.210152 0.0865012 0.119772 0.139183 0.0616635 0.0809473 0.142877 0.0589911 0.0663559 0.0661822 0.126445 0.123965 0.0998942 0.108726 0.0501348 0.220991 0.0698808 0.12939 0.0984771 0.166194 0.202539 0.189556 0.0159941 0.185834 0.252062 0.338845 0.0890647 0.0641581 0.136949 0.102175 0.0761354 0.084655 0.226114 0.0778634 -0.0235511 0.0890324 0.227496 0.0833149 0.114386 0.0346179 0.124349 0.217002 0.143566 0.194797 0.0763942 0.0323973 0.189118 0.278417 0.173045 0.0654831 0.0248349 0.190505 0.125469 0.0207687 0.203063 0.0984511 0.178694 0.191817 0.0473878 0.00684225
internal_weight=17632.8 6259.44 11373.3 3705.35 1583.81 2554.09 2121.54 590.895 992.915 2095.27 535.138 1904.85 1931.43 753.939 614.315 277.356 1290.54 55.757 817.641 1900.41 597.493 148.225 238.976 4536.29 472.898 24.1793 40.8149 14.742 573.5 377.267 196.232 147.773 449.268 674.532 30.9013 643.63 63.8522 579.778 92.1402 230.813 705.89 86.1141 85.9421 38.9957 1302.92 192.557 36.4592 32.7112 47.2424 28.8646 1798.49 56.0846 48.4237 15.6877 619.776 257.782 48.6458 25.2871 622.668 524.112 46.9464 448.718
internal_count=86474 66249 20225 45854 15806 20395 30048 6880 8926 29896 6537 26770 17614 7236 8095 3012 18675 343 11003 17145 6300 1268 1690 15500 7672 306 311 136 7784 5794 1990 1661 5032 8790 254 8536 1016 7520 674 2678 7000 1003 799 298 10845 1399 356 338 326 153 8753 594 556 118 5997 3525 439 306 2781 2162 501 7366
is_linear=0
shrinkage=0.05


Tree=4
num_leaves=63
num_cat=0
split_feature=42 35 42 34 44 20 35 42 36 35 10 21 16 14 20 9 40 40 4 12 14 44 22 3 18 6 40 12 12 18 10 34 35 35 10 44 30 34 21 44 8 16 32 14 36 18 34 3 3 34 43 43 23 36 23 23 10 10 10 25 6 12
split_gain=12005.9 1687.72 883.049 696.952 475.388 424.987 394.579 371.555 347.818 438.302 307.228 296.187 287.334 279.914 337.425 256.719 250.276 247.851 239.057 388.352 265.213 266.209 234.385 230.419 229.648 383.459 234.699 319.168 226.393 225.812 253.446 236.959 221.047 212.317 229.959 337.488 396.248 285.293 226.165 293.995 259.61 234.374 209.478 208.732 277.659 207.466 228.522 232.062 306.955 219.972 207.229 231.188 206.913 201.322 235.558 201.004 200.148 244.084 215.882 197.815 197.459 196.592
threshold=1.0427676439285281 0.83050024509429943 2.6737657785415654 0.16366871446371081 0.302780032157898 -1.587117552757263 0.26977933943271643 -1.5050467252731321 -0.66982141137123097 0.35442455112934118 -0.043913330882787698 0.052234632894396789 0.45272630453109747 -1.1743252873420713 -0.58189609646797169 0.32069037854671484 9.4621043205261248 11.272891044616701 0.56761217117309581 0.68073987960815441 -0.88828572630882252 0.22935052216053012 -0.058917876332998269 -0.3104733526706695 7.6047332286834726 0.31125426292419439 5.2244136333465585 0.27275820076465612 0.51112568378448497 25.830929756164554 0.0099742133170366305 0.27392022311687475 1.662890672683716 1.4057138562202456 -0.0024705709656700488 -0.25780273973941797 0.78670024871826183 0.31823188066482549 -0.094059173017740236 0.49752543866634374 1.0000000180025095e-35 0.29774218797683721 -0.2792579978704452 -4.2072660923004142 -4.5985677242279044 29.764898300170902 0.1190607436001301 -0.29674074053764338 -0.26448115706443781 0.14467411488294604 -0.26279789209365839 -1.1441618800163267 0.61324307322502147 -0.26632291078567499 0.97376006841659557 0.17743549495935443 -0.030624342150986191 0.15353387594223025 0.25746697187423712 -1.2981410622596739 0.81054055690765392 0.41724236309528356
decision_type=2 2 2 2 2 2 2 2 2 2 2 2 2 2 2 2 2 2 2 2 2 2 2 2 2 2 2 2 2 2 2 2 2 2 2 2 2 2 2 2 2 2 2 2 2 2 2 2 2 2 2 2 2 2 2 2 2 2 2 2 2 2
left_child=1 3 32 43 8 16 13 -7 9 15 11 22 17 14 61 -5 -3 18 20 52 -11 -22 -10 33 25 28 27 -26 -8 30 31 60 53 34 35 59 37 -37 -36 40 41 -40 50 44 -1 -45 47 -47 -49 -48 51 -33 55 -2 56 -20 -55 -58 -59 -9 -16 -6
right_child=2 5 -4 4 6 7 24 23 10 12 -12 -13 -14 -15 29 -17 -18 -19 19 -21 21 -23 -24 -25 26 -27 -28 -29 -30 -31 -32 42 -34 -35 38 36 -38 -39 39 -41 -42 -43 -44 45 -46 46 49 48 -50 -51 -52 -53 -54 54 -56 -57 57 58 -60 -61 -62 -63
leaf_value=-0.054211443173748444 0.15831438363170125 0.20965521905969844 0.18910458105515907 0.052333810772420934 0.028870729323042157 -0.0055566700761160662 0.039951080451051647 0.25849905767101627 -0.053968625071226552 0.097752622919180174 0.02499721547552719 0.26825770569114227 0.049639130820777359 0.053727094881877914 -0.053350970008339528 0.35590260613369573 0.076616309398206919 -0.054345600574614072 0.1730547904872973 -0.054908704508868235 0.24490518355206248 -0.054988235295209686 0.11301914389426425 0.11066289797566985 0.080135488591894052 -0.055318670392269148 0.11444279292319928 0.19565838902212029 0.18084657419090161 0.25038398168278059 0.57583999880600623 0.19828436970056726 0.16967615106748468 0.16802152724904906 -0.055971339766139931 0.070387779511704968 0.047269864926140652 0.21928822029001163 0.16192011405829143 0.19978622192129847 0.0095578879012801973 -0.015517789629542887 -0.0546952457034015 0.026772783836295434 0.5212885224279693 -0.053955773518564842 0.33306438804381217 0.69782434510345115 0.097941155854570347 -0.054027584351838333 0.30028767762826786 0.060589315824223611 0.22734070900569089 -0.058485110223205877 -0.05889188540457703 0.034191186339663178 0.16685131829497957 0.010300810754113571 0.12372083824219518 -0.055648019340504451 0.49403503241241681 0.27439759334170927
leaf_weight=3.5983415246009827 1430.714800670743 213.09187116846442 6915.153078481555 552.85492564365268 115.35122901946306 57.584839437156916 50.775312900543213 6.1156351678073397 27.244897823780775 56.453709606081247 572.4405754134059 23.733355056494474 110.78634551540017 463.64955203607678 25.758758593350652 7.0532400310039511 42.382054407149553 15.589852973818777 50.589420598000288 30.376518800854683 124.87701426446438 7.8660868890583506 91.877375945448875 1556.2600739821792 77.637273769825697 43.317154079675674 469.35383225977421 260.07914009690285 65.020018421113491 43.977333661168814 3.0591220483183852 63.900063920766115 3535.8722046539187 429.02606712654233 24.50553535670042 38.267790839076042 55.453813094645739 201.85218860581517 87.972986716777086 60.194984186440706 88.085522703826427 23.603687524795532 12.604364939033983 778.78968523815274 5.0193935856223089 22.342013940215111 17.390188928693536 2.5667672678828231 12.602946143597363 4.6518582999706259 21.694356665015221 58.292171064764261 47.579082749783993 13.959831729531286 17.425644986331463 53.744386754930019 256.75555895268917 55.885341085493565 168.30221369117498 27.745697654783726 1.7600902579724778 8.7728749550878984
leaf_count=54 4636 409 3708 7292 1394 636 567 24 420 491 7770 109 1345 5681 447 50 231 224 406 399 704 104 950 11707 670 538 3815 1554 416 229 6 273 6817 1724 272 348 428 781 478 329 844 241 167 11774 10 355 107 7 125 73 113 599 265 116 141 583 1056 382 692 327 11 50
internal_value=0.147242 0.0964558 0.177225 0.0769312 0.0866346 0.125989 0.10485 0.120066 0.0682969 0.0865078 0.0413669 0.106962 0.12064 0.0793136 0.112715 0.0561579 0.187585 0.140961 0.149158 0.108295 0.188528 0.227134 0.0748268 0.12285 0.126491 0.0715904 0.137314 0.169101 0.119065 0.148436 0.124469 0.116965 0.162231 0.141036 0.122174 0.150608 0.167737 0.195558 0.0892337 0.102927 0.0737257 0.124384 0.140758 0.0361676 0.280988 0.033651 0.123598 0.0485187 0.199443 0.251371 0.15788 0.132597 0.140929 0.148683 0.121788 0.101523 0.12815 0.133567 0.0954476 0.00108953 -0.0183405 0.0462241
internal_weight=19711.2 7317.17 12394.1 4405.03 3558.07 2912.14 1785 2656.67 1773.07 1057.77 715.296 142.856 497.862 818.82 355.17 559.908 255.474 387.076 371.486 182.289 189.197 132.743 119.122 2599.08 966.183 159.112 807.07 337.716 115.795 231.046 187.069 184.01 5478.92 1042.82 613.798 329.435 295.574 240.12 284.363 259.857 199.662 111.577 156.491 846.961 8.61774 838.343 59.5538 37.5117 15.1697 22.042 143.887 122.192 151.913 1943.04 512.329 104.334 494.903 480.943 224.188 33.8613 27.5188 124.124
internal_count=86474 68926 17548 50147 37642 18779 16530 18139 21112 11863 9249 1479 4521 8970 3289 7342 640 3176 2952 1653 1299 808 1370 17503 7560 1521 6039 2224 983 1845 1616 1610 13840 5796 4072 1908 1557 1129 2164 1892 1563 719 1152 12505 64 12441 667 487 132 180 985 872 1254 7023 2387 989 2246 2130 1074 351 458 1444
is_linear=0
shrinkage=0.05


Tree=5
num_leaves=63
num_cat=0
split_feature=42 35 42 42 25 6 35 46 44 18 9 35 44 36 4 6 11 36 4 40 7 5 36 34 8 30 42 44 34 5 29 9 46 50 44 3 20 4 25 0 35 18 21 3 46 33 41 8 50 24 6 24 23 34 29 33 35 9 7 14 3 3
split_gain=8232.17 1431.02 988.909 843.311 377.435 296.801 278.668 370.557 304.347 325.378 303.494 266.256 274.853 248.808 241.964 232.463 230.526 291.909 380.375 232.17 278.964 220.446 297.927 251.232 308.501 303.454 220.481 250.379 218.674 212.934 226.468 211.971 231.118 213.776 265.362 246.724 387.412 261.712 234.33 305.221 278.358 274.852 250.538 354.048 328.941 220.74 211.335 208.841 206.386 204.914 203.178 311.626 213.069 217.62 198.803 256.039 196.29 251.964 196.282 192.326 342.354 284.386
threshold=0.90522906184196483 1.2649350166320803 1.883277475833893 0.18807162344455722 -0.66927659511566151 0.038507878780364997 0.39137059450149542 -0.20128736644983289 0.27858771383762365 7.3677291870117196 -0.58543184399604786 0.70833975076675426 0.26843456923961645 -5.598329782485961 0.17311855405569079 0.18002770096063617 0.12579631060361865 -0.054759778082370751 0.99277544021606456 6.8332622051239023 50.367956161499031 0.25005844235420233 -1.0178392529487608 0.49020318686962133 -0.58902576565742482 0.22001253068447116 0.14165300875902179 0.33766098320484167 0.68087497353553783 0.13064194470644 4.4528980255126962 -4.1202797889709464 0.12723580747842791 -0.020171420648694035 0.86767625808715831 -1.0382242798805235 0.26471453905105596 0.9999239742755891 -0.79001653194427479 0.18790279328823092 0.65597170591354381 6.0992734432220468 0.004670229274779559 -0.44975575804710383 0.058815510943531997 -0.17909260094165799 3.214205384254456 -1.0845537781715391 -0.099446777254343019 0.8709012269973756 0.19588252156972888 1.4500679373741152 0.57647714018821727 0.15093544125556949 5.65319848060608 0.38164092600345617 0.29117169976234442 0.13649158924818042 36.901515960693366 -0.55401319265365589 -0.82203632593154896 -1.3591879606246946
decision_type=2 2 2 2 2 2 2 2 2 2 2 2 2 2 2 2 2 2 2 2 2 2 2 2 2 2 2 2 2 2 2 2 2 2 2 2 2 2 2 2 2 2 2 2 2 2 2 2 2 2 2 2 2 2 2 2 2 2 2 2 2 2
left_child=1 3 -2 5 -5 31 7 8 10 59 47 12 -6 -9 -13 16 -16 18 -18 20 -19 23 -23 -8 -25 28 -24 -28 -26 30 -17 -1 33 34 -33 -36 37 -37 39 42 -40 -42 45 -44 -45 -35 -4 -7 -30 -3 51 52 53 -51 -32 58 57 -14 -56 60 61 -10
right_child=2 49 46 4 11 6 21 13 9 -11 -12 14 56 -15 15 29 17 19 -20 -21 -22 22 26 24 25 -27 27 -29 48 -31 54 32 -34 38 35 36 -38 -39 40 -41 41 -43 43 44 -46 -47 -48 -49 -50 50 -52 -53 -54 -55 55 -57 -58 -59 -60 -61 -62 -63
leaf_value=0.1880499955677313 0.13095766214673582 0.19437266288662203 0.15147190434929347 0.12344997062374251 0.003218138951379926 0.27259573999326875 0.089090207754517092 0.31859832437346419 0.012806494370191344 0.059359737549828553 0.55698356389028258 0.15697593160119577 0.20443015021681965 0.0337718288735466 0.020120527763137497 -0.056286958236543505 0.1850427592753684 0.0762091963975145 -0.0193356424353739 -0.055330186965071596 0.32318303130502568 0.10346558824125118 -0.0059253936373303805 0.040232929340539375 0.25550881402570297 -0.055612772158646823 -0.054660075507186913 0.29397930302394482 0.2575990330937622 -0.028037016426850098 0.21686696587131668 0.011923450418135631 -0.035743238775679392 0.21800468226547426 0.026573451330399248 0.13803879625707569 -0.054544790335145782 0.48221496805936914 -0.0044976255497314903 -0.055181909162421654 0.20082316937493605 0.044444141491177626 -0.030315850994099881 0.082424948312672455 0.43268097185992932 -0.055199219337225082 0.16619193131401544 -0.053786747533315672 -0.055592309630862285 -0.055118866963125492 0.14961058115035722 0.12593139135313974 -0.0082036507653584084 0.12755908636713639 0.046687556080966044 -0.056020461039550329 0.094827271146527115 -0.019182157870357326 0.2456461587171852 0.55245343581793416 -0.053674504052185074 0.26675766540357349
leaf_weight=23.524387240409851 4011.2933131568134 113.62222297117114 4073.6875275820494 916.57741334289312 167.84346355870366 14.71047252044082 400.07776889204979 7.7365312911570063 14.316453613340853 321.69206472113729 6.3144325651228419 157.70384508743882 14.86486231535673 857.03458467125893 63.476067163050175 24.738447196781635 191.63784252852201 116.7797658033669 25.834849525243044 29.366153601557016 12.674652896821497 199.37772018834949 157.92735097929835 39.660896070301533 95.592846762388945 10.652976620942352 8.2432422861456889 13.722480963915585 9.2200128175318259 68.699127096682787 31.63971358537674 537.37555092573166 101.2626807577908 81.119113832712173 35.230315797030926 9.851142473518852 9.1837264783680421 12.572539977729321 156.79549293592572 23.619608752429485 41.403101373463869 87.439710967242718 40.256613191217184 20.844846282154325 9.880683094263075 8.1348968520760518 6073.9701940864325 7.3500847406685361 12.247708309441803 19.520324606448412 514.16746483370662 695.25756186619401 79.919548865407705 98.914221499115229 27.981705080717802 27.028188962489367 363.74006031826138 82.59218929335475 22.256423335522413 3.1824260391294947 15.586135320365427 47.939031422138214
leaf_count=106 12884 349 4928 5799 2293 100 3866 44 184 3965 25 948 115 11843 660 261 1132 1009 257 356 32 1745 2033 338 398 127 112 44 46 713 130 7076 1365 629 408 67 129 54 2418 310 312 1021 577 197 40 101 2492 115 148 243 1938 3237 773 622 231 300 2978 1131 77 17 256 371
internal_value=0.12973 0.0866318 0.151975 0.0752866 0.0984068 0.059528 0.0702629 0.0551978 0.0930668 0.0819152 0.251338 0.0823422 0.0580044 0.03632 0.101483 0.0878544 0.108261 0.123129 0.160763 0.0715971 0.10039 0.0908838 0.0613717 0.110609 0.162045 0.199874 0.0147186 0.163143 0.223124 0.0435028 0.0802774 0.0394411 0.0364658 0.0432759 0.0236095 0.117565 0.218986 0.331012 0.0685856 0.112615 0.0402456 0.0946959 0.137349 0.0672409 0.19506 0.193104 0.160283 0.163852 0.0789179 0.129782 0.124569 0.11016 0.0548808 0.0974502 0.111299 0.0680694 0.0779428 0.0149248 0.13483 0.171468 0.155892 0.208358
internal_weight=21466.9 7307.92 14159 5786.51 2345.43 3441.08 2242.59 1295.86 431.091 402.716 28.375 1428.86 629.041 864.771 799.817 642.113 439.769 376.293 217.473 158.821 129.454 946.723 379.271 567.452 167.374 127.714 179.893 21.9657 117.061 202.344 133.644 1198.49 1174.97 1073.71 604.213 66.8377 31.6074 22.4237 469.494 183.856 285.638 128.843 160.236 70.9821 30.7255 89.254 10147.7 22.0606 21.4677 1521.4 1407.78 893.612 198.354 118.435 108.906 77.2663 461.197 97.4571 50.2381 81.024 77.8416 62.2555
internal_count=86475 66171 20304 59009 18422 40587 25777 16920 5033 4793 240 12623 6517 11887 6106 5158 3446 2786 1389 1397 1041 8857 3934 4923 1057 719 2189 156 592 1712 999 14810 14704 13339 7734 658 250 121 5605 1854 3751 1333 1544 814 237 730 7420 215 194 7162 6813 4875 1638 865 738 608 4224 1246 308 828 811 555
is_linear=0
shrinkage=0.05


Tree=6
num_leaves=63
num_cat=0
split_feature=42 35 42 42 44 3 5 36 42 34 22 31 9 36 9 34 4 3 10 19 5 33 22 10 29 34 6 4 21 32 33 22 22 4 19 42 10 9 30 29 21 18 10 20 7 35 11 18 7 42 29 29 7 36 13 32 9 41 31 20 5 24
split_gain=6902.78 1517.25 897.072 438.997 282.783 270.405 272.425 267.039 282.662 256.702 279.231 247.104 234.015 232.402 269.663 291.41 220.015 207.04 199.024 248.824 291.861 206.124 189.301 198.686 180.917 180.023 194.636 174.71 184.018 202.879 174.527 214.298 354.202 205.178 257.743 216.979 191.285 174.289 197.454 265.974 302.403 210.961 196.604 178.434 173.212 182.353 171.45 170.709 262.078 203.829 195.055 196.734 217.904 325.755 193.913 168.466 165.544 164.173 161.406 395.599 161.311 182.742
threshold=1.3615878224372866 1.4057138562202456 0.18807162344455722 3.0932818651199345 -1.512590706348419 -1.1029078364372251 0.44956055283546453 -0.70078450441360463 -0.20948694646358487 0.25808136165142065 -1.0136823058128355 0.50827902555465709 -0.65936434268951405 -0.054759778082370751 0.026659156195819381 0.5321193039417268 0.34004893898963934 -1.605204105377197 0.038527190685272224 0.15403217077255252 0.29774218797683721 -0.33102005720138544 -1.032248258590698 1.0201700329780581 8.0179200172424334 0.99988901615142833 0.04617161117494107 0.84628510475158703 0.045015996322035796 5.6722359657287607 -0.025340976193547245 -0.10771895945072173 -0.066789116710424409 0.60013461112976085 -0.47618992626667017 -0.19897074252367017 -0.26607282459735865 0.68483206629753124 0.70236703753471386 11.678244113922121 -0.79267406463623036 14.144526958465578 0.0078422282822430151 0.80154839158058178 23.607519149780277 0.3966480046510697 -2.0227005481719966 5.263167381286622 42.759117126464851 -0.30401660501956934 4.8896818161010751 8.3959274291992205 33.605434417724616 -0.73830184340476979 1.0915024280548098 -0.00081494974438101042 0.94917362928390514 1.105236351490021 -0.10878341272473334 1.0000000180025095e-35 0.13338566571474078 0.30051338672637945
decision_type=2 2 2 2 2 2 2 2 2 2 2 2 2 2 2 2 2 2 2 2 2 2 2 2 2 2 2 2 2 2 2 2 2 2 2 2 2 2 2 2 2 2 2 2 2 2 2 2 2 2 2 2 2 2 2 2 2 2 2 2 2 2
left_child=1 2 4 -2 24 -4 25 9 -9 11 12 27 17 14 15 -8 47 -11 19 20 30 -20 23 -19 -1 26 -7 28 -6 -30 36 -32 -33 55 -35 -36 -10 42 39 43 -41 -40 -28 56 45 -44 -14 48 49 -12 -49 52 53 54 -52 -34 -39 60 -29 -60 61 -43
right_child=3 -3 5 -5 7 6 13 8 18 10 16 -13 46 -15 -16 -17 -18 22 21 -21 -22 -23 -24 -25 -26 -27 37 58 29 -31 31 32 33 34 35 -37 -38 38 41 40 -42 57 44 -45 -46 -47 -48 50 -50 -51 51 -53 -54 -55 -56 -57 -58 -59 59 -61 -62 -63
leaf_value=0.20240746951462119 0.12904508631332881 0.11841799277705188 0.13004803335764006 0.1473702121930642 0.057381663242578866 0.094137017202125611 0.23458086898651845 -0.0088607225883474521 0.60586641505116812 0.10304369180660761 0.23845969779179121 0.12616483822141672 -0.056361508979484998 0.025297005644272438 0.13372335269734972 0.00299594830190319 0.041539889681623934 -0.054582754845376481 -0.016454963485730497 -0.006947764818301826 -0.0048599576416407109 0.14662258152318181 0.26450268301586605 0.23360508997972304 0.073848708912122446 0.15312551744780745 0.065084110241643109 -0.022787927729115861 -0.011873128855491591 0.55995790592651196 -0.054565596624980686 0.38427607477505499 0.23674120264412177 0.31023974740194094 0.58197785504400268 -0.028322113860148157 0.028169161284577294 0.14073237491389945 0.023465072743275459 0.21881507070045628 -0.056999503123841992 -0.056556388787080247 0.2425527684851114 0.20768261744404742 -0.018635205379827713 0.040000176794081216 0.13279963873239095 -0.054943763881543609 0.66334100759719794 0.0082334255327268825 -0.0085672421778350324 0.050284498784190085 0.24587895481285629 0.30878116554016399 0.31642663304446605 -0.054245684851748313 -0.013990420770232354 0.013509232153082152 0.23151192923198183 -0.028918828348798095 0.052326873099411655 0.19517066794727633
leaf_weight=51.367101524025202 6260.8978073224425 2344.7496712803841 369.36110760644078 6837.2418857067823 767.63393484055996 914.0244515016675 16.413015592843294 318.22526609897614 1.4626381285488594 102.797666516155 26.176903132349253 84.628571029752493 12.404336128383873 70.227199960500002 578.05106566473842 78.806580625474453 635.72841652110219 64.72396793961525 25.013681814074516 201.30436214804649 97.646905303001404 85.982806250452995 5.9985670633614054 6.5896648876368991 58.569841425865889 76.846114423125982 915.57961165904999 186.12241217121482 136.2639172449708 1.568968042731284 12.824698626995085 15.313938103616236 39.45701952278614 7.8781947344541541 1.5168735980987538 36.512638263404369 70.508994787931442 82.339115798473358 164.73670606687665 13.815796963870524 35.404904041439295 7.9661465510725966 12.931636050343512 79.553362268954515 150.30520840734243 78.950984138995409 349.20857570320368 24.77366454526782 2.6886765211820594 15.194029085338114 41.678221069276333 118.487632997334 35.061063636094332 13.159258741885422 5.1578457430005065 5.6914592385292044 21.882521793246269 38.940413825213909 23.58237186819315 38.205715883523226 43.176436241716146 75.929760131984949
leaf_count=156 9806 8256 1498 2706 9650 6144 45 4422 7 796 158 688 134 601 3217 677 6726 887 321 2559 1341 754 23 25 417 292 6418 2884 1926 3 177 43 198 29 6 466 971 448 1176 33 363 88 79 287 1445 611 2249 324 5 171 512 1241 174 38 11 84 185 222 197 560 274 271
internal_value=0.114798 0.0832832 0.072375 0.138611 0.0549174 0.0893848 0.0850388 0.0525163 0.0292439 0.0604469 0.0746501 0.0436988 0.103118 0.111852 0.12088 0.0429143 0.0578527 0.0565536 0.0494161 0.0357247 0.0654677 0.109872 -0.00526173 -0.027953 0.133917 0.0776889 0.0754894 0.0376479 0.0478303 -0.00536391 0.101391 0.138514 0.161793 0.124376 0.0499437 -0.00397923 0.0399094 0.0655886 0.0883877 0.123644 0.0204191 0.0635515 0.0544871 0.151291 0.0144255 0.0685076 0.126311 0.0945784 0.184994 0.153906 0.0778627 0.0932698 0.146851 0.0889793 0.0272229 0.200059 0.108247 0.10333 0.00045739 0.0704786 0.130855 0.171268
internal_weight=22995.2 9897.1 7552.35 13098.1 3727.11 3825.24 3455.88 3617.17 919.339 2697.83 1459.83 1238.01 541.723 743.498 673.271 95.2196 918.106 180.11 601.114 490.118 288.813 110.996 77.3122 71.3136 109.937 2712.38 2635.54 1153.38 905.467 137.833 191.166 119.195 106.37 91.0562 45.9077 38.0295 71.9716 1721.51 563.745 232.996 49.2207 330.749 1157.77 183.775 242.188 91.8826 361.613 282.377 44.0596 41.3709 238.318 213.544 95.0564 59.9953 46.8361 45.1485 104.222 166.013 247.91 61.7881 127.072 83.8959
internal_count=86475 73963 65707 12512 41333 24374 22876 40760 11378 29382 13474 15908 4114 4540 3939 722 9360 1731 6956 5881 3322 1075 935 912 573 18336 18044 15220 11579 1929 1981 1003 826 783 501 472 978 11900 3347 1316 396 2031 8553 920 2135 690 2383 2634 334 329 2300 1976 735 561 523 282 633 855 3641 757 633 359
is_linear=0
shrinkage=0.05


Tree=7
num_leaves=63
num_cat=0
split_feature=42 42 44 42 36 1 24 33 42 31 24 4 31 12 40 11 3 14 12 23 33 1 36 18 1 24 12 42 12 32 12 7 16 6 0 23 34 31 12 9 8 12 24 31 3 23 41 12 32 43 23 19 41 14 7 18 12 40 24 21 21 16
split_gain=6007.87 1047.89 507.248 458.244 293.894 389.358 291.224 281.072 239.015 297.414 276.326 246.823 272.781 243.507 238.328 233.564 192.107 338.571 191.992 182.184 179.015 156.527 156.514 165.936 165.161 302.499 173.935 262.111 226.453 185.905 176.285 155.804 157.132 154.227 150.317 150.232 150.14 232.2 233.941 173.928 184.249 225.084 216.1 170.554 197.394 168.991 251.743 214.103 295.312 232.629 209.886 178.406 177.367 168.381 161.011 281.804 155.804 153.902 149.096 146.393 174.2 150.511
threshold=1.3615878224372866 0.25249256193637853 -1.512590706348419 2.6737657785415654 -0.67604872584342945 0.19847907125949862 1.4297694563865664 -0.33102005720138544 -1.5556387305259702 -0.87735170125961293 0.38997815549373632 0.7278631627559663 0.3016637265682221 0.035726103931665427 6.4813759326934823 -1.4298695325851438 -1.384133458137512 -1.4153013825416563 0.052701013162732131 0.54023519158363353 -0.39486016333103174 0.16679626703262332 -0.65240034461021412 1.2391580343246462 0.99982175230979931 1.1521960496902468 0.26563422381877905 0.93772715330123912 0.26924671232700353 -2.38351489656452e-07 0.21099592000246051 9.4401078224182147 0.80018314719200145 0.914341300725937 -0.58130642771720875 0.21130390465259555 0.20732916891574862 0.045174380764365203 0.5642797350883485 -0.15827366709709165 0.5552712380886079 0.50641614198684703 0.14291869848966601 0.08684824034571649 -0.46568529307842249 0.078387796878814711 -0.13914223760366437 0.65583795309066784 0.00087750435341149579 0.029206478036940101 0.054071882739663131 -0.97536289691925038 -0.2562823593616485 -0.9870111048221587 32.423101425170906 10.708154678344728 0.092614583671093001 1.6378087401390078 1.0000000180025095e-35 0.11246116459369661 0.10788176953792573 0.50006118416786205
decision_type=2 2 2 2 2 2 2 2 2 2 2 2 2 2 2 2 2 2 2 2 2 2 2 2 2 2 2 2 2 2 2 2 2 2 2 2 2 2 2 2 2 2 2 2 2 2 2 2 2 2 2 2 2 2 2 2 2 2 2 2 2 2
left_child=1 2 14 -2 5 21 22 34 16 13 15 18 -13 -10 -1 58 17 -7 20 31 -12 -4 -3 -24 26 -26 27 -25 -28 -29 -31 -15 35 -30 -6 59 -17 45 39 53 41 -41 56 44 -40 46 50 51 57 52 -38 -47 -50 -39 -53 -56 -42 -49 -11 60 61 -33
right_child=3 6 4 -5 7 8 -8 -9 9 10 11 12 -14 19 -16 36 -18 -19 -20 -21 -22 -23 23 24 25 -27 28 29 33 30 -32 32 -34 -35 -36 -37 37 38 43 40 42 -43 -44 -45 -46 47 -48 48 49 -51 -52 54 -54 -55 55 -57 -58 -59 -60 -61 -62 -63
leaf_value=0.14642270242638744 0.1131543126025866 0.094435325831643796 0.041744702063487758 0.13188393930687722 0.38499568326682843 0.065041207734447479 0.10902949960921129 0.04154814007569993 -0.02339708998028741 0.20877155622157068 0.11580417000637627 -0.0085924628667302053 0.11096365863626241 -0.055925448058993854 0.0667264857869828 0.0060700116170190306 -0.013230779573197314 0.61934248689277593 0.093005903929164191 -0.056553423133084514 0.27642590334631428 -0.020904841135543507 -0.03121397626174717 -0.0062116522400406295 0.14550318604650569 -0.059111342100846911 0.30854603631663063 -0.060683400067907844 0.077589675713556808 0.17173227355649864 -0.060275851763497791 0.12328147513951447 0.28651777169856157 -0.058088292169611921 -0.031994875035839802 0.16909263365171631 0.090388776227910445 0.086001206000792862 -0.054988890998845574 -0.00067594555790168585 0.50331987982479665 0.24451864819136435 -0.055440962915500859 -0.055071062881712735 0.47944244691785426 0.15776198544679521 -0.055628478405933171 0.20287660285083958 0.39152801784360708 -0.054071097632122547 0.33976546718675082 -0.041553247544674016 0.12389856013952555 0.39435526585987279 0.22476873980660717 0.0066122064286577133 0.20113949226638775 -0.054899614546084545 -0.056004094955584588 -0.015092402782978449 0.45300765112495367 -0.055493081486179811
leaf_weight=221.04409535601735 5298.0536461174488 1695.2554050609469 920.9263843819499 8513.3377839177847 2.1882881075143805 71.592460751533508 1389.6025911048055 999.78809443116188 29.630399867892265 32.651885688304901 43.774860970675945 119.69006866961718 79.333376452326775 10.749294586479662 162.96962765231729 225.74616472050548 138.39770315214992 2.8651012741029254 562.29839809238911 13.305645164102314 28.732893969863653 111.80315816774964 36.360845547169447 154.3711195141077 160.22827715426683 20.358098357915878 10.541168212890623 14.085282079875467 2066.6881371065974 58.037718243896961 9.5321818962693197 165.1579624786973 16.811374083161354 21.159561328589916 174.656792614609 144.37807247415185 19.898966781795025 6.7540951408445862 3.318048220127821 35.364823240786791 6.9000412523746553 12.728456076234577 4.9813456535339347 26.813568443059921 3.6049741283059111 18.0120306648314 13.934811938554047 7.433241616934537 15.103511225432158 6.4542641490697852 14.648725364357231 140.96658715978265 10.490845423191786 12.85089737176895 17.122525189071894 109.27580399811268 11.172644797712563 26.196992967277765 6.3509128540754309 23.436799578368664 3.7923429906368247 12.676950719207523
leaf_count=404 8795 7813 10154 3717 7 720 4168 10399 339 178 247 1215 428 127 740 3357 1768 9 3906 147 63 1389 330 1581 739 167 33 105 12412 161 70 1165 58 201 2644 832 206 51 43 403 8 46 61 337 7 128 164 41 51 95 74 1806 54 33 93 1279 51 343 75 271 8 159
internal_value=0.103036 0.0744999 0.0574579 0.124699 0.052715 0.0603889 0.0891609 0.0312703 0.0720315 0.077286 0.0675797 0.0876481 0.0390642 0.11479 0.112601 0.046365 0.0216101 0.0863705 0.10288 0.125281 0.179454 0.0349623 0.0826594 0.074835 0.0763682 0.122436 0.0728044 0.0321098 0.0773817 0.104557 0.139003 0.131698 0.137205 0.0762146 -0.026835 0.130021 0.0401595 0.054845 0.114471 0.156262 0.119927 0.0642177 0.236142 0.00205326 0.223302 0.0362665 0.123768 0.024182 0.105576 0.214183 0.196128 0.00544948 0.28183 0.288125 -0.00481161 0.0361647 0.31651 0.00207629 0.165658 0.102513 0.117688 0.110538
internal_weight=24296.4 10485 4848.78 13811.4 4464.76 3288.13 5636.22 1176.63 2255.4 2042.54 1622.61 833.83 199.023 419.939 384.014 788.776 212.855 74.4576 634.806 390.308 72.5078 1032.73 4246.62 2551.36 2515 180.586 2334.42 236.026 2098.39 81.6552 67.5699 377.003 366.254 2087.85 176.845 349.442 749.773 524.027 124.489 90.7523 71.1473 48.0933 23.054 33.7366 6.92302 399.538 48.4825 351.056 65.6789 32.0486 34.5477 285.377 25.5944 19.605 267.365 126.398 18.0727 33.6302 39.0028 205.064 181.627 177.835
internal_count=86475 73963 46183 12512 45039 31989 27780 13050 20446 17949 14843 5859 1643 3106 1144 8984 2497 729 4216 2767 310 11543 23612 15799 15469 906 14563 1917 12646 336 231 2620 2493 12613 2651 2435 8731 5374 1040 653 569 449 120 387 50 4334 444 3890 584 200 280 3306 105 84 3178 1372 59 384 253 1603 1332 1324
is_linear=0
shrinkage=0.05


Tree=8
num_leaves=63
num_cat=0
split_feature=42 35 42 34 35 36 20 12 22 33 36 40 11 34 22 1 1 33 13 17 23 29 0 0 13 10 36 12 12 12 21 23 13 36 22 9 35 5 17 13 19 8 40 23 21 34 2 0 34 10 36 5 34 12 17 0 14 3 3 1 21 40
split_gain=5382.48 1081.01 470.496 332.165 295.619 232.789 215.335 202.493 194.356 233.058 208.043 246.436 271.017 195.554 186.95 227.328 183.507 179.459 177.327 206.691 170.62 170.575 167.967 170.621 157.322 213.481 167.687 204.171 180.525 190.062 188.741 171.371 161.921 168.773 160.192 173.183 157.305 155.206 155.639 154.838 154.398 150.91 262.141 150.878 180.915 159.564 162.378 207.247 159.14 150.315 148.613 144.77 155.458 147.463 168.69 144.504 290.732 242.626 280.049 236.233 218.969 182.342
threshold=1.3615878224372866 0.75002038478851329 2.6737657785415654 0.29001039266586309 1.4557582139968874 -0.1769754886627197 0.42947874963283544 0.30186800658702856 0.60002383589744579 -0.80250844359397877 -1.8035572767257688 6.9976875782012948 -1.209564685821533 0.54002428054809581 -1.8532490730285642 0.052258530631661422 0.69695422053337108 -1.4740067720413206 0.57583341002464306 0.60653311014175426 0.3334666788578034 15.901481628417971 0.59075289964675914 0.56743028759956371 0.6897418498992921 0.071847077459096922 -0.80338591337203968 0.052701013162732131 0.06452930718660356 0.06064384616911412 -2.5385928153991695 0.89075845479965221 0.39735884964466101 -1.5144988298416135 -0.90729820728301991 0.44753478467464453 0.43390110135078436 0.97530490159988414 0.6516491472721101 0.619228094816208 0.36936166882514959 -0.27766181528568262 4.7558212280273446 0.78332164883613598 -0.02342065796256065 0.67663180828094494 0.53740152716636669 0.31818416714668279 0.77552503347396862 0.011057796888053419 -0.20078347623348233 0.46166266500949865 0.61365559697151195 0.87302547693252575 0.83346539735794078 -0.10258654505014418 -0.55858772993087757 -0.54843425750732411 -0.40474231541156763 0.060638893395662315 -0.063685081899166093 4.7188262939453134
decision_type=2 2 2 2 2 2 2 2 2 2 2 2 2 2 2 2 2 2 2 2 2 2 2 2 2 2 2 2 2 2 2 2 2 2 2 2 2 2 2 2 2 2 2 2 2 2 2 2 2 2 2 2 2 2 2 2 2 2 2 2 2 2
left_child=1 3 -2 24 8 6 14 39 9 10 11 -3 -13 22 15 -5 51 -17 19 -8 -21 43 23 -10 26 37 27 -1 29 -29 -30 -28 55 -34 -35 -36 -37 38 -26 -7 -38 42 -6 45 -45 46 47 -15 -46 -33 -20 53 -53 -11 -55 56 59 -58 -59 -32 -60 -61
right_child=2 4 -4 5 41 7 18 -9 13 16 -12 12 -14 21 -16 17 -18 -19 50 20 -22 -23 -24 -25 25 -27 31 28 30 -31 32 49 33 34 35 36 40 -39 -40 -41 -42 -43 -44 44 48 -47 -48 -49 -50 -51 -52 52 -54 54 -56 -57 57 58 60 61 -62 -63
leaf_value=-0.013465303002023248 0.10224788931965643 0.0032487277437581461 0.12081711971593562 -0.056715066877438616 0.1371848845934287 0.0065415986848181076 0.10398056255739596 -0.037242066221927987 0.023620247949298033 0.091225640687786283 -0.025801492096726511 -0.059046472297684255 0.19823165733898307 -0.059302376935832624 0.051301155529534549 0.069125423917977782 0.06513560243914876 0.18114707329573382 0.0068649111900700617 0.1132408083382638 -0.01755183931488288 -0.058500005471595742 -0.057123800813907166 0.20065189287678742 -0.031668967298093209 0.17314154818128116 -0.0038750312984231817 0.059397447035800237 0.13867826695060345 0.273549174509847 -0.053850571895567613 -0.054016989940234253 0.01207135640888833 0.19449877295488455 0.025932911318646112 0.28102801232892688 -0.055909936712957312 0.47674702854382389 0.22765396688924217 0.24201715201718127 0.14015323886854059 0.087286490620317139 0.07419116703376881 -0.0072816291519660278 0.10222352943865837 0.13273514203553458 -0.031773841078967496 0.24249788229349756 0.025765823712713673 0.25064267933022227 0.19878822220551809 0.1434394573633066 0.077887259400308426 -0.00023772871944908094 0.21145131467447242 -0.041119894906829602 0.45254794466456927 -0.053916296696763434 -0.054108010623593862 0.06843126467314585 0.26956205807568118 0.0067554134689655071
leaf_weight=161.5212165042758 5562.6312216296792 63.047262072563171 8819.8666518479586 18.794755332171917 457.64963894337416 15.323721311986448 627.60189022868872 104.72597531601787 164.89905741065741 909.04588514566422 94.102117452770472 12.973965503275393 48.503885883837938 8.8371524810791033 2352.7333808541298 67.775135532021523 787.20883334055543 75.667542841285467 102.23067173734307 38.827368885278702 69.68740301206708 26.055810153484344 62.151141859591007 14.834862947463987 40.357262253761292 45.858763888478279 416.31932244077325 25.186822604387999 48.714866224676371 17.601090155541897 86.24537904933095 5.9938846863806274 85.307490710169077 34.339492581784725 82.804215013980865 14.228337712585924 13.03758956864476 1.8146145381033409 6.7543131485581389 12.822981081902979 43.691567938774824 1787.1057249084115 258.39850001037121 93.073192283511162 177.5067742317915 154.10083785653114 35.503610219806433 15.964782208204268 110.37665332853794 12.475470151752232 11.190641418099402 261.2910976074636 138.32273181527853 80.485708877444267 10.657017402350901 73.890234302729368 5.7053305543959132 17.180932018905878 6.6955675929784801 228.0346790663898 23.797590781003237 252.57196120545268
leaf_count=2133 8795 531 3717 196 667 163 2999 1227 1215 4640 948 113 149 70 19864 440 4633 234 753 175 553 240 614 50 494 241 5681 268 284 117 1344 92 931 171 904 46 152 6 25 53 243 6128 781 701 759 538 281 30 588 46 33 1208 641 545 24 1082 25 267 101 2876 193 3457
internal_value=0.0934891 0.0671948 0.113635 0.0507703 0.0821266 0.0596692 0.0622327 -0.00524253 0.072225 0.0795285 0.0303063 0.0727063 0.143937 0.0518734 0.0548809 0.106794 0.084449 0.128218 0.0839968 0.0929637 0.0292467 0.0667202 0.0137309 0.0382321 0.0329872 0.0956348 0.0294 0.0388981 0.0468845 0.14749 0.0426486 0.00273665 0.0378135 0.0704047 0.09686 0.0750544 0.132377 0.0229874 0.00550976 0.113819 0.0950937 0.0950576 0.114452 0.0722004 0.0533173 0.105752 0.0368005 0.134964 0.0729091 0.151771 0.0258009 0.0953103 0.120749 0.0851465 0.0245144 0.0249761 0.0328503 0.144405 0.107528 0.0223455 0.198492 0.0360189
internal_weight=25402.1 11019.6 14382.5 5247.51 5772.1 3497.38 3364.51 132.873 3268.94 2405.64 218.627 124.525 61.4779 863.304 2514.97 162.237 2187.01 143.443 849.538 736.117 108.515 621.419 241.885 179.734 1750.13 94.785 1655.34 1220.55 1059.03 42.7879 1016.25 434.789 967.53 273.409 188.101 153.762 70.9575 48.9262 47.1116 28.1467 56.7292 2503.15 716.048 595.363 380.957 214.406 60.3055 24.8019 287.883 18.4694 113.421 1399.8 399.614 1000.19 91.1427 694.122 620.231 53.3794 47.6741 566.852 30.4932 480.607
internal_count=86475 73963 12512 47869 26094 26690 25247 1443 18518 13432 1741 793 262 5086 20734 870 11691 674 4513 3727 728 3207 1879 1265 21179 766 20413 14594 12461 385 12076 5819 11792 2447 1516 1345 441 525 519 216 395 7576 1448 2967 2048 919 381 100 1347 138 786 7058 1849 5209 569 9345 8263 586 561 7677 294 6333
is_linear=0
shrinkage=0.05


Tree=9
num_leaves=63
num_cat=0
split_feature=42 35 42 44 35 35 24 14 35 15 14 2 29 33 35 6 2 8 34 6 22 0 30 41 31 23 2 1 33 3 18 8 3 44 15 15 24 1 15 50 1 40 29 1 10 23 10 34 40 33 1 2 43 40 18 34 40 0 1 30 50 35
split_gain=4916.11 898.205 486.77 329.073 242.882 213.216 248.999 200.775 198.762 276.724 214.674 209.225 194.987 192.104 229.382 183.488 179.745 168.369 189.93 165.104 162.73 162.004 164.293 160.855 235.906 226.63 199.143 173.106 165.194 162.269 186.198 177.313 166.136 159.611 155.074 253.631 189.995 164.061 155.046 154.43 151.211 149.837 159.648 149.78 168.219 224.791 173.005 164.428 150.928 169.468 149.276 147.414 146.262 143.303 183.616 139.13 156.495 139.117 137.324 131.761 133.379 131.759
threshold=1.3615878224372866 0.83050024509429943 2.6737657785415654 0.15543903410434726 2.5058548450469975 0.25336691737174993 0.16349779814481738 -0.51650956273078907 0.15061708539724353 0.18190909177064898 -1.948016285896301 1.0000000180025095e-35 16.078430175781254 -0.15290078520774839 0.066673018038272872 0.72738957405090343 0.7430216670036317 -1.3378387689590452 0.06262484192848207 0.6935708522796632 0.34508053958415991 0.19431142508983615 -2.4927740097045894 0.19553194940090182 -0.75682124495506276 0.5803205966949464 0.81069433689117443 0.81523579359054577 -0.90215441584587086 -0.02356147579848766 2.5053268671035771 1.4740498661994936 -0.071932099759578691 -0.022247901186347004 0.17711881548166278 0.12512425333261493 1.7107252478599551 0.44996370375156408 0.18756044656038287 2.283233761787415 0.95457190275192272 3.6445972919464116 3.845656275749207 0.92037382721900951 0.061099942773580558 1.0000000180025095e-35 0.29351016879081732 0.055059168487787254 4.9357511997222909 -0.87246423959732045 0.93340978026390087 1.407261908054352 -0.11906158551573752 6.0683715343475351 9.0905289649963397 0.055059168487787254 11.452531814575197 -1.0000000180025095e-35 1.0000000180025095e-35 0.30111324787139898 0.0094593092799186724 0.1682597100734711
decision_type=2 2 2 2 2 2 2 2 2 2 2 2 2 2 2 2 2 2 2 2 2 2 2 2 2 2 2 2 2 2 2 2 2 2 2 2 2 2 2 2 2 2 2 2 2 2 2 2 2 2 2 2 2 2 2 2 2 2 2 2 2 2
left_child=1 3 -2 7 23 6 13 8 10 11 17 -10 20 15 -15 19 33 39 -19 -5 43 22 -8 24 28 27 40 58 -3 30 52 32 34 -9 35 36 -32 -37 -14 -1 50 42 -16 44 47 -46 -47 -11 49 -48 -27 -28 -26 54 -36 -30 -57 -12 -25 60 -34 -49
right_child=2 4 -4 5 -6 -7 21 16 9 12 57 -13 38 14 41 -17 -18 18 -20 -21 -22 -23 -24 25 29 26 51 -29 55 -31 31 -33 59 -35 53 37 -38 -39 -40 -41 -42 -43 -44 -45 45 46 48 61 -50 -51 -52 -53 -54 -55 -56 56 -58 -59 -60 -61 -62 -63
leaf_value=-0.015363005601428212 0.093268039420795382 0.034518975177026345 0.11183737174910711 0.04555293618776414 0.10173063383141115 0.06540229399276791 0.23348168423058527 0.026521339899609836 0.20067274748045155 -0.054234860868557423 -0.011804706489775564 -0.025220514794390678 0.37058458594354904 0.17820253226011609 -0.057871169928910164 -0.031416210604289167 0.090824028185966355 0.54164339308873721 0.13480653091263639 0.17653784082302995 -0.057555266565838849 0.24011249553987166 -0.020513341552963762 -0.062464457244149812 -0.059955871582669053 0.071132697389645047 0.025975942035352691 0.062028068791648211 0.27980806282167364 0.0080461377382676277 -0.036397741190731511 0.144348956683477 0.12614682775483174 -0.020786887220744552 -0.023638423163457503 -0.057637561453736691 0.13949666128478405 0.23794409341565093 -0.055256555811321766 0.13947939163999049 0.1129344348916706 -0.0025495095437068141 0.19007665123662398 -0.056343741697441219 0.29211151081736675 -0.029579463310626525 -0.055004672857061655 0.23221006893120807 -0.014512438050513242 0.20409249096690971 -0.061468142704270715 0.082847975114876349 0.18153507723572646 -0.038921394943969172 0.072286547013279079 0.11396989573614512 -0.021019121406633451 0.2113853946139142 0.10331028058432652 -0.057058095752548554 0.3764180168168812 0.10111293413427236
leaf_weight=47.299912489950657 5787.0682757273316 102.8110394962132 9045.2949882298708 1100.3975840248168 761.74618633836508 2369.2091195657849 6.5567127577960482 373.89082982763648 11.153971802443264 16.388188984245062 292.00290545076132 126.55632865056396 2.2568648234009734 60.820795550942421 8.5377086475491506 76.894971299916506 64.972484741359949 3.2386795654892948 25.11576196923852 24.59543177485466 21.508806928992271 6.4957253485918036 219.57255432754755 12.635990492999552 7.3231163397431365 1292.0571683347225 426.40463285520673 371.95205073058605 11.42601605504751 264.53323402628303 44.277325145900249 42.237980768084526 26.118702702224255 340.80352179333568 83.376791872084141 5.5910888686776152 23.501164630055428 29.275511048734188 40.413555312901735 24.413643907755613 229.59884039312601 51.779748480767012 27.095261853188276 18.875988580286503 8.2417658977210504 71.666654102504253 8.0605853497982007 20.073237434029579 23.286602985113859 29.076755907386541 21.578976698219776 155.49091453105211 43.602173618972301 100.74194791913033 124.19986774027348 231.99020690098405 23.660305555909872 7.1528488881885997 1100.2570357844234 7.350141152739524 6.6864349320530883 424.1252990141511
leaf_count=515 8795 727 3717 10398 1278 15330 21 4026 46 239 3788 1508 4 222 82 882 481 14 162 133 212 33 2611 87 60 5223 2229 1646 34 2317 387 140 143 4477 683 52 45 84 515 133 715 416 96 215 23 832 112 122 261 99 157 443 111 888 710 746 160 36 3727 72 15 3040
internal_value=0.0855679 0.0610371 0.104592 0.0475454 0.0755061 0.0559098 0.0417006 0.0310222 0.0436801 0.0577422 0.0147374 -0.00692408 0.070762 0.0499326 0.103637 0.043309 0.0112008 0.078132 0.181276 0.0484166 0.0776483 -0.00607669 -0.0131486 0.0713345 0.0552973 0.0765709 0.066099 0.0915584 0.0883744 0.0401705 0.0557837 0.0463879 0.0372159 0.00396231 0.0277311 0.0809626 0.024591 0.190546 -0.0327336 0.0373504 0.0754977 0.0517554 0.130668 0.0823403 0.0866966 0.03877 0.0229628 0.101299 0.0852813 0.147856 0.0689545 0.041173 0.146808 0.0100093 0.0337566 0.109106 0.101477 -0.00646821 0.101428 0.134286 0.177158 0.107037
internal_weight=26335.3 11503 14832.4 5952.53 5550.42 3951.96 1582.75 2000.58 1220.91 821.685 399.224 137.71 683.974 1350.12 148.234 1201.89 779.667 100.068 28.3544 1124.99 641.304 232.625 226.129 4788.68 1178.7 3609.98 2125.13 1484.85 369.888 808.815 544.282 493.357 451.119 714.694 410.964 102.645 67.7785 34.8666 42.6704 71.7136 1543.23 87.4127 35.633 619.795 600.919 140.332 132.091 460.587 60.4239 37.1373 1313.64 581.896 50.9253 308.319 207.577 267.077 255.651 299.156 1112.89 40.1553 32.8051 444.199
internal_count=86475 73963 12512 51084 22879 30224 14894 20860 11876 7228 4648 1554 5674 12229 816 11413 8984 824 176 10531 5155 2665 2632 21601 7374 14227 8767 5460 1667 5707 3390 3219 3079 8503 2849 568 432 136 519 648 6095 594 178 4943 4728 1327 1304 3401 472 211 5380 2672 171 2281 1393 940 906 3824 3814 230 158 3162
is_linear=0
shrinkage=0.05


Tree=10
num_leaves=63
num_cat=0
split_feature=42 35 42 42 14 35 29 11 29 18 13 41 11 40 43 31 10 10 44 33 33 14 33 21 35 36 11 4 24 44 3 3 10 44 13 6 24 22 36 24 24 3 0 22 23 35 6 25 32 33 20 42 4 29 18 20 14 5 5 32 33 33
split_gain=4570.36 935.373 296.728 247.356 197.383 180.846 172.827 243.108 233.696 176.382 176.382 171.594 212.052 278.686 238.084 202.492 204.815 203.803 236.153 171.872 160.875 158.928 156.412 221.888 196.676 194.317 220.753 168.268 167.131 154.98 148.667 221.605 174.228 173.341 157.656 187.266 148.889 153.62 156.592 146.225 152.278 145.626 144.639 143.972 222.596 166.014 159.1 157.467 138.708 173.14 135.104 200.355 201.159 147.433 134.283 132.826 146.84 132.717 146.466 207.15 139.874 183.433
threshold=1.6732392311096194 0.82269558310508739 3.0932818651199345 0.059171045199036605 -1.4988952279090879 2.5058548450469975 11.849419116973879 0.14083956182003024 11.177959442138674 18.363480567932132 0.3593705445528031 0.20473657548427585 -0.04455072991549968 1.5625177621841433 4.0690097193873962e-06 -0.73950865864753712 0.042693074792623527 0.08688590303063394 0.57469451427459728 0.7038831114768983 0.32587656378746038 -1.9021593332290647 -0.15290078520774839 -0.043686319142580025 0.3966480046510697 -0.27253383398056025 0.22102921456098559 0.6767043173313142 0.45704580843448644 0.48824556171894079 -1.6958363056182859 -1.8134288191795347 0.12723580747842791 -1.512590706348419 0.39735884964466101 0.087007671594619765 0.42384073138237005 -0.77762737870216359 -0.28378263115882868 1.0309753417968752 1.8477859497070315 -0.02356147579848766 -0.38020806014537806 -0.31652751564979548 0.25858536362648016 0.44445744156837469 0.46159864962100988 -1.1691491007804868 0.35917827486991888 -0.58496129512786854 0.54346945881843578 0.66356328129768383 0.56761217117309581 8.0755538940429705 13.898130893707277 0.63457959890365612 -0.35533599555492396 0.50006118416786205 0.76007381081581127 9.9765397862938715e-06 -0.71170157194137562 -0.15290078520774839
decision_type=2 2 2 2 2 2 2 2 2 2 2 2 2 2 2 2 2 2 2 2 2 2 2 2 2 2 2 2 2 2 2 2 2 2 2 2 2 2 2 2 2 2 2 2 2 2 2 2 2 2 2 2 2 2 2 2 2 2 2 2 2 2
left_child=1 3 -2 30 -5 11 8 9 22 -8 -11 12 13 -3 21 -14 19 -18 -19 41 -12 -15 42 27 25 26 29 -24 -29 -25 31 -1 34 -34 48 36 37 -36 -39 -21 -41 -17 -6 44 46 -45 -44 -46 -32 -50 -26 52 55 -53 -47 56 -52 60 -59 -60 -37 -62
right_child=2 5 -4 4 6 -7 7 -9 -10 10 20 -13 15 14 -16 16 17 18 -20 39 -22 -23 23 24 50 -27 -28 28 -30 -31 32 -33 33 -35 35 57 -38 38 -40 40 -42 -43 43 45 47 54 -48 -49 49 -51 51 53 -54 -55 -56 -57 -58 58 59 -61 61 -63
leaf_value=0.047049451392035285 0.09122948859525 0.16679477515142382 0.10617457248991002 0.092937225870790063 -0.010095521445309209 0.090639663306114671 -0.041208389747990765 -0.034954451969129767 0.12198039139882898 0.027774776121937197 0.058777686059844139 0.071849550191831077 0.083398516728363917 -0.02817383556385496 -0.020066946223025208 0.011640484265564037 0.13889852610410042 -0.016297405087008453 0.12087086126297356 0.18914856032443908 0.15513597367630172 0.094605266203751939 0.10542775813754807 0.045365641501880376 0.013392309886425128 -0.055486098796694264 0.26638630722834727 0.068026255838319075 -0.059861754776903413 0.16041408132362719 0.024276272377730154 0.15482960346327782 0.10093353727104191 -0.029579406675517689 0.20607348607837503 0.11148939219783867 0.015242418858597446 -0.054489630334495713 0.40964646585015024 -0.058138167500160903 0.10027385942571881 -0.056077357856089007 -0.038100763636575968 -0.04244696654410491 -0.059421642435256931 0.015550293308396097 0.10139381817423541 0.16222139925873988 -0.054502102229441053 0.23790193411876351 0.16906423394078729 0.044470624768734285 0.14525856567942205 -0.061448261847495717 0.15245888399396545 -0.032051757348673188 -0.056323305918218075 -0.023721100911888775 -0.056023110555273536 0.33713902967947706 0.016153111018677321 0.10613559342701269
leaf_weight=247.30600407347083 5789.5814514756203 75.469455398619175 7790.1293666809797 303.31799490377307 161.16655136272311 1001.1167585030198 56.602062672376633 122.83560644835234 132.28671902418137 307.96444749087095 145.67280098050833 5064.7847359701991 177.26105773821473 29.440522603690624 72.164143871515989 232.74266122281551 63.284945622086525 91.591732107102871 47.729648027569056 19.358047053217888 61.647258773446083 251.63013599812984 374.41935114562511 75.429289530962706 366.00162274762988 18.809157405048609 20.723833486437798 163.03362332284451 30.293710552155972 47.836236026138067 1716.9537889398634 59.086076065897942 29.432725220918655 187.58977614715695 21.828447483479977 209.34571747481823 350.21226828172803 14.432631365954878 2.0790558643639079 26.76020523160696 35.02840980142355 120.49316712841392 47.105773337185383 71.633404079824686 8.9880101159214956 52.21601240336895 36.110004831105471 73.909578751772642 7.3666849769651916 16.185919024050236 24.94931673631072 161.71795390546322 93.868959426879883 41.23014173656702 27.260631125420332 36.911389026790857 10.172981064766644 60.490283336490393 6.1442178748548013 7.3676942922174931 131.02719515934587 99.758206360042095
leaf_count=1931 6429 218 2730 929 1377 1609 515 1123 642 2155 853 16850 774 207 564 1736 299 753 185 75 170 1135 1523 642 3183 231 44 725 252 152 19516 363 149 2381 85 1196 3741 204 12 246 101 1351 430 814 75 421 206 324 109 40 60 756 390 299 122 318 110 705 74 38 1259 653
internal_value=0.0793034 0.0587582 0.0998029 0.0445413 0.0546443 0.0708975 0.0504524 0.0288655 0.0576761 0.0425734 0.0517766 0.0677642 0.0511172 0.0795791 0.0609452 0.0361319 0.0229786 0.0644926 0.0306946 0.00361545 0.0874301 0.0817449 0.0532997 0.0614037 0.0459304 0.0956545 0.115398 0.0858681 0.0479867 0.090013 0.0347334 0.0678343 0.0311875 -0.0118792 0.0347236 0.0516798 0.0254833 0.119027 0.00395169 0.069235 0.0316667 -0.0114589 0.028476 0.0480724 0.0801994 0.0127555 0.0224304 0.13819 0.0259295 0.146445 0.0349146 0.0562706 0.0970283 0.0229526 0.0625102 0.0341783 0.103782 0.0714777 0.00952435 0.158358 0.0818943 0.0550485
internal_weight=27129.3 13549.6 13579.7 6240.72 3074.11 7308.86 2770.8 694.722 2076.07 571.887 515.285 6307.74 1242.95 428.704 353.235 814.25 636.989 202.606 139.321 434.382 207.32 281.071 1943.79 1465.4 897.651 162.799 143.989 567.747 193.327 123.266 3166.61 306.392 2860.21 217.023 2643.19 902.686 388.552 38.3401 16.5117 81.1467 61.7886 353.236 478.39 317.223 166.113 151.11 83.2158 82.8976 1740.51 23.5526 734.852 368.851 165.903 202.948 79.4766 72.0337 35.1223 514.133 74.0022 13.5119 440.131 230.785
internal_count=86559 77400 9159 51297 18841 26103 17912 4816 13096 3693 3178 24494 7644 2124 1906 5520 4746 1237 938 3509 1023 1342 12454 8685 6185 1069 838 2500 977 794 32456 2294 30162 2530 27632 7967 4042 301 216 422 347 3087 3769 2392 1035 1357 636 399 19665 149 5116 1933 878 1055 543 488 170 3925 817 112 3108 1912
is_linear=0
shrinkage=0.05


Tree=11
num_leaves=63
num_cat=0
split_feature=42 33 41 42 14 0 21 40 36 13 34 0 44 2 14 42 36 33 7 23 41 7 0 41 44 6 6 29 29 36 2 33 13 25 29 11 43 12 2 8 34 7 33 36 1 1 11 4 41 40 18 50 5 34 0 5 4 7 2 33 34 41
split_gain=4315.3 769.013 310.139 275.654 278.338 356.529 214.709 213.219 189.141 209.628 155.354 150.391 146.765 144.875 219.351 271.821 146.745 176.654 230.636 165.724 149.471 142.405 139.243 137.431 138.196 134.661 209.281 222.479 171.332 134.025 155.737 212.139 171.147 213.773 152.525 136.922 134.869 133.667 133.324 129.145 156.128 146.312 128.686 140.659 128.504 128.148 244.92 192.648 173.589 164.501 204.497 171.493 163.053 149.668 152.852 147.676 183.409 205.261 139.629 136.009 157.705 126.712
threshold=1.6732392311096194 0.39217242598533636 3.0358071327209477 0.20596463233232501 -0.51137682795524586 -0.21810699999332425 0.17160481214523318 11.818767070770265 -0.21322630345821378 0.48845015466213232 0.083341702818870558 -0.1543677821755409 0.91237464547157299 0.038397271186113364 -0.31239345669746393 -0.17829684168100354 -0.84386435151100148 -0.83170890808105458 39.130950927734382 0.96883451938629161 -0.065897285938262926 10.989036083221437 0.098308056592941298 -2.1966584920883174 -3.8243445158004756 0.66396906971931469 0.48757389187812811 9.1295590400695819 8.8964123725891131 -1.8523252010345457 0.29118946194648748 -0.6521700620651244 0.401708334684372 -0.29813273251056666 13.624481678009035 0.35076469182968145 -0.030913422815501686 0.46576778590679174 1.9333090186119082 -0.22956155985593793 0.19573490321636203 35.179338455200202 -0.063788454979658113 -1.1456922292709348 0.10832284018397333 0.68479019403457653 0.5830817222595216 0.14057457447052005 0.83333364129066478 7.3383624553680429 5.263167381286622 -0.025957800447940823 0.33355855941772466 0.25005325675010687 0.36836022138595587 0.39988864958286291 0.57136970758438121 37.631420135498054 0.53740152716636669 -0.32172873616218561 0.45765970647335058 -0.9627389907836913
decision_type=2 2 2 2 2 2 2 2 2 2 2 2 2 2 2 2 2 2 2 2 2 2 2 2 2 2 2 2 2 2 2 2 2 2 2 2 2 2 2 2 2 2 2 2 2 2 2 2 2 2 2 2 2 2 2 2 2 2 2 2 2 2
left_child=1 3 -2 4 5 10 11 23 -3 -10 38 -6 25 14 -13 -16 17 -15 20 61 21 -19 -11 24 -7 26 -12 28 39 -5 31 -31 33 -32 -33 -35 42 -23 -1 40 -28 -41 43 -36 -14 46 47 59 55 50 -47 -52 53 -53 -55 -49 57 -57 -50 -34 -61 -18
right_child=2 8 -4 29 6 7 -8 -9 9 22 12 13 44 16 15 -17 19 18 -20 -21 -22 37 -24 -25 -26 -27 27 -29 -30 30 32 34 45 35 36 -37 -38 -39 -40 41 -42 -43 -44 -45 -46 49 -48 48 58 -51 51 52 -54 54 -56 56 -58 -59 -60 60 -62 -63
leaf_value=-0.010997036804096525 0.084492025468116808 0.075071269433023335 0.099700652672318341 0.088035423747901076 -0.035370005839912587 0.12465869505858584 0.079514331578530897 -0.02566018366527999 -0.023605606286992303 -0.024193725110445777 0.029700884844682064 -0.012104068221143197 0.0042689274661992507 0.00050887545494632963 0.06640540785329245 0.3940468520312333 0.075697816498554588 -0.057297054220595646 -0.05700030431007605 0.15127273797904162 -0.057882452455816802 0.15231238456552265 0.061357141454522861 0.076558745654881966 -0.057898755187853396 -0.021124532536105765 -0.054441933533545442 0.014836305593515809 0.37417891605467302 -0.045386696473309091 0.1141924877554341 0.050464804613502771 -0.062208042881107754 -0.056558245856881566 0.093944693184057113 0.33006903328961096 -0.059691741344578032 0.04242508993174391 0.2068700363575566 -0.055428353621470396 0.16973583513981166 0.20818539279667281 0.1602652172184057 -0.040054452520279712 0.097466557071787044 -0.031891712408503615 0.11271599185522883 -0.0054427561611654464 -0.028417150632312413 -0.018419259164707037 0.12270962975253055 -0.0095144231476261259 -0.040071554007641161 -0.024083869784686865 0.10775345836026778 -0.028902545598816012 0.20810686414223956 0.094497837066111479 0.094711209656987955 0.16159704872897221 0.049432666697856786 -0.0063254972110374898
leaf_weight=241.54658162966371 5752.0877308100462 3510.6038480587304 8034.0322279781103 280.27008779346943 148.18224178627133 14.363371908664702 129.67238176614046 58.431035201996565 78.366143129765987 48.587783701717854 1426.0795140303671 22.433202117681503 47.7024758271873 149.63575921580195 15.410060696303846 10.743764884769915 50.368187233805656 11.8234286904335 29.303242951631546 18.296425133943558 14.611334756016729 104.77637177333236 2253.5560182407498 1002.7912907116115 37.254716034978628 109.72051831334829 8.7085768952965719 67.401676766574383 6.7314323149621478 70.497024342417717 240.10826349258423 1094.6204383447766 11.335545912384985 28.452249232679609 30.867783911526203 2.4903924986720076 61.653314586728811 37.606437731534243 7.2323195338249198 18.956144485622648 71.811561983078718 7.2870294302701941 16.849978528916836 53.574791714549065 164.65381749719381 64.90445626527071 217.04292469471693 230.941889885813 26.689731739461422 111.94440930336714 93.642567198723555 54.283096089959145 47.375886224210262 26.231636572629213 135.81751360744238 62.195003297179937 17.930300883948803 73.54971057921648 167.68571435660124 81.109265170991421 51.070650242269039 722.3133233115077
leaf_count=3140 6305 9397 2854 615 1958 13 657 555 603 296 13655 276 473 1430 96 50 360 127 314 97 139 499 7850 6443 385 1205 124 658 27 614 888 5946 79 307 115 5 522 259 17 233 375 43 14 477 909 443 595 1682 148 754 308 323 356 191 490 473 47 286 451 169 241 8198
internal_value=0.0734984 0.0539453 0.093355 0.0439571 0.0362164 0.0442877 0.0180888 0.0673112 0.0676938 0.056814 0.0325231 0.0121246 0.0373188 0.0180521 0.102606 0.200998 0.0144444 0.0415143 0.0724846 0.00254308 0.0949605 0.109443 0.0595516 0.0724633 -0.00709988 0.0324682 0.0361274 0.0867899 0.129521 0.054936 0.051917 0.039015 0.0617374 0.0982522 0.0437464 -0.0254409 -0.00138557 0.123289 -0.00466336 0.114096 0.14549 0.0177702 0.0341034 0.00892862 0.0765312 0.0550217 0.0661391 0.0521473 0.0392931 0.0354683 0.0497545 0.0645836 0.0439431 0.062342 0.0864123 0.0198305 0.057811 0.0379587 0.0778044 0.104006 0.11826 -0.000978707
internal_weight=27786.2 14000.1 13786.1 8108.98 4755.85 3290.67 1465.18 1112.84 5891.11 2380.51 2177.83 1335.5 1929.05 1187.32 48.587 26.1538 1138.73 347.757 198.121 790.978 168.818 154.206 2302.14 1054.41 51.6181 1716.7 1606.98 180.896 113.495 3353.13 3072.86 1328.06 1744.8 271.051 1257.57 30.9426 162.946 142.383 248.779 106.763 80.5201 26.2432 101.293 84.4426 212.356 1473.75 939.551 722.508 578.992 534.2 422.255 357.351 263.708 216.332 162.049 384.617 153.675 135.745 194.375 143.515 132.18 772.682
internal_count=86559 77400 9159 59254 42715 28255 14460 7396 18146 8749 20859 13803 17702 11845 422 146 11423 2768 1338 8655 1024 885 8146 6841 398 16320 15115 1460 802 16539 15924 7688 8236 1200 7074 312 1128 758 3157 775 499 276 606 592 1382 7036 4171 3576 3087 2865 2111 1668 1360 1004 681 2488 806 759 599 489 410 8558
is_linear=0
shrinkage=0.05


Tree=12
num_leaves=63
num_cat=0
split_feature=51 51 20 51 9 34 2 12 25 22 30 7 24 10 43 10 29 6 24 5 32 32 36 0 23 5 21 3 2 40 6 6 18 51 30 36 41 18 18 24 22 25 20 2 32 1 30 3 12 36 29 23 25 29 18 0 1 6 6 6 22 23
split_gain=4111.62 721.199 272.987 246.596 221.859 207.981 197.681 188.806 187.984 209.355 178.516 179.309 176.571 171.424 166.033 230.641 295.427 179.114 232.405 261.734 146.624 173.085 157.145 154.9 145.862 144.695 137.938 207.666 171.261 217.654 147.918 144.434 223.295 144.094 262.75 142.978 220.92 221.5 137.753 137.199 145.311 137.192 131.066 128.94 127.437 205.298 142.729 127.405 201.685 126.329 123.778 122.589 212.989 256.43 141.357 121.79 121.51 121.469 179.346 166.736 152.145 214.644
threshold=1.8370166420936587 0.25249256193637853 -3.1776932477951045 3.7720094919204716 -0.49685785174369806 0.17058959603309634 0.67154377698898327 0.45376516878604894 -0.50997152924537648 0.09269988909363748 0.28524444997310644 43.294565200805671 1.6860534548759463 0.08688590303063394 -0.24782233685255048 -0.29770237207412714 5.7432463169097909 0.4211032390594483 0.051037775352597244 0.045166572555899627 0.0094593092799186724 0.020726254209876064 -0.76334652304649342 -0.53387910127639759 0.99995669722557079 0.66657197475433361 -0.2375705614686012 -0.21037650853395459 0.24160731583833697 0.061311334371566779 0.22228076308965686 0.32174570858478552 23.145003318786625 -1.4162449836730955 -0.74478876590728749 -1.2925570011138914 -1.686463415622711 11.437905311584474 15.458842754364015 1.4873939752578738 0.7781532108783723 -4.7558276653289786 0.99721962213516246 0.025199073366820816 -1.02137154340744 0.11113533005118371 -4.5781248445564407e-06 -0.54417786002159108 0.026189441792666916 -0.32951469719409937 11.596252441406252 0.42941319942474371 -0.53048080205917347 9.502207279205324 21.728763580322269 -0.72684723138809193 0.74786263704299938 0.32761563360691076 0.3335003405809403 0.38244153559207922 -0.34964525699615473 0.44532291591167456
decision_type=2 2 2 2 2 2 2 2 2 2 2 2 2 2 2 2 2 2 2 2 2 2 2 2 2 2 2 2 2 2 2 2 2 2 2 2 2 2 2 2 2 2 2 2 2 2 2 2 2 2 2 2 2 2 2 2 2 2 2 2 2 2
left_child=1 2 -1 -2 -3 14 8 -8 13 -10 11 -11 24 20 15 -4 -17 57 19 55 44 43 23 -23 -9 -24 33 28 29 -28 35 32 -32 -16 -35 36 -30 -38 47 -6 56 -15 -12 -22 45 46 -7 -33 -49 -13 -50 -46 54 -54 -53 -19 -41 60 -59 -60 61 -18
right_child=3 4 5 -5 39 6 7 12 9 10 42 49 -14 41 26 16 17 18 -20 -21 21 22 25 -25 -26 -27 27 -29 30 -31 31 38 -34 34 -36 -37 37 -39 -40 40 -42 -43 -44 -45 51 -47 -48 48 50 -51 -52 52 53 -55 -56 -57 -58 58 59 -61 -62 -63
leaf_value=0.085241453244515236 0.082807692819650627 0.087993354454658362 -0.007377698559124634 0.096616500621078072 0.053335129500820803 -0.056310249530438422 0.080695572776986108 -0.001978639171662537 -0.025146894910407076 0.034725658823306117 -0.043583903472146156 0.0064373981492462113 0.067947862130963974 0.22563969183247878 -0.058245647576766361 -0.011985429273376915 0.031688808412433496 0.34739122913011899 -0.040335561756060255 0.44080682894688317 0.0065262775740364933 -0.015359751825220015 -0.055735525892803874 0.087950617253735985 0.23899556852130155 0.16967536174991671 0.28462962111037543 -0.04053125636808895 -0.055240381702513996 -0.031796225567279561 0.050745435337256728 0.14035164032935529 0.27099373956564726 0.27159776953407144 0.019224348025202329 -0.055531542398385203 0.25184634669026479 -0.055379598847861172 -0.055763833005644116 0.1032108290713145 0.060090798563950436 -0.0030431066086603104 0.16086153440919382 0.17033661893602492 0.021493124939573387 0.094816788411566905 0.1673943418439362 0.29734867032976969 -0.056137707547096904 0.18733056167209317 0.29429478138875842 0.054298908804287407 -0.055420458037011788 0.35684678320886043 -0.025392890439522781 -0.054097950132063588 0.05679158382435983 0.30141323294290401 -0.056519496083004966 0.17379645754742715 0.12517614789161147 0.29416312227818192
leaf_weight=275.72919092327356 7167.6391213536263 624.93080758675933 221.27415759861469 5889.6931416243315 6465.177928455174 41.904469754546881 512.60340821743011 218.00682392716408 259.57493161782622 146.18720984458923 77.804300002753735 12.801987893879412 220.64377255737782 6.7236009463667861 14.793189477175472 127.83514108881354 140.55843115970492 2.3852309249341497 58.645646467804909 5.8354716897010794 14.862942233681677 43.179459854960442 46.574979845434427 227.17185059934855 6.4660001769661894 8.4040114991366845 5.6130418106913558 253.02893377095461 22.848901256918907 170.89961029216647 26.379254247993231 38.282406784594059 20.412880502641201 17.501088917255402 25.11081151291728 58.751709025353193 18.716621391475204 8.545275039970873 27.156382534652948 424.12493388354778 1863.6165506467223 267.04180079698563 8.7176089435815793 62.643799632787704 920.52061750739813 195.94968264549971 8.5922221094369871 5.4394102431833735 33.062825117260218 39.220261000096798 2.7277485355734816 504.49376328289509 5.5687600672245052 11.688960961997507 62.543874271214008 9.077176071703434 211.17281739413738 16.061604849994183 11.509520083665846 24.769934985786676 103.47888255491853 8.24599866196513
leaf_count=684 6086 1071 2630 1711 26021 458 2483 1707 3316 1267 884 92 547 10 141 1354 1307 5 646 19 132 396 557 1268 16 50 20 3099 298 2525 223 162 42 34 224 759 83 108 330 661 4140 2675 27 259 8537 863 48 16 392 200 3 3733 69 46 659 133 558 41 134 101 461 38
internal_value=0.0684353 0.0508235 0.0367123 0.0890363 0.0591889 0.0342384 0.0402531 0.0600082 0.0338874 0.0073301 0.0369377 0.0630949 0.0361844 0.0398414 0.0182559 0.0352323 0.0537776 0.0758678 0.00716799 0.168221 0.0445778 0.0717766 0.0557795 0.0714503 0.00496269 -0.0212795 0.00172343 -0.00445614 0.0163445 -0.021734 0.0419667 0.0735897 0.146828 0.0762015 0.122876 -0.00261133 0.0594342 0.155546 0.0414624 0.0571809 0.0671305 0.00257328 -0.0229848 0.138924 0.0383213 0.0716503 -0.018246 0.0746688 0.0136816 0.142815 -0.0294298 0.032863 0.0507754 0.223815 0.045509 0.0294486 0.0877811 0.0929948 0.162312 0.10073 0.0786135 0.0462338
internal_weight=28330.9 15273.6 5684.57 13057.3 9589.02 5408.84 3929.89 957.72 2972.17 544.306 284.731 198.209 445.117 2427.86 1478.95 729.677 508.403 380.568 75.9435 17.2979 2154.1 402.837 325.33 270.351 224.473 54.979 749.27 691.865 438.836 176.513 262.323 153.461 46.7921 57.4051 42.6119 108.863 50.1108 27.2619 106.669 8964.09 2498.91 273.765 86.5219 77.5067 1751.26 246.446 50.4967 79.5124 41.23 52.0222 35.7906 1504.82 584.295 17.2577 567.038 11.4624 635.298 304.624 52.3411 36.2795 252.283 148.804
internal_count=86559 78762 46311 7797 32451 45627 30299 4753 25546 5786 2470 1559 2270 19760 15328 6869 4239 2885 803 157 17075 2662 2271 1664 1723 607 8459 8060 4961 2545 2416 1168 265 399 258 1248 489 191 903 31380 5359 2685 911 391 14413 1369 506 573 411 292 395 13044 4507 115 4392 138 1219 2082 276 235 1806 1345
is_linear=0
shrinkage=0.05


Tree=13
num_leaves=63
num_cat=0
split_feature=42 34 42 13 24 12 21 41 43 6 41 19 31 14 25 10 4 36 34 13 41 42 36 7 41 42 30 7 25 25 21 20 25 18 22 10 10 11 4 9 41 11 9 34 0 43 7 12 12 29 40 43 7 43 50 6 50 22 36 7 9 30
split_gain=3952.12 580.771 343.009 307.895 222.775 159.421 141.147 132.832 130.505 129.899 126.003 185.772 207.91 193.66 131.048 137.725 156.515 126.016 123.626 118.224 114.696 148.415 145.592 214.486 172.038 163.287 145.64 142.044 144.618 131.976 118.941 118.163 192.96 154.88 128.622 181.287 116.617 152.245 118.031 114.141 211.648 175.783 192.669 126.055 119.309 112.715 219.99 173.081 182.452 183.96 164.16 153.403 153.562 149.901 168.346 151.12 183.3 156.598 148.352 139.746 157.093 151.111
threshold=1.6732392311096194 0.42555135488510137 3.0932818651199345 0.64841780066490184 2.1455739736557011 0.6348187029361726 0.153498649597168 -1.626868665218353 -3.7653758525848384 0.35722066462039953 0.80479443073272716 0.56261858344078075 -1.1509135961532591 -1.0227659940719602 -2.1869199275970455 0.090292859822511687 0.25670991837978369 -0.21322630345821378 0.43357518315315252 0.50141829252243053 -1.0579571723937986 0.29795570671558386 -0.55509889125823964 19.965855598449711 0.15874727815389636 -0.43231731653213495 0.64655193686485302 16.531228065490726 -0.17603660374879834 -0.42465266585350031 0.26522855460643774 0.10293113067746164 -1.0475025773048399 5.8325934410095224 -0.89109519124031056 1.0735242028658833e-08 0.042693074792623527 1.0937458872795107 0.92368489503860485 -0.39256067574024195 -0.27700830996036524 -1.4298695325851438 -0.41789598762989039 0.94462811946868908 -1.2580282092094419 -0.12313057482242583 57.095941543579109 0.052701013162732131 0.06452930718660356 8.6128354072570819 6.0240342617034921 -0.076500549912452684 34.383052825927741 -0.56964147090911854 -1.02137154340744 0.52877458930015575 -0.59648466110229481 -0.58106932044029225 -0.34551495313644404 33.310281753540046 0.071190625429153456 -0.65987113118171681
decision_type=2 2 2 2 2 2 2 2 2 2 2 2 2 2 2 2 2 2 2 2 2 2 2 2 2 2 2 2 2 2 2 2 2 2 2 2 2 2 2 2 2 2 2 2 2 2 2 2 2 2 2 2 2 2 2 2 2 2 2 2 2 2
left_child=1 3 -2 5 10 45 -7 8 -5 -8 11 12 13 -3 -14 18 -17 -12 -16 -19 29 22 24 26 25 -22 27 -24 -29 30 -9 32 -27 -33 -34 -36 37 -35 -38 40 41 -20 -43 44 -42 47 51 -1 49 -49 -48 -47 59 54 -50 -56 -57 -58 -52 61 -61 -53
right_child=2 4 -4 7 -6 6 9 20 -10 -11 17 -13 14 -15 15 16 -18 19 39 -21 21 -23 23 -25 -26 31 -28 28 -30 -31 -32 33 34 36 35 -37 38 -39 -40 -41 43 42 -44 -45 -46 46 50 48 53 -51 58 52 -54 -55 55 56 57 -59 -60 60 -62 -63
leaf_value=-0.0088876326371822786 0.074105110257704623 0.04123232407933565 0.089892821393507072 0.11356412913588945 0.077370147887127205 -0.020436548355228235 -0.014086523907736957 0.11187544636287838 -0.020402339183243984 0.10924174818611108 0.062872748931908695 0.066568863509893023 0.086837798909201291 0.10761706564901666 -0.057215937780762033 0.059222877002328457 -0.043458548587420182 -0.028021190046193835 0.18364891651194903 0.047007406891696621 0.021108179728721279 0.057219181884718723 0.032605927836089045 -0.023997887303985922 -0.062082488143900411 -0.016281268962001244 -0.059842043356653857 0.0079137114371028439 0.19965351735617662 -0.020821676030281178 -0.061363846465569485 -0.060328628941009411 0.32141097729461743 -0.037653346131256774 -0.0057275241487038733 0.17778862837099293 0.10514246614674974 0.13015044684446819 -0.059690491197399581 0.031971626652202351 -0.061605463406574502 -0.039650618358600703 0.16552252874340226 -0.029880482189495378 0.084900998168088521 -0.055187010534530762 0.19857692720671211 -0.0054604401353891092 0.045836481076030049 0.18055244619455918 -0.055445509887465438 0.04673819139257801 -0.021309795997642034 0.052828370509837658 -0.024937877999363544 -0.056025903534271108 0.19579023286161323 -0.00053982000177021331 0.13619318635612321 0.031065876319235027 0.23862797330448171 -0.0077651596890940524
leaf_weight=196.9814655855298 6098.7134593874216 235.7434957921505 7892.9121447950602 21.312951922416687 886.96076907962561 344.22162638232112 40.288734540343285 159.78257716074586 123.64011040329933 45.423066958785057 2922.1715699285269 815.95434892177582 119.35239890962839 205.73992730304599 35.071723967790604 54.795534431934357 114.9955818541348 55.081025116145611 11.954955264925955 1122.1297785788774 247.58472311124206 1194.5514380484819 73.962582301348448 227.14785946160555 34.913896560668945 20.764017656445503 23.590740334242582 13.913267623633145 33.543229106813669 25.505385000258684 10.562803793698547 25.8237369582057 10.111491799354551 45.137437403202057 18.097153913229704 52.488252129405737 143.17327658459544 19.295199267566204 11.751905385404823 2165.2261424139142 14.385041780769823 105.96110424026847 12.82742467522621 27.85745070874691 408.99005367234349 90.896282140165567 26.035169865936041 19.050082854926586 297.42035043984652 43.971090275794268 20.800129644572735 268.93736871704459 224.77157684415579 710.16011281684041 243.87473834678531 22.180497076362371 26.628898963332176 16.419311825186014 19.628635179251432 20.922222774475813 16.15446138754487 241.25152099505067
leaf_count=2050 6429 1237 2730 56 1242 3803 279 626 1016 210 7176 3161 384 489 363 277 994 332 48 3392 1674 3985 559 2109 250 129 198 101 123 221 86 218 6 379 137 150 542 33 106 13996 106 1034 49 179 1798 1181 84 195 2019 158 281 2682 2778 6276 2680 262 136 145 78 185 53 2904
internal_value=0.0639627 0.0459398 0.0830112 0.0330122 0.0535347 0.0219886 -0.0061408 0.0457713 -0.000704784 0.0512714 0.0510263 0.045077 0.0400851 0.0721689 0.0354733 0.0333967 -0.0103209 0.0573086 0.0360646 0.0434969 0.0485881 0.0453181 0.03112 0.00633055 0.0457838 0.0521215 0.0538379 0.075925 0.143439 0.0852512 0.101133 0.0742723 0.119652 0.0554932 0.154629 0.130738 0.0691282 0.0125977 0.092639 0.0372554 0.0569137 0.000897322 -0.0174949 0.0731443 0.0799231 0.0268144 0.0130031 0.0349556 0.0412152 0.124324 0.100656 0.00625197 0.0134855 0.0372373 0.0189821 -0.00685721 0.0607422 0.120907 0.0375973 0.0277766 0.121502 0.0209654
internal_weight=28779.5 14787.9 13991.6 5472.67 9315.2 2936.02 429.933 2536.65 144.953 85.7118 8428.24 4328.86 3512.9 441.483 3071.42 2952.07 169.791 4099.38 2782.27 1177.21 2391.7 2195.85 1001.3 372.158 629.141 594.227 145.01 121.419 47.4565 195.851 170.345 346.642 101.461 245.182 80.6969 70.5854 219.358 64.4326 154.925 2747.2 581.976 130.743 118.789 451.233 423.375 2506.08 929.397 1576.69 1379.71 63.0212 66.4639 862.933 772.037 1316.68 606.524 309.103 65.2287 43.0482 40.4288 547.266 37.0767 510.189
internal_count=86559 77400 9159 41143 36257 28439 4292 12704 1072 489 35015 24115 20954 1726 19228 18844 1271 10900 17573 3724 11632 10699 6714 3090 3624 3374 981 783 224 933 712 1700 422 1278 293 287 1060 412 648 17210 3214 1131 1083 2083 1904 24147 10226 13921 11871 353 443 9783 8602 11518 5242 3223 543 281 359 5824 238 5586
is_linear=0
shrinkage=0.05


Tree=14
num_leaves=63
num_cat=0
split_feature=42 35 34 41 34 31 1 9 29 29 7 2 10 40 2 2 3 14 3 9 32 14 26 35 43 10 43 26 26 12 11 16 14 10 10 35 22 7 26 14 34 35 18 3 14 34 21 22 11 11 25 41 40 14 26 21 43 25 26 12 34 14
split_gain=3817.4 639.398 280.32 267.651 194.179 146.519 139.306 169.223 204.217 171.341 139.607 155.183 135.927 213.897 211.456 147.426 132.805 146.698 155.421 141.445 135.712 144.307 128.886 128.537 183.088 143.433 163.409 126.349 147.832 126.08 123.583 122.112 118.935 120.69 153.58 177.617 183.874 160.427 181.419 193.462 153.51 151.032 150.208 133.646 119.125 115.776 114.508 114.078 181.542 146.671 122.32 113.402 111.79 109.787 141.404 151.754 124.223 165.099 176.541 121.338 118.19 117.174
