tree
version=v4
num_class=1
num_tree_per_iteration=1
label_index=0
max_feature_idx=7
objective=binary sigmoid:1
feature_names=Column_0 Column_1 Column_2 Column_3 Column_4 Column_5 Column_6 Column_7
feature_infos=[0.50000062922841426:14.988973535363726] [1084:69828097.200000182] [1084:69828097.200000182] [1084:69828097.200000182] [1084:69828097.200000182] [0.00035132840744349201:20.50335186199607] [0.026252983293556086:1] [9.914225006103516:90.702699089050313]
tree_sizes=2404 2410 2408 2405 2420 2411 2402 2408 2417 2406 2416 2416 2416 2419 2425 2412 2421 2413 2409 2420 2413 2413 2414 2415 2415 2418 2422 2415 2410 2412 2425 2414 2428 2430 2428 2427 2420 2406 2430 2438 2419 2429 2426 2423 2419 2425 2414 2419 2415 2428 2410 2410 2424 2420 2415 2430 2409 2435 2421 2431 2414 2415 2436 2410 2436 2427 2424 2413 2428 2424 2424 2425 2427 2429 2428 2436 2429 2433 2428 2417 2413 2429 2428 2425 2406 2418 2437 2436 2426 2407 2430 2442 2399 2405 2434 2398 2430 2436 2409 2403 2448 2403 2402 2448 2418 2439 2401 2437 2408 2410 2437 2434 2409 2410 2447 2402 2413 2422 2428 2432 2429 2440 2417 2432 2446 2414 2441 2418 2431 2447 2422 2414 2417 2437 2442 2444 2423 2443 2433 2435 2446 2429 2442 2424 2442 2451 2460 2439 2439 2422 2445 2448 2448 2408 2430 2439 2452 2410 2440 2407 2449 2403 2434 2429 2430 2402 2433 2431 2442 2392 2441 2443 2404 2424 2427 2442 2438 2445 2445 2393 2443 2410 2443 2424 2446 2446 2418 2440 2431 2439 2448 2443 2408 2437 2444 2440 2448 2444 2428 2408 2433 2427 2437 2454 2417 2452 2437 2434 2418 2440 2419 2442 2428 2443 2429 2450 2427 2448 2447 2415 2444 2429 2448 2408 2446 2423 2449 2432 2412 2440 2425 2439 2421 2443 2437 2413 2433 2419 2414 2438 2442 2448 2437 2426 2449 2411 2438 2423 2437 2434 2415 2441 2419 2431 2438 2449 2442 2438 2415 2444 2421 2441 2454 2439 2451 2434 2438 2415 2451 2459 2436 2446 2435 2440 2422 2416 2438 2422 2433 2412 2423 2433 2445 2433 2427 2416 2443 2454 2409 2452 2435 2425 2445 2402 2426 2431 2440 2393 2406 2406 2444 2443 2426 2427 2427 2440 2411 2438 2422 2441 2411 2445 2454 2443 2451 2444 2421 2433 2445 2428 2431 2441 2416 2438 2419 2443 2441 2418 2425 2447 2435 2431 2451 2427 2420 2452 2434 2417 2449 2433 2422 2405 2431 2449 2431 2432 2441 2449 2446 2440 2423 2436 2439 2422 2417 2406 2438 2429 2424 2405 2443 2425 2438 2450 2439 2411 2435 2428 2431 2430 2407 2433 2418 2439 2443 2434 2408 2441 2419 2452 2425 2409 2427 2416 2425 2437 2404 2429 2428 2435 2394 2409 2438 2447 2400 2406 2417 2438 2421 2417 2416 2427 2416 2406 2432 2427 2440 2430 2388 2416 2428 2432 2430 2415 2417 2438 2418 2440 2427 2401 2410 2415 2434 2415 2422 2426 2450 2396 2438 2449 2409 2412 2407 2418 2426 2399 2390 2433 2383 2445 2431 2412 2410 2424 2407 2411 2438 2417 2428 2393 2423 2437 2424 2435 2404 2417 2446 2399 2438 2425 2441 2412 2412 2404 2400 2411 2439 2448 2416 2426 2400 2440 2425 2409 2440 2417 2432 2397 2440 2420 2436 2435 2437 2400 2429 2431 2410 2410 2441 2432 2420 2415 2375 2428 2428 2411 2442 2380 2443 2438

Tree=0
num_leaves=21
num_cat=0
split_feature=1 0 0 2 1 2 1 2 4 0 0 0 3 1 1 1 2 1 2 7
split_gain=9716 4971.67 4773.17 2450.96 2355.27 1912.41 1353.77 2528.6 947.081 945.281 805.578 692.108 441.534 788.131 378.281 362.473 286.792 399.127 275.927 208.688
threshold=507256.00000000006 1.2507214297205473 2.223378963663281 560370.10000000021 2063473.5000000002 2363303.2000000007 106302.50000000001 138467.00000000003 1317401.4285714289 3.1553718158746973 1.1148688488776373 4.3518157793850056 97649.450000000026 51094.500000000007 868149.50000000012 199991.00000000003 597956.00000000012 1413138.0000000002 335142.20000000001 38.057081222534187
decision_type=2 2 2 2 2 2 2 2 2 2 2 2 2 2 2 2 2 2 2 2
left_child=2 3 6 14 8 -6 12 15 -5 16 -9 -4 13 -1 18 -8 -3 -18 -2 -14
right_child=1 9 11 4 5 -7 7 10 -10 -11 -12 -13 19 -15 -16 -17 17 -19 -20 -21
leaf_value=-0.027731520525970617 0.031805898158336884 0.035571797199741712 0.013753129544425254 -0.0034703057786823538 0.030968972732339249 0.0011612536489160746 0.0051542817696930048 -0.023938386503772929 -0.024955357195630957 0.045424138201622166 -0.0043698353297236528 0.046652778653130715 -0.022128890104820116 -0.0049037079507726232 0.040692479679096207 0.02760237476174544 0.0064219460091422091 0.024613069845536007 0.0069361611839255039 -0.040621437559519032
leaf_weight=5773.8356840610504 774.21370410919189 1433.9941433668137 1926.5414780378342 3691.107910990715 2453.3384969234467 9207.068711400032 1616.0104985237122 7084.1943088769913 3695.0235744714737 2260.9736007452011 2583.9586954116821 820.61303853988647 730.07022249698639 1781.0494503974915 1295.22130382061 1080.0521982908249 1378.5379472970963 5106.7773023843765 834.04202151298523 2217.1240797042847
leaf_count=28940 2198 3874 6739 15232 7040 36438 6160 34527 18146 5295 10748 1885 3510 7443 3257 3232 5191 15839 3125 12156
internal_value=-6.01342e-09 0.0109872 -0.0137828 0.00295055 -0.000963471 0.00743277 -0.0182716 -0.0115441 -0.0142185 0.0283154 -0.0187084 0.0235807 -0.0261919 -0.0223499 0.0286262 0.0141471 0.0234308 0.0207463 0.0189084 -0.0360405
internal_weight=57743.7 32130.3 25613.4 21950 19046.5 11660.4 22866.3 12364.2 7386.13 10180.3 9668.15 2747.15 10502.1 7554.89 2903.48 2696.06 7919.31 6485.32 1608.26 2947.19
internal_count=230975 115635 115340 85436 76856 43478 106716 54667 33378 30199 45275 8624 52049 36383 8580 9392 24904 21030 5323 15666
is_linear=0
shrinkage=1


Tree=1
num_leaves=21
num_cat=0
split_feature=0 1 2 1 2 0 1 1 3 3 1 4 1 3 1 2 1 7 0 2
split_gain=9187.86 7796.57 2442.18 2829.01 1886.26 1446.19 1080.41 1058.24 2322.88 880.427 563.58 510.763 441.783 387.139 676.696 360.878 224.351 191.893 161.455 160.343
threshold=1.7688583142913441 464367.50000000006 560370.10000000021 1860260.5000000002 2068440.5000000002 3.3149181459235182 133051.00000000003 106302.50000000001 189166.15000000002 1173569.5000000002 830033.00000000012 534277.85714285728 199991.00000000003 97649.450000000026 37043.500000000007 328143.90000000008 679473.00000000012 38.057081222534187 4.3518157793850056 190634.40000000005
decision_type=2 2 2 2 2 2 2 2 2 2 2 2 2 2 2 2 2 2 2 2
left_child=1 7 10 9 -5 6 -2 13 12 -4 15 -10 -9 14 -1 -3 19 -15 -7 -8
right_child=5 2 3 4 -6 18 16 8 11 -11 -12 -13 -14 17 -16 -17 -18 -19 -20 -21
leaf_value=-0.029877144796313888 -0.0039542887639004492 0.029314353594600384 -0.0027602484237015316 0.031059018842938976 0.003889315701839854 0.033719611269556575 0.027947366245319551 -0.0014988531158265401 -0.01725056640606569 -0.022484186986185244 0.039500355449290162 -0.034420361467207457 0.020412787025226538 -0.022172255305784896 -0.010476343615488475 0.0054090511722476066 0.028769637124913903 -0.04054982944635524 0.047130934559299446 0.0087378424998637971
leaf_weight=4455.3326669931412 1569.0936267822981 1088.2651170343161 3967.1403495073318 2848.6845919936895 11933.73301756382 1329.4699423015118 604.73680356144905 2031.5708688348532 5161.811949506402 4185.9317487329245 1741.322424814105 2234.2359358519316 1398.0109879672527 676.03571124374866 2540.8410336524248 1189.640400364995 3514.3367317169905 2099.2305393069983 2059.2249566465616 1106.8669556379318
leaf_count=22819 6512 3161 16288 8092 45969 3634 1793 8244 24003 20256 4384 11794 4536 3268 11172 4516 10274 11601 4595 4064
internal_value=9.58479e-09 -0.0055383 0.00508049 0.00130034 0.00912512 0.0258605 0.0178769 -0.0194348 -0.0129743 -0.0128869 0.0266518 -0.0224373 0.00743306 -0.0265922 -0.0228312 0.0168298 0.0244317 -0.0360732 0.0418693 0.0155249
internal_weight=57735.5 47551.8 26954.7 22935.5 14782.4 10183.7 6795.03 20597.1 10825.6 8153.07 4019.23 7396.05 3429.58 9771.44 6996.17 2277.91 5225.94 2775.27 3388.69 1711.6
internal_count=230975 200103 102666 90605 54061 30872 22643 97437 48577 36544 12061 35797 12780 48860 33991 7677 16131 14869 8229 5857
is_linear=0
shrinkage=0.03


Tree=2
num_leaves=21
num_cat=0
split_feature=0 1 2 1 0 2 1 3 1 4 1 4 1 3 1 1 2 7 0 2
split_gain=8705.07 6808.19 2325.43 2256.61 1932.45 1799.87 1624.22 982.438 977.254 2205.77 536.402 411.633 353.743 330.395 684.371 279.678 227.607 201.876 194.263 193.533
threshold=1.5015094513415541 518574.00000000006 560370.10000000021 2063473.5000000002 3.1553718158746973 2363303.2000000007 311574.50000000006 1098095.8500000003 106302.50000000001 233760.66666666669 199991.00000000003 534277.85714285728 888386.50000000012 77851.750000000015 37043.500000000007 88450.000000000015 335142.20000000001 41.209680557250984 4.3518157793850056 138467.00000000003
decision_type=2 2 2 2 2 2 2 2 2 2 2 2 2 2 2 2 2 2 2 2
left_child=1 8 12 7 6 -5 15 -4 13 10 -10 -11 16 14 -1 -2 -3 -15 -6 -17
right_child=4 2 3 5 18 -7 -8 -9 9 11 -12 -13 -14 17 -16 19 -18 -19 -20 -21
leaf_value=-0.029362058163975472 -0.010123177802890812 0.030454149229321534 0.00097082612426200796 0.029933875848058327 0.031955945860249524 0.0026161980032221709 0.023414093262484396 -0.020441116027834032 -0.005581841471480966 -0.017984858600752256 0.016435330469789428 -0.0331023870800079 0.039267341706200984 -0.02330234921862933 -0.0070977060126019998 0.019699423683241315 0.0088353785362382045 -0.03921456885249034 0.045792916094490196 -0.0013596353737793645
leaf_weight=3908.3536279499531 1858.3631917238235 839.11436726152897 3221.5821231007576 2748.9279410839081 1642.9098945707083 10319.240722253919 6180.0408655554056 4805.1025242954493 2205.0436638444662 4415.6631621867418 1816.1198772341013 2561.3120099753141 1427.7130967974663 1049.6834075301886 1821.7105670571327 643.32482977211475 917.57092954218388 2267.9723439961672 2055.8576659858227 1008.3688608705997
leaf_count=20082 8175 2370 12791 7831 4547 40207 19180 22991 9297 20721 6154 13484 3549 5149 7808 2098 3355 12507 4595 4084
internal_value=3.7296e-08 -0.00640341 0.00427992 0.000672637 0.0211993 0.00836255 0.0141577 -0.0118472 -0.0193429 -0.013335 0.004362 -0.0235346 0.0281762 -0.0266459 -0.0222837 -0.00213969 0.019162 -0.0341801 0.0396468 0.00684274
internal_weight=57714 44325.1 24279.3 21094.9 13388.9 13068.2 9690.1 8026.68 20045.9 10998.1 4021.16 6976.98 3184.4 9047.72 5730.06 3510.06 1756.69 3317.66 3698.77 1651.69
internal_count=230975 188296 93094 83820 42679 48038 33537 35782 95202 49656 15451 34205 9274 45546 27890 14357 5725 17656 9142 6182
is_linear=0
shrinkage=0.03


Tree=3
num_leaves=21
num_cat=0
split_feature=1 0 0 4 1 2 1 4 2 0 0 1 0 3 1 1 3 2 1 1
split_gain=8219.24 4336.74 3868.35 2195.75 1829.55 1535.08 1351.35 2349.27 761.493 724.748 697.067 659.407 612.026 381.319 682.086 378.326 309.721 308.167 292.728 232.474
threshold=663725.50000000012 2.0408133609845396 1.2507214297205473 837752.26190476201 2812017.5000000005 3560150.3000000003 106302.50000000001 233760.66666666669 1540274.3000000003 4.3518157793850056 2.6143805283147086 199991.00000000003 1.1148688488776373 97649.450000000026 51094.500000000007 1413138.0000000002 765109.15000000002 474979.20000000007 3610047.5000000005 88450.000000000015
decision_type=2 2 2 2 2 2 2 2 2 2 2 2 2 2 2 2 2 2 2 2
left_child=1 6 3 15 8 -6 13 11 -5 19 16 -8 -9 14 -1 17 -4 -2 -18 -3
right_child=2 9 10 4 5 -7 7 12 -10 -11 -12 -13 -14 -15 -16 -17 18 -19 -20 -21
leaf_value=-0.025778909545497348 0.030927852983666255 5.1795656693913232e-05 0.034828961826550875 -0.0019401267198459575 0.027994933385787946 0.00064967305712295787 -0.0038157738909287255 -0.022974304653972447 -0.021772712507425643 0.042752454462869412 0.039205316963475935 0.018308613991763503 -0.0053148397782853433 -0.033577974749624213 -0.004280361911745096 0.040565744585432904 0.0099099009740733785 0.0086817203594379451 0.024326865733784307 0.018393779488943867
leaf_weight=5636.7826583385468 1038.9552401155233 990.85327404737473 1266.3961302787066 3281.4307931065559 2484.4941237270832 7207.5028531104326 2499.43035197258 7277.6733996123075 3715.0756691992283 896.47586664557457 2907.7890742570162 2354.5790879279375 2332.3172812759876 2884.7707203030586 1737.6407133340836 1073.2716506272554 2181.4942743629217 1216.776085883379 3025.4055040478706 1670.1973669230938
leaf_count=28367 2887 3953 3356 13419 7275 28599 10382 35653 17936 2067 7151 7758 9824 15431 7276 2617 7844 4469 9238 5473
internal_value=7.90323e-08 -0.0115463 0.0111074 0.00365762 -0.000780052 0.00765949 -0.0160026 -0.0100957 -0.012471 0.0194234 0.0270038 0.00691631 -0.0186884 -0.0243306 -0.0207132 0.025904 0.0215229 0.0189279 0.0182867 0.0115641
internal_weight=57679.3 28280.7 29398.6 20017.5 16688.5 9692 24723.2 14464 6996.51 3557.53 9381.08 4854.01 9609.99 10259.2 7374.42 3329 6473.3 2255.73 5206.9 2661.05
internal_count=230975 126184 104791 77202 67229 35874 114691 63617 31355 11493 27589 18140 45477 51074 35643 9973 20438 7356 17082 9426
is_linear=0
shrinkage=0.03


Tree=4
num_leaves=21
num_cat=0
split_feature=0 1 2 1 0 1 2 1 2 1 4 2 1 2 3 1 6 1 7 0
split_gain=7775.94 6116.57 2363.89 1872.8 1699.5 1398.27 1350.08 1185.59 2172.96 956.659 618.052 521.061 400.911 328.455 308.317 628.349 250.828 222.841 193.028 175.983
threshold=1.5163599162289711 759053.50000000012 938753.30000000016 2494555.5000000005 3.1553718158746973 318604.00000000006 3143905.1000000001 106302.50000000001 249913.10000000001 231506.50000000003 1564410.3809523813 597956.00000000012 1449188.5000000002 585174.00000000012 77851.750000000015 37043.500000000007 0.91647054914751191 33930.500000000007 41.209680557250984 4.3518157793850056
decision_type=2 2 2 2 2 2 2 2 2 2 2 2 2 2 2 2 2 2 2 2
left_child=1 7 12 10 5 16 -5 14 9 -9 -4 -10 13 -3 15 -1 -2 -18 -16 -6
right_child=4 2 3 6 19 -7 -8 8 11 -11 -12 -13 -14 -15 18 -17 17 -19 -20 -21
leaf_value=-0.027686691399713439 0.010744999258635281 0.029733239355387044 -0.00091887459173699228 0.026435286879873621 0.030260503061791667 0.022310195712476645 0.0022526492779000257 -0.0068503243645370322 -0.01488186006332042 0.018745642491114163 -0.020706778951297258 -0.030123201199940719 0.039521168416754675 0.0077220331562898002 -0.021785068335403033 -0.0064226365705065376 -0.020784355052006289 -0.00095520162475219337 -0.037315446799826672 0.043458508689399059
leaf_weight=3925.6511028409004 1026.6709295511246 1309.2573812305927 2363.2409515231848 2714.7524281144142 1638.0389710664749 5991.8287796974182 8855.0583357959986 3198.7865767329931 5425.4468195140362 2230.6048225462437 3561.4259757846594 3215.0565709769726 1416.8343416452408 1142.6309159696102 1055.2613246440887 1835.4677199721336 731.32993124425411 1685.9251624345779 2268.9887184053659 2043.7834762334824
leaf_count=20205 3727 3665 9594 8026 4547 18575 34556 13684 24998 7336 17146 16647 3477 4257 5187 7864 3525 6803 12561 4595
internal_value=1.4779e-07 -0.00598132 0.00559571 0.00090288 0.0203001 0.0135548 0.00792689 -0.0166624 -0.0112074 0.00366549 -0.0128137 -0.020553 0.0268168 0.0194756 -0.0251101 -0.0209121 -0.00167804 -0.00695443 -0.0323854 0.0375867
internal_weight=57636 44518.5 21363.2 17494.5 13117.6 9435.75 11569.8 23155.3 14069.9 5429.39 5924.67 8640.5 3868.72 2451.89 9085.37 5761.12 3443.93 2417.26 3324.25 3681.82
internal_count=230975 189203 80721 69322 41772 32630 42582 108482 62665 21020 26740 41645 11399 7922 45817 28069 14055 10328 17748 9142
is_linear=0
shrinkage=0.03


Tree=5
num_leaves=21
num_cat=0
split_feature=1 0 0 2 1 2 0 0 3 0 3 1 1 3 1 2 1 2 0 6
split_gain=7367.45 4370.36 3185.93 1649.57 2003.33 1571.77 1057.84 797.546 694.118 509.856 497.633 1079.33 495.386 465.601 328.098 280.783 550.708 222.419 189.325 165.385
threshold=356378.00000000006 1.1070126877435473 2.223378963663281 427960.70000000001 1449188.5000000002 1822212.0000000002 2.2802355580746507 1.0292024399015667 1049933.9000000001 4.3518157793850056 247621.00000000003 106302.50000000001 61329.000000000007 110107.95000000001 649270.00000000012 446350.90000000008 1198347.5000000002 266624.40000000008 3.5095012176107336 0.88348199015970763
decision_type=2 2 2 2 2 2 2 2 2 2 2 2 2 2 2 2 2 2 2 2
left_child=2 3 7 14 8 -6 15 10 -5 -4 11 -1 19 -14 17 -3 -17 -2 -8 -9
right_child=1 6 9 4 5 -7 18 12 -10 -11 -12 -13 13 -15 -16 16 -18 -19 -20 -21
leaf_value=-0.025464047087906075 0.02421521523566432 0.028284686118648636 0.010102204413069617 -0.0076088642648023475 0.024544477705110122 -0.0013051876230120677 0.028327469923372532 -0.0076935635049555562 -0.027077053901262652 0.04045880586381153 -0.03166905570425807 -0.0034465642171274346 0.012906539056189433 -0.0092528356238732352 0.03362791529533881 -0.00013463872353033349 0.018527319442383304 0.0018849126887197339 0.041012851274204933 -0.023902949866821736
leaf_weight=6243.9086837172508 792.11854413151741 1461.7674696296453 1664.2825568765402 3776.8316537439823 2686.8439378291368 9981.8457453101873 2227.9183551967144 794.25529116392136 2924.5750779211521 710.53908175230026 3515.1757995933294 2950.8390345424414 1197.4120029509068 2970.1888408511877 1201.0357067584991 1887.1305478513241 5788.253054574132 813.95469589531422 2017.9547291696072 1975.6548510789871
leaf_count=31767 2434 4203 5953 16306 8155 40318 6323 3512 14893 1652 18597 12225 4234 13051 3155 7532 18830 3256 4680 9899
internal_value=2.1236e-07 0.00844489 -0.0136358 0.000274904 -0.0028398 0.00417715 0.0219835 -0.0176028 -0.016105 0.0191848 -0.0220684 -0.0183981 -0.00942166 -0.00288613 0.0217675 0.016234 0.0139389 0.0128983 0.0343565 -0.019255
internal_weight=57582.5 35560.2 22022.3 22177.2 19370.1 12668.7 13383 19647.4 6701.41 2374.82 12709.9 9194.75 6937.51 4167.6 2807.11 9137.15 7675.38 1606.07 4245.87 2769.91
internal_count=230975 130085 100890 88517 79672 48473 41568 93285 31199 7605 62589 43992 30696 17285 8845 30565 26362 5690 11003 13411
is_linear=0
shrinkage=0.03


Tree=6
num_leaves=21
num_cat=0
split_feature=1 0 0 2 1 2 0 1 3 0 4 0 1 1 4 1 2 1 2 0
split_gain=6971.14 3771.43 3280.71 1705.4 1754.41 1305.67 924.942 880.309 1800.08 624.629 577.622 485.324 426.844 342.929 332.262 511.296 316.959 436.081 227.89 164.892
threshold=464367.50000000006 1.0847525245655578 2.223378963663281 560370.10000000021 1559016.5000000002 1822212.0000000002 2.2802355580746507 61329.000000000007 122964.90000000001 1.1148688488776373 873104.45238095254 4.3518157793850056 106302.50000000001 868149.50000000012 55092.357142857152 21490.500000000004 494499.3000000001 1413138.0000000002 362604.80000000005 3.726220708834072
decision_type=2 2 2 2 2 2 2 2 2 2 2 2 2 2 2 2 2 2 2 2
left_child=2 3 7 13 10 -6 16 14 12 -10 -5 -4 -9 18 15 -1 -3 -18 -2 -8
right_child=1 6 11 4 5 -7 19 8 9 -11 -12 -13 -14 -15 -16 -17 17 -19 -20 -21
leaf_value=-0.027036329124652536 0.023854158589603467 0.030255839662287717 0.011164953767822595 -0.0015373998601261247 0.024537021826655653 -0.00098975580192255 0.028537238689657508 -0.0047129369968786847 -0.022008267856471947 -0.005832046264760706 -0.023213680289228451 0.039316706258286586 0.01598448019641251 0.035100083307761459 -0.032340251181028033 -0.0063017658277070513 0.0016350700429943255 0.018212206684294366 0.0021545005415218562 0.040903263273638038
leaf_weight=2860.5687558501959 953.45819143950939 1263.7717036306858 1854.251389592886 1561.3309215754271 2218.3731177002192 9639.8125037252903 2290.6473364382982 1622.5595244318247 7996.3943315148354 2937.6219502836466 3797.3315100818872 784.24458585679531 2004.7815200388432 1135.1784787923098 2842.5527951419353 1710.2946636676788 1910.8198935836554 5654.6912877112627 801.91726665198803 1683.8617225140333
leaf_count=14829 2893 3485 6530 6388 6674 38819 6418 6929 39507 12512 18835 1836 6784 2879 15281 7502 7497 18363 3153 3861
internal_value=2.8614e-07 0.00903178 -0.012076 0.000927883 -0.00265201 0.00378567 0.0217584 -0.0158712 -0.0115869 -0.0176622 -0.016898 0.0195325 0.00672624 0.0222506 -0.0242865 -0.019278 0.0163485 0.0140253 0.013941 0.0337763
internal_weight=57524.5 32911.2 24613.3 20107.4 17216.8 11858.2 12803.8 21974.8 14561.4 10934 5358.66 2638.5 3627.34 2890.55 7413.42 4570.86 8829.28 7565.51 1755.38 3974.51
internal_count=230975 119265 111710 79641 70716 45493 39624 103344 65732 52019 25223 8366 13713 8925 37612 22331 29345 25860 6046 10279
is_linear=0
shrinkage=0.03


Tree=7
num_leaves=21
num_cat=0
split_feature=1 0 0 2 1 3 1 4 0 1 4 0 1 1 4 1 2 1 1 2
split_gain=6609.59 3481.68 3124.81 1847.16 1595.77 1383.89 1014.33 1898.78 772.218 764.085 724.897 566.649 478.554 337.231 318.717 501.762 296.508 310.546 241.69 226.367
threshold=663725.50000000012 1.7688583142913441 1.2507214297205473 788864.70000000007 2812017.5000000005 3685529.1000000006 88450.000000000015 238984.90476190479 3.1553718158746973 199991.00000000003 1346440.7857142859 3.1553718158746973 236918.50000000003 1091308.0000000002 81563.833333333358 29405.500000000004 918640.80000000016 3610047.5000000005 129471.00000000001 474979.20000000007
decision_type=2 2 2 2 2 2 2 2 2 2 2 2 2 2 2 2 2 2 2 2
left_child=1 6 3 13 10 -6 14 9 18 -8 -5 16 -9 19 15 -1 -4 -18 -3 -2
right_child=2 8 11 4 5 -7 7 12 -10 -11 -12 -13 -14 -15 -16 -17 17 -19 -20 -21
leaf_value=-0.026059822008482378 0.026023703211552736 -0.0042166662148467073 0.031197645305208223 0.001907980275571694 0.025770236476612869 0.00028674573993576791 -0.005767122019294758 -0.029391265833960591 0.030391089014367118 0.016918325339260357 -0.018441582482750962 0.038187103555344139 -0.01428831155658954 0.034579996693889871 -0.031389460386350002 -0.0079006208164730772 0.0080727944048755128 0.022665528437626845 0.01256515140029027 0.0042169289349607286
leaf_weight=3613.4144823253155 853.11323902010918 1472.8631562590599 1733.8896622508764 2378.002117946744 2628.3601391613483 7095.4149787127972 3212.3778736889362 2634.4986085742712 1573.8106749951839 2287.99296669662 4668.2650064826012 2065.5570901334286 6665.6111647486687 1491.9237923026085 2873.3132016956806 2205.2074798494577 2151.3763487786055 3365.9320566505194 1623.9757656157017 860.61259667575359
leaf_count=18759 2461 6180 4697 9394 7773 28198 13767 13810 4235 7600 22225 4907 30941 3845 15504 9767 7761 10224 5621 3306
internal_value=3.83431e-07 -0.0103768 0.00997749 0.0032858 -0.000702739 0.007175 -0.0150801 -0.010303 0.0132797 0.00366936 -0.0115739 0.0243249 -0.0185666 0.0241514 -0.0232145 -0.0191776 0.0203762 0.0169754 0.00458368 0.0150726
internal_weight=57455.5 28163.1 29292.4 19975.7 16770 9723.78 23492.4 14800.5 4670.65 5500.37 7046.27 9316.76 9300.11 3205.65 8691.94 5818.62 7251.2 5517.31 3096.84 1713.73
internal_count=230975 126184 104791 77202 67590 35971 110148 66118 16036 21367 31619 27589 44751 9612 44030 28526 22682 17985 11801 5767
is_linear=0
shrinkage=0.03


Tree=8
num_leaves=21
num_cat=0
split_feature=0 1 2 1 2 0 1 1 2 4 4 1 1 4 1 2 6 1 2 7
split_gain=6267.53 4929.38 2001.65 1651.31 1409.29 1391.53 1143.31 940.072 2389.02 791.909 463.881 861 431.197 420.621 333.369 250.121 225.173 208.111 219.232 199.522
threshold=1.5015094513415541 759053.50000000012 938753.30000000016 3610047.5000000005 4219260.5000000009 3.1553718158746973 163786.00000000003 190232.50000000003 328143.90000000008 2332919.0952380956 170606.04761904766 55032.500000000007 356378.00000000006 568164.80952380958 1449188.5000000002 585174.00000000012 0.89266276214985074 663725.50000000012 249913.10000000001 46.484106063842781
decision_type=2 2 2 2 2 2 2 2 2 2 2 2 2 2 2 2 2 2 2 2
left_child=1 7 14 9 -5 6 16 10 12 -4 11 -1 -9 -10 15 -3 -2 18 -8 -12
right_child=5 2 3 4 -6 -7 17 8 13 -11 19 -13 -14 -15 -16 -17 -18 -19 -20 -21
leaf_value=-0.024433857534256823 0.011248988017655028 0.026988482927914958 -0.0018473285173904578 0.029555246929843664 0.0025660646731303946 0.033938088514353142 0.022112429983973676 0.0015033998079909622 -0.01105315436163252 -0.021261833708416646 -0.02222113282823077 -0.0054995735305883049 0.021310931544874869 -0.026822852711477024 0.036355571348593851 0.0076790568298330279 -0.009763263953608688 0.02176148986791521 0.0024753902567013182 -0.036850313257498324
leaf_weight=5590.1998210996389 596.3830910474062 1288.3650767952204 4864.4194899350405 2304.6833667159081 7122.6696583777666 3621.7550825178623 866.4674034267664 2567.7726924270391 2630.7615766823292 3093.3086730986834 1552.4874535799026 3524.0447000712156 1608.9120108783245 3612.6825945824385 1392.9558742493391 1136.1730533391237 1992.5577186495066 4936.0707433074713 1249.6092233359814 1825.8826315999031
leaf_count=28843 2172 3641 19993 6485 27639 9142 2686 10260 11926 14922 7790 15233 5081 18594 3454 4237 8836 15027 4816 10198
internal_value=4.8733e-07 -0.00543602 0.00498876 0.000669374 0.00916405 0.0180836 0.0121277 -0.0150827 -0.00842915 -0.00939409 -0.0206325 -0.0171129 0.00913351 -0.0201781 0.0246595 0.0179398 -0.00492292 0.0183872 0.0105161 -0.0301277
internal_weight=57378.2 44115.3 21202.6 17385.1 9427.35 13262.8 9641.09 22912.7 10420.1 7957.73 12492.6 9114.24 4176.68 6243.44 3817.49 2424.54 2588.94 7052.15 2116.08 3378.37
internal_count=230975 188296 80371 69039 34124 42679 33537 107925 45861 34915 62064 44076 15341 30520 11332 7878 11008 22529 7502 17988
is_linear=0
shrinkage=0.03


Tree=9
num_leaves=21
num_cat=0
split_feature=0 1 2 1 0 2 1 3 2 1 2 1 2 3 6 1 2 2 0 7
split_gain=5909.79 4671.89 1561.95 2087.61 1323.85 1318.38 1077.95 569.421 534.002 1255.54 646.003 336.237 248.121 232.973 211.9 200.36 196.59 192.416 159.736 154.031
threshold=1.5015094513415541 356378.00000000006 446350.90000000008 1116664.5000000002 3.1553718158746973 1310424.2000000002 163786.00000000003 1049933.9000000001 255435.90000000002 106302.50000000001 131636.20000000004 606999.50000000012 266624.40000000008 56726.05000000001 0.89266276214985074 1381704.0000000002 255435.90000000002 1777066.2000000002 4.7990175733073412 32.239910125732429
decision_type=2 2 2 2 2 2 2 2 2 2 2 2 2 2 2 2 2 2 2 2
left_child=1 8 11 7 6 -5 14 -4 9 13 -11 12 -3 -1 -2 16 -8 -17 -6 -10
right_child=4 2 3 5 18 -7 15 -9 19 10 -12 -13 -14 -15 -16 17 -18 -19 -20 -21
leaf_value=-0.016842234718923873 0.010909347500001549 0.023055666290674438 -0.0086466329756082413 0.02358264817858316 0.027397257575906522 0.0011973909903146356 0.023330243922449218 -0.02783107085502096 -0.012513511763746659 0.011454815566895522 -0.011678962685566823 0.029991104859011315 0.0016302393480426892 -0.026780940779164254 -0.009473430824508933 0.033650920137631324 0.007588943914753443 0.018415323148330269 0.04009811562712217 -0.02961651032745849
leaf_weight=4627.0117357820272 596.49984069168568 936.06587937474251 3786.9887861460447 2827.1761355996132 1986.2255860716105 14575.125195086002 1038.8489878773689 2202.1628431528807 550.01633717119694 1906.7940642684698 2524.9743627756834 1767.1336648315191 1012.7941715568304 3921.9198085814714 1991.9226221740246 1033.0457734018564 2283.7440988123417 2685.3693520128727 1616.5435406863689 3425.5841599404812
leaf_count=22597 2172 2870 16669 8598 5490 57456 3139 11465 2573 6811 11454 4765 4079 20701 8836 2668 8265 8457 3652 18258
internal_value=5.92164e-07 -0.00527925 0.00244664 -0.000423609 0.0175827 0.0048341 0.0117785 -0.0157006 -0.0176303 -0.014684 -0.00172552 0.0205143 0.0119212 -0.0214017 -0.00477624 0.0178643 0.0125107 0.0226481 0.0330961 -0.0272503
internal_weight=57295.9 44063.7 27107.4 23391.5 13232.2 17402.3 9629.43 5989.15 16956.3 12980.7 4431.77 3715.99 1948.86 8548.93 2588.42 7041.01 3322.59 3718.42 3602.77 3975.6
internal_count=230975 188296 105902 94188 42679 66054 33537 28134 82394 61563 18265 11714 6949 43298 11008 22529 11404 11125 9142 20831
is_linear=0
shrinkage=0.03


Tree=10
num_leaves=21
num_cat=0
split_feature=1 0 0 4 1 2 1 2 0 0 2 2 1 3 1 3 1 1 1 7
split_gain=5600.69 2923.39 2741.91 1556.75 1284.66 1193.45 872.724 1710.87 681.441 676.94 588.682 566.348 460.562 353.405 355.65 298.966 572.185 272.129 248.028 176.653
threshold=663725.50000000012 1.7688583142913441 1.0632268289214932 837752.26190476201 2812017.5000000005 3560150.3000000003 88450.000000000015 153618.90000000005 2.2802355580746507 4.3518157793850056 597956.00000000012 1540274.3000000003 199991.00000000003 749320.45000000007 5331623.0000000009 56726.05000000001 23965.500000000004 1064964.5000000002 88450.000000000015 40.826715469360359
decision_type=2 2 2 2 2 2 2 2 2 2 2 2 2 2 2 2 2 2 2 2
left_child=1 6 3 17 11 -6 15 12 13 18 -9 -5 -8 -4 -15 16 -1 -2 -3 -17
right_child=2 9 8 4 5 -7 7 10 -10 -11 -12 -13 -14 14 -16 19 -18 -19 -20 -21
leaf_value=-0.024975929763152049 0.012674457678018463 -0.0030882212317232165 0.029132704739729523 -0.0029578054627499668 0.024500138282404771 -0.0013464864192669723 0.00035184047950458965 -0.011368618012762144 0.031382918140811754 0.036114384229557567 -0.027400138676778391 -0.021160507377057842 0.022541316033049125 0.0064427583919598108 0.020251100902482961 -0.018221609161118847 -0.0040429653568598827 0.031216495905147957 0.01272718262033619 -0.032268728825859253
leaf_weight=2933.2914461344481 1427.2255815714598 1443.9270484149456 1441.7852043658495 2876.6507528722286 2167.605008944869 6225.8518194109201 2333.8821168988943 8367.7927761673927 3548.7215755432844 864.38393898308277 2735.316049695015 3306.638242200017 1316.8562341630459 3661.9495390355587 3099.7432703226805 1174.8165134191513 1960.8095465600491 1422.237250328064 2336.6658815443516 2564.6584116667509
leaf_count=15415 4906 5985 3950 11963 6420 25117 9504 38242 9236 2067 14343 16237 4029 13482 9695 5828 8556 3785 7984 14231
internal_value=6.78798e-07 -0.00957575 0.00920098 0.00164875 -0.00231568 0.00532839 -0.0138933 -0.00946014 0.0203995 0.012163 -0.0153181 -0.0126921 0.0083558 0.0156482 0.0127729 -0.021469 -0.0165892 0.0219292 0.00668678 -0.0278556
internal_weight=57210.8 28032.4 29178.4 17426.2 14576.7 8393.46 23387.4 14753.8 11752.2 4644.98 11103.1 6183.29 3650.74 8203.48 6761.69 8633.58 4894.1 2849.46 3780.59 3739.47
internal_count=230975 126184 104791 68428 59737 31537 110148 66118 36363 16036 52585 28200 13533 27127 23177 44030 23971 8691 13969 20059
is_linear=0
shrinkage=0.03


Tree=11
num_leaves=21
num_cat=0
split_feature=1 0 0 2 1 2 0 0 4 4 1 1 0 4 2 1 1 2 6 7
split_gain=5329.88 3092.61 2361.69 1380.62 1476.42 1187.15 768.172 705.925 569.83 434.327 758.538 419.04 390.887 357.477 281.961 413.248 229.785 169.818 125.685 118.675
threshold=407868.50000000006 1.0847525245655578 2.223378963663281 484508.90000000008 1559016.5000000002 1822212.0000000002 2.4600417375091559 1.0292024399015667 1031443.7380952382 404402.85714285722 190232.50000000003 45444.500000000007 4.3518157793850056 89834.380952380961 446350.90000000008 1413138.0000000002 928808.00000000012 266624.40000000008 0.73308887081193763 34.424028396606452
decision_type=2 2 2 2 2 2 2 2 2 2 2 2 2 2 2 2 2 2 2 2
left_child=2 3 7 16 8 -6 14 9 -5 10 -1 18 -4 -13 -3 -16 17 -2 -9 -11
right_child=1 6 12 4 5 -7 -8 11 -10 19 -12 13 -14 -15 15 -17 -18 -19 -20 -21
leaf_value=-0.020237580370764768 0.025398697322079781 0.027173840281456908 0.0089566896755592026 -0.0047796836102499286 0.02304182266166635 -0.0010642718411132451 0.030902690133118985 0.0036200994475655323 -0.02302824521688971 -0.015060493787824345 -0.0012924929876801346 0.012726908084380045 0.035213522876175143 -0.0064081387586936728 0.0016293998339988948 0.016625225253948835 0.033751168185928881 0.0074020534435275823 -0.019972482443797433 -0.033581134295680749
leaf_weight=8674.8453199714422 788.88935734331608 1366.3908105194569 1744.9119809865952 2883.2494645118713 2272.4672064185143 9630.8537022769451 3537.8872767239809 225.71174620091915 3305.725000962615 373.04675781726837 2436.2512630075216 1135.6881415247917 721.18140959739685 3882.8269141465425 2289.9914349615574 5954.3626395016909 794.9732274711132 1174.3610186874866 2039.7896913439035 1883.6492277234793
leaf_count=43757 2297 3850 6223 12271 6845 38819 9214 935 16731 1810 10087 4062 1740 16900 8959 19315 1983 4390 10298 10489
internal_value=7.75527e-07 0.00755757 -0.0111129 0.000372489 -0.00264168 0.00353783 0.0189513 -0.0144264 -0.0145268 -0.0185206 -0.0160836 -0.00691246 0.0166352 -0.00207788 0.0145518 0.0124599 0.0201437 0.0146336 -0.017622 -0.0305196
internal_weight=57117.1 33999.2 23117.9 20850.5 18092.3 11903.3 13148.6 20651.8 6188.97 13367.8 11111.1 7284.02 2466.09 5018.52 9610.74 8244.35 2758.22 1963.25 2265.5 2256.7
internal_count=230975 124674 106301 83336 74666 45664 41338 98338 29002 66143 53844 32195 7963 20962 32124 28274 8670 6687 11233 12299
is_linear=0
shrinkage=0.03


Tree=12
num_leaves=21
num_cat=0
split_feature=1 0 0 4 1 2 0 0 2 3 1 1 2 0 2 1 1 2 6 0
split_gain=5038.07 3136.82 2077.43 1232.37 1519.29 1213.92 800.72 677.906 571.7 436.689 728.748 364.524 302.106 288.857 245.31 466.172 239.811 196.998 122.819 113.077
threshold=325607.00000000006 1.0847525245655578 2.4600417375091559 445987.54761904763 1449188.5000000002 1502860.4000000001 2.533823787124923 1.0292024399015667 724563.20000000007 242225.75000000003 100110.50000000001 37043.500000000007 74290.10000000002 4.3518157793850056 395396.80000000005 949769.50000000012 663725.50000000012 266624.40000000008 0.72858889276982197 3.726220708834072
decision_type=2 2 2 2 2 2 2 2 2 2 2 2 2 2 2 2 2 2 2 2
left_child=2 3 7 16 8 -6 14 9 -5 10 -1 18 -13 -4 -3 -16 17 -2 -9 -8
right_child=1 6 13 4 5 -7 19 11 -10 -11 -12 12 -14 -15 15 -17 -18 -19 -20 -21
leaf_value=-0.021598657786780447 0.021301414117953929 0.024736965763401814 0.0098734198236445289 -0.0030358632727142199 0.025152446313188883 -0.00071706449873454781 0.024947408577152903 0.0045993843119442115 -0.020900127175975312 -0.028539965178611747 -0.0033153380427632332 0.0096345426336287773 -0.0072363206494493624 0.034669658127627859 -0.0017136109753762125 0.015339319319307602 0.028930950828554708 0.0014392646575979789 -0.020204881712432336 0.035707510729490161
leaf_weight=5946.5802156478167 884.52032522857189 1560.4685932397842 1197.4664779007435 2569.7049875408411 1934.8191388547421 10448.496542528272 1756.2776233553886 198.73708695173264 4327.3216017186642 3168.6303320527077 2928.1939093321562 1292.474369391799 3661.5154736340046 653.59981639683247 1815.9538459479809 7020.2003398239613 1112.4201073199511 913.62732768058777 1871.7295352369547 1759.6802175045013
leaf_count=30799 2757 4558 4212 10805 5631 41983 4977 814 21599 17130 12324 4813 16079 1584 7374 23076 3017 3728 9506 4209
internal_value=8.77773e-07 0.00678863 -0.0117139 -0.000213141 -0.00295999 0.00332489 0.0179566 -0.0146595 -0.0142442 -0.0189796 -0.0155662 -0.00725288 -0.00283479 0.0186288 0.0137713 0.0118347 0.0179827 0.0112096 -0.017824 0.0303327
internal_weight=57022.4 36103.5 20918.9 22190.9 19280.3 12383.3 13912.6 19067.9 6897.03 12043.4 8874.77 7024.46 4953.99 1851.07 10396.6 8836.15 2910.57 1798.15 2070.47 3515.96
internal_count=230975 133714 97261 89520 80018 47614 44194 91465 32404 60253 43123 31212 20892 5796 35008 30450 9502 6485 10320 9186
is_linear=0
shrinkage=0.03


Tree=13
num_leaves=21
num_cat=0
split_feature=1 0 0 4 1 4 1 2 1 0 0 3 4 2 1 1 4 1 3 1
split_gain=4789.85 2621.69 2160.9 1405.28 1182.58 1041.27 824.048 1690.41 703.852 659.683 566.326 475.438 436.829 430.067 422.023 320.777 319.154 529.455 288.164 236.625
threshold=759053.50000000012 1.7948743335446828 0.97744475629993899 1151696.0000000002 3867043.5000000005 5759308.0000000009 106302.50000000001 249913.10000000001 231506.50000000003 2.2802355580746507 4.3518157793850056 2726651.1500000004 568164.80952380958 899606.00000000012 3610047.5000000005 1449188.5000000002 98589.92857142858 43696.500000000007 644109.40000000002 88450.000000000015
decision_type=2 2 2 2 2 2 2 2 2 2 2 2 2 2 2 2 2 2 2 2
left_child=1 6 3 15 11 -6 16 8 -8 13 19 -5 -9 -4 -15 18 17 -1 -2 -3
right_child=2 10 9 4 5 -7 7 12 -10 -11 -12 -13 -14 14 -16 -17 -18 -19 -20 -21
leaf_value=-0.020950866382990038 0.023032127393581139 -0.0028450926766779767 0.027324897434676729 -0.0074242658568256133 0.02310215888797728 -0.0032238990466106872 -0.004078339841595874 -0.010052775628452257 0.01712772777232275 0.029454033923147528 0.033734999193026936 -0.026004978275089827 -0.023253665139533634 0.0023662017918500955 0.016715499972224997 0.030441959813106611 -0.027425574136726336 -0.002208501842977161 0.00021345575831114376 0.012654694733801318
leaf_weight=4748.3456111699343 954.68824519217014 1389.5163084864616 1757.9344960153103 3653.6312760561705 2010.9725847691298 4127.5252639204264 3425.7261378914118 4954.0690830051899 2392.4035740941763 3348.2376054823399 879.30089873075485 1875.6768319159746 4142.5044408589602 3113.5550756603479 4526.3646111488342 1263.8312592506409 2969.9403413981199 1899.0217264890671 1041.4104130417109 2448.4043161571026
leaf_count=24675 2825 5754 4901 15979 6153 16948 14572 22615 7867 8831 2155 9470 21271 12002 14658 3364 16259 8174 4204 8298
internal_value=9.69849e-07 -0.00846381 0.00894763 0.00120132 -0.00366405 0.00540052 -0.0124023 -0.00798711 0.00464155 0.0180198 0.0120185 -0.0137273 -0.0160644 0.0139461 0.0108676 0.0186152 -0.0192495 -0.0155965 0.0111271 0.00704301
internal_weight=56923.1 29249.2 27673.8 14927.7 11667.8 6138.5 24532 14914.7 5818.13 12746.1 4717.22 5529.31 9096.57 9397.85 7639.92 3259.93 9617.31 6647.37 1996.1 3837.92
internal_count=230975 131640 99335 58943 48550 23101 115433 66325 22439 40392 16207 25449 43886 31561 26660 10393 49108 32849 7029 14052
is_linear=0
shrinkage=0.03


Tree=14
num_leaves=21
num_cat=0
split_feature=1 0 0 2 1 2 0 0 4 1 4 1 2 2 1 0 1 6 2 7
split_gain=4550.26 2501.15 2116.89 1252.47 1299.98 1195.5 712.199 632.368 599.941 424.699 399.625 805.965 381.659 276.385 383.487 275.002 226.952 156.771 151.19 139.562
threshold=464367.50000000006 1.0847525245655578 2.396276145141119 560370.10000000021 2234456.0000000005 2497353.6000000006 1.0163240508700768 2.6143805283147086 1346440.7857142859 65792.500000000015 404402.85714285722 190232.50000000003 114547.50000000001 694143.80000000016 1520873.5000000002 4.3518157793850056 928808.00000000012 0.73308887081193763 362604.80000000005 34.424028396606452
decision_type=2 2 2 2 2 2 2 2 2 2 2 2 2 2 2 2 2 2 2 2
left_child=2 3 6 16 8 -6 10 13 -5 17 11 -1 -11 -3 -15 -4 18 -8 -2 -12
right_child=1 7 15 4 5 -7 9 -9 -10 12 19 -13 -14 14 -16 -17 -18 -19 -20 -21
leaf_value=-0.018806261636063273 0.020952132396204345 0.023760750947790479 0.010558877077162366 -0.0034482135084331904 0.025216966341415934 -0.00056174851392044162 0.0052449385238296882 0.029740063973456122 -0.020680967462734037 0.012995375173765632 -0.011811683839264805 7.065211589348715e-05 -0.0053752963134832271 -0.0012133741033387977 0.015020435100545499 0.032890602615210672 0.030839672102188284 -0.016833676570056858 0.003770699657331452 -0.030188816680414135
leaf_weight=8504.2740151882172 997.85359954833984 2056.2998032271862 1501.6334399282932 3689.4715880453587 2042.0751255452633 7816.3413004279137 323.87579038739204 3037.8721866607666 3584.8378647863865 1402.4796634614468 445.51650170981884 2676.2102125585079 3710.9196332544088 1693.5453023314476 5777.3432015329599 741.27874277532101 984.07054363191128 2722.5997320562601 856.66326862573624 2251.6020532995462
leaf_count=43233 3051 6020 5216 15578 5904 31298 1322 7935 17936 4943 2140 10962 16015 6788 18881 1836 2542 13557 3332 12486
internal_value=1.08075e-06 0.00733514 -0.00982676 0.000737554 -0.00232046 0.00477806 -0.0126527 0.0178216 -0.0119407 -0.00561947 -0.0167882 -0.0142878 -0.000336673 0.0140212 0.0113405 0.0179395 0.0191947 -0.0144865 0.0130155 -0.0271532
internal_weight=56816.8 32536.4 24280.4 19971.3 17132.7 9858.42 22037.5 12565.1 7274.31 8159.87 13877.6 11180.5 5113.4 9527.19 7470.89 2242.91 2838.59 3046.48 1854.52 2697.12
internal_count=230975 119265 111710 79641 70716 37202 104658 39624 33514 35837 68821 54195 20958 31689 25669 7052 8925 14879 6383 14626
is_linear=0
shrinkage=0.03


Tree=15
num_leaves=21
num_cat=0
split_feature=0 1 2 1 2 0 1 4 4 1 2 1 4 2 1 2 2 6 7 0
split_gain=4317.53 3426.99 1395.09 1544.73 1223.83 1018.75 803.921 608.961 522.79 1134.22 648.442 389.443 383.671 267.298 173.894 183.867 173.666 172.812 155.67 112.464
threshold=1.5015094513415541 518574.00000000006 724563.20000000007 2992521.5000000005 3678456.3000000003 3.3149181459235182 129471.00000000001 2332919.0952380956 534277.85714285728 205024.00000000003 219091.00000000003 928808.00000000012 170606.04761904766 362604.80000000005 1381704.0000000002 1650934.8000000003 190634.40000000005 0.91505851842000274 32.239910125732429 4.7990175733073412
decision_type=2 2 2 2 2 2 2 2 2 2 2 2 2 2 2 2 2 2 2 2
left_child=1 8 11 7 -5 6 17 -4 9 12 -11 13 -1 -3 16 -16 -8 -2 -10 -7
right_child=5 2 3 4 -6 19 14 -9 18 10 -12 -13 -14 -15 15 -17 -18 -19 -20 -21
leaf_value=-0.013486350151802523 0.0084482947213796664 0.022851916688436214 -0.0046291585416188986 0.024965744111190815 0.0015164982586318484 0.024466055503109034 0.021654675886767862 -0.022048504437119015 -0.0081335716731337354 0.014936652756160112 -0.0080629457839154293 0.028690748425474758 -0.02543103944169714 0.0027093778873415347 0.030943753780630287 0.015817568072439264 0.0067998739278136069 -0.0099750512136998707 -0.029419015870667378 0.03577424178860425
leaf_weight=9115.3559747189283 627.55760204792023 975.85211835801601 6618.4372629821301 2686.1959211826324 7877.1263945698738 1626.8263004422188 950.41033321619034 2484.1503963321447 359.66234028339386 1778.2114894092083 2906.5423970371485 1885.7457208186388 3295.0759347081184 1511.1029585301876 973.97481967508793 2809.5659559071064 2780.5934161841869 1698.2277676463127 2205.3602170199156 1541.6049460321665
leaf_count=44548 2369 2869 28315 7795 30729 4577 2889 12360 1678 6010 13146 5086 17615 5940 2537 8922 10063 7670 12205 3652
internal_value=1.19932e-06 -0.0045153 0.0030824 -0.000325491 0.00747952 0.0151729 0.0104091 -0.009383 -0.013805 -0.0119101 0.000667107 0.0184091 -0.0166578 0.0106131 0.0151796 0.0197114 0.0105839 -0.00500395 -0.0264344 0.0299681
internal_weight=56707.6 43698.8 24038.6 19665.9 10563.3 13008.8 9840.33 9102.59 19660.2 17095.2 4684.75 4372.7 12410.4 2486.96 7514.54 3783.54 3731 2325.79 2565.02 3168.43
internal_count=230975 188296 93094 79199 38524 42679 34450 40675 95202 81319 19156 13895 62163 8809 24411 11459 12952 10039 13883 8229
is_linear=0
shrinkage=0.03


Tree=16
num_leaves=21
num_cat=0
split_feature=1 0 0 3 1 4 1 2 2 0 3 0 2 1 3 1 1 1 1 7
split_gain=4098.12 2226.76 1874.62 1244.43 942.73 1009.86 723.094 1502.51 628.827 574.582 545.407 525.06 364.247 394.121 291.69 574.621 258.365 209.687 208.596 182.504
threshold=759053.50000000012 1.7192230910747399 0.97744475629993899 963214.25000000012 3867043.5000000005 4576440.2142857155 88450.000000000015 131636.20000000004 585174.00000000012 2.0804698095306944 2726651.1500000004 4.3518157793850056 1026919.3000000002 3610047.5000000005 50665.900000000001 23965.500000000004 190232.50000000003 88450.000000000015 1449188.5000000002 40.826715469360359
decision_type=2 2 2 2 2 2 2 2 2 2 2 2 2 2 2 2 2 2 2 2
left_child=1 6 3 18 10 -6 14 16 -9 12 -5 17 -4 -14 15 -1 -8 -3 -2 -16
right_child=2 11 9 4 5 -7 7 8 -10 -11 -12 -13 13 -15 19 -17 -18 -19 -20 -21
leaf_value=-0.021852590875711203 0.013537243044744652 -0.0029490210029698215 0.024163882384813182 -0.0053186384844469718 0.026023030803428139 -0.0017688096175084889 0.0045295428274303657 -0.0082492084912854213 -0.023288414376162993 0.026557953599835493 -0.024784890242592769 0.031633507363594209 0.0004349811801701972 0.015112445623560672 -0.015241379608335671 0.00053067886278238062 0.022902398775418345 0.010937411143206149 0.031215112045531745 -0.029018974969848999
leaf_weight=2747.8026134371758 1665.6871689856052 1543.0973006188869 1920.6268926858902 4218.3187656104565 1580.6193794757128 4604.8751742094755 1794.7098779380322 9267.4458802938461 3427.686732083559 3795.3777331858873 1869.4725248515606 855.51663148403168 2696.1809676140547 4229.3629781603813 1268.1067459136248 1653.3087609708309 1117.9353752881289 2675.5256875306368 939.6287706643343 2724.1581105589867
leaf_count=14699 5628 6452 5565 18192 4575 18650 7129 41860 17926 10369 9470 2155 10603 13855 6369 7140 3347 9208 2428 15355
internal_value=1.36232e-06 -0.00785256 0.0082991 0.00108185 -0.00291552 0.00533302 -0.0116699 -0.00785133 -0.0123098 0.0167935 -0.0112964 0.0102038 0.0126042 0.00939837 -0.0187707 -0.0134442 0.0115814 0.005858 0.0199129 -0.0246426
internal_weight=56595.4 29075.3 27520.2 14878.6 12273.3 6185.49 24001.2 15607.8 12695.1 12641.5 6087.79 5074.14 8846.17 6925.54 8393.38 4401.11 2912.65 4218.62 2605.32 3992.26
internal_count=230975 131640 99335 58943 50887 23225 113825 70262 59786 40392 27662 17815 30023 24458 43563 21839 10476 15660 8056 21724
is_linear=0
shrinkage=0.03


Tree=17
num_leaves=21
num_cat=0
split_feature=1 0 0 4 1 2 0 0 2 3 1 6 0 2 1 1 1 1 3 6
split_gain=3921.78 2368.57 1643.49 1053.43 1166.53 968.952 625.716 521.378 482.427 400.102 677.516 300.461 293.199 247.012 373.549 216.841 147.923 126.082 113.779 87.426
threshold=356378.00000000006 1.0847525245655578 2.223378963663281 445987.54761904763 1091308.0000000002 1372136.5000000002 3.1553718158746973 1.0292024399015667 740221.40000000002 242225.75000000003 140436.50000000003 0.86179883155615489 4.3518157793850056 446350.90000000008 1413138.0000000002 38703.500000000007 907832.50000000012 220095.50000000003 269222.85000000003 0.94104040987464177
decision_type=2 2 2 2 2 2 2 2 2 2 2 2 2 2 2 2 2 2 2 2
left_child=2 3 7 16 8 -6 13 9 -5 10 -1 -9 19 -3 -15 -13 18 -11 -2 -4
right_child=1 6 12 4 5 -7 -8 11 -10 17 -12 15 -14 14 -16 -17 -18 -19 -20 -21
leaf_value=-0.017662170885810433 0.02161668458544877 0.023330045012725578 0.017581492091556107 -0.0042783706984976105 0.019000036434784803 -0.001632285483623807 0.030525750686012633 0.0035598445588219839 -0.023048107537855887 -0.03107226054447353 0.0021872769919295456 -0.019583521361852509 0.030981808945211149 0.0017342625284045153 0.015023386931110473 -0.0059745175261162308 0.030357978739571915 -0.019679821743186669 0.0070075127909426322 0.0025995072777346708
leaf_weight=6908.5970961004496 901.93182167410851 1812.9926144778728 505.24669152498245 2193.7127713263035 2494.9014105796814 11450.73090608418 2254.9038901478052 1983.3971079438925 2812.4239829480648 1692.2388967722654 1994.3955634087324 1543.7800127267838 649.4907094836235 2664.5859000980854 6666.5956957191229 3319.5459607243538 653.92352782189846 1808.8714839816093 1025.1153760999441 1144.8659754395485
leaf_count=35586 2727 5298 1618 9466 7931 46738 5780 8147 14617 9668 7963 8058 1652 10366 21573 14491 1696 9372 3893 4335
internal_value=1.44974e-06 0.00621049 -0.010063 4.81996e-05 -0.00240053 0.00205888 0.0161135 -0.0129264 -0.0148231 -0.0165944 -0.0132156 -0.00628107 0.0139074 0.0131973 0.0112286 -0.0102945 0.0180289 -0.0251863 0.0138452 0.00718683
internal_weight=56482.2 34931.8 21550.4 21532.7 18951.8 13945.6 13399.1 19250.8 5006.14 12404.1 8902.99 6846.72 2299.6 11144.2 9331.18 4863.33 2580.97 3501.11 1927.05 1650.11
internal_count=230975 130085 100890 87068 78752 54669 43017 93285 24083 62589 43549 30696 7605 37237 31939 22549 8316 19040 6620 5953
is_linear=0
shrinkage=0.03


Tree=18
num_leaves=21
num_cat=0
split_feature=1 0 0 2 1 2 2 0 0 4 1 6 0 1 2 1 7 1 2 7
split_gain=3701.73 2299.29 1509.17 1054.81 1205.25 1161.5 661.606 534.607 500.71 400.903 626.006 284.612 220.8 208.95 162.108 275.782 129.48 125.427 91.4357 86.3746
threshold=325607.00000000006 1.2507214297205473 2.4600417375091559 342074.70000000007 1559016.5000000002 2013390.6000000003 1049604.5000000002 1.0228288564416934 3.1553718158746973 238984.90476190479 83197.000000000015 0.86179883155615489 4.7990175733073412 38703.500000000007 403026.3000000001 2063473.5000000002 35.204113006591804 518574.00000000006 219091.00000000003 36.685503005981452
decision_type=2 2 2 2 2 2 2 2 2 2 2 2 2 2 2 2 2 2 2 2
left_child=2 3 7 17 6 -6 -5 9 14 10 -1 19 -4 -13 -3 -16 -11 18 -2 -9
right_child=1 8 12 4 5 -7 -8 11 -10 16 -12 13 -14 -15 15 -17 -18 -19 -20 -21
leaf_value=-0.019439974123610357 0.020931278180700553 0.023314207715879463 0.0094874420473233141 -0.0035113394019130944 0.020371081737979697 -0.00049799226431713399 -0.020517414570269003 0.012572794404346756 0.029763506395268449 -0.012742886293879711 -0.0025582879891744527 -0.018636865570098447 0.032769990304575683 -0.0056301459517749857 0.0050708527155647548 0.016946822073857178 -0.027953563241106778 0.026061105935890668 0.0043434021679523817 -0.00078851941616343488
leaf_weight=5186.0484306514263 587.56675317883492 1404.5374175608158 1299.3207525014877 5415.915219143033 3120.8212406635284 10395.631330981851 3321.6282071918249 639.60491026937962 2280.7019829154015 614.52642925083637 3194.764988258481 1652.2840762138367 510.67178326845169 3396.9532502144575 2936.3584286123514 4392.1509937942028 2792.1946030557156 1255.6978391110897 609.11148947477341 1364.1592738330364
leaf_count=27541 1810 4090 4529 23234 9607 41640 16960 2394 5909 3026 13694 8579 1267 14781 10828 13745 15623 3480 2411 5827
internal_value=1.51131e-06 0.0058468 -0.0101093 0.000764913 -0.00129284 0.00432048 -0.0099763 -0.0126231 0.0172466 -0.0165321 -0.0130047 -0.00609 0.0160564 -0.00988639 0.0139778 0.0121884 -0.0252098 0.0194379 0.012488 0.00347643
internal_weight=56370.6 35720.1 20650.5 24706.4 22254 13516.5 8737.54 18840.5 11013.7 11787.5 8380.81 7053 1809.99 5049.24 8733.05 7328.51 3406.72 2452.38 1196.68 2003.76
internal_count=230975 133714 97261 99142 91441 51247 40194 91465 34572 59884 41235 31581 5796 23360 28663 24573 18649 7701 4221 8221
is_linear=0
shrinkage=0.03


Tree=19
num_leaves=21
num_cat=0
split_feature=1 0 0 4 1 2 0 0 4 1 2 2 4 4 1 1 6 2 1 7
split_gain=3514.49 1811.52 1747.07 1062.41 959.091 868.658 553.166 544.591 520.414 1182.91 494.686 371.451 361.09 322.195 376.983 233.961 207.584 185.767 180.748 158.408
threshold=594007.00000000012 0.98245542648940376 1.5015094513415541 837752.26190476201 2494555.5000000005 3239136.3000000003 2.2802355580746507 3.1553718158746973 534277.85714285728 231506.50000000003 266624.40000000008 1613272.3000000003 170606.04761904766 820481.21428571444 4942447.5000000009 971306.00000000012 0.91647054914751191 474979.20000000007 109472.50000000001 28.973354339599613
decision_type=2 2 2 2 2 2 2 2 2 2 2 2 2 2 2 2 2 2 2 2
left_child=2 3 8 15 11 -6 13 16 9 12 -11 -5 -1 -3 -15 17 -4 -2 -18 -10
right_child=1 6 7 4 5 -7 -8 -9 19 10 -12 -13 -14 14 -16 -17 18 -19 -20 -21
leaf_value=-0.011442133368936243 0.019271414831565217 0.022185835453889066 0.010835549715539274 -0.005713755743434649 0.02035597534323853 -0.0023554294771924627 0.025516960206237314 0.022700952443382466 -0.0028988594679392431 0.013907575639137708 -0.0061872743301667546 -0.021510669191300607 -0.022479680463452955 0.002671529304512736 0.015766118618607213 0.025384193530618871 -0.010505598763506981 -0.0022433617341417597 0.0040286998804503361 -0.0255697346244694
leaf_weight=9233.3068282008171 709.15808573365211 2062.949244722724 1415.1204814463854 2907.5710180401802 2025.0282364785671 6025.6861917823553 3475.6131389290094 1408.3230867385864 307.55968700349331 2095.3050953745842 2327.0822084099054 2484.346193999052 3751.3273170739412 4174.7876661717892 3761.5399016588926 1445.0214750915766 1499.9033562391996 736.10746784508228 1582.5692435503006 2827.2093925178051
leaf_count=45246 2180 6115 5079 12709 6213 24578 9576 4056 1385 7156 10469 12694 20010 15916 12135 4086 6920 3066 5914 15472
internal_value=1.58106e-06 0.00706474 -0.00795893 0.000347218 -0.00320062 0.00335726 0.015207 0.00642105 -0.0120933 -0.0100669 0.00333357 -0.0129922 -0.0146309 0.0116235 0.0088779 0.0168481 0.00132336 0.00831344 -0.00304356 -0.0233454
internal_weight=56255.5 29807.8 26447.7 16332.9 13442.6 8050.71 13474.9 5905.92 20541.8 17407 4422.39 5391.92 12984.6 9999.28 7936.33 2890.29 4497.59 1445.27 3082.47 3134.77
internal_count=230975 109268 121707 65526 56194 30791 43742 21969 99738 82881 17625 25403 65256 34166 28051 9332 17913 5246 12834 16857
is_linear=0
shrinkage=0.03


Tree=20
num_leaves=21
num_cat=0
split_feature=1 0 2 1 2 1 4 1 2 1 0 2 7 1 1 1 1 2 7 2
split_gain=3333.2 1813.52 1641.51 1593.6 1201.68 1229.95 714.009 648.097 563.5 1332.49 527.39 459.145 390.276 360.908 344.527 288.467 258.274 203.588 178.774 174.655
threshold=759053.50000000012 1.5015094513415541 1003998.3000000002 3998123.0000000005 5094422.2000000011 12980432.500000002 2534158.5000000005 1722029.0000000002 585174.00000000012 297244.50000000006 4.3518157793850056 321348.20000000007 44.279626846313484 1198347.5000000002 51094.500000000007 6775689.5000000009 88450.000000000015 651083.60000000021 28.973354339599613 128130.20000000001
decision_type=2 2 2 2 2 2 2 2 2 2 2 2 2 2 2 2 2 2 2 2
left_child=1 8 13 6 15 -6 7 -4 9 14 16 -11 -8 17 -1 -5 -3 -2 -10 -18
right_child=2 10 3 4 5 -7 12 -9 18 11 -12 -13 -14 -15 -16 -17 19 -19 -20 -21
leaf_value=-0.019563803526721574 0.020411150429260692 -0.0047659720358838586 -0.0080358969158455754 0.018823221078340811 -0.0074566957046655049 0.015627471073181794 -0.0034328539156925019 0.011413048313479531 -0.0015217470819570179 0.015232907954055333 0.02932749489234994 -0.0041424554694358649 -0.023769791942141662 0.028735214318312826 -0.01003554634405354 0.036618826361513049 0.020336812378718126 0.0036135832318690084 -0.025030739762887205 0.0047863131230726549
leaf_weight=5379.4457769393921 1629.6423184126616 2076.6571089029312 3350.3477267920971 1953.3047374635935 3829.0635106563568 4540.6607861816883 1384.6763474792242 2856.954225897789 323.26111102104187 2144.8125161826611 824.4342850446701 2261.3085178285837 2196.3688532710075 3074.8904098719358 9354.4614732414484 1412.7457528114319 858.67258094251156 1079.5800265669823 2928.4061615020037 2675.2597661912441
leaf_count=28987 4876 9026 14966 6063 16017 14991 5793 9871 1437 7188 2155 9911 10913 8227 44458 3452 2647 4166 15944 9887
internal_value=1.66245e-06 -0.00711349 0.00751246 0.00369959 0.0111546 0.0050667 -0.00523859 0.000915616 -0.0111473 -0.00918573 0.00692283 0.00528909 -0.0159061 0.0217011 -0.0135144 0.0262921 0.00363064 0.0137176 -0.0226936 0.00856476
internal_weight=56135 28826.7 27308.2 21524.1 11735.8 8369.72 9788.35 6207.3 22391.7 19140 6435.02 4406.12 3581.05 5784.11 14733.9 3366.05 5610.59 2709.22 3251.67 3533.93
internal_count=230975 131640 99335 82066 40523 31008 41543 24837 107925 90544 23715 17099 16706 17269 73445 9515 21560 9042 17381 12534
is_linear=0
shrinkage=0.03


Tree=21
num_leaves=21
num_cat=0
split_feature=0 1 3 1 4 0 2 2 1 2 1 3 1 7 2 4 0 6 1 2
split_gain=3193.3 2678.37 1068.57 1281.63 981.45 571.762 471.427 457.738 847.9 520.679 379.672 237.372 166.272 142.696 122.08 105.17 103.348 102.851 82.0331 118.006
threshold=1.7948743335446828 325607.00000000006 389076.40000000008 971306.00000000012 1346440.7857142859 3.3149181459235182 918640.80000000016 238829.90000000005 106302.50000000001 114547.50000000001 133051.00000000003 56726.05000000001 594007.00000000012 37.164033889770515 266624.40000000008 277670.69047619053 4.7990175733073412 0.89266276214985074 949769.50000000012 190634.40000000005
decision_type=2 2 2 2 2 2 2 2 2 2 2 2 2 2 2 2 2 2 2 2
left_child=1 7 12 6 -5 10 -4 8 11 -10 17 -1 14 -9 -3 -15 -7 -2 19 -12
right_child=5 2 3 4 -6 16 -8 13 9 -11 18 -13 -14 15 -16 -17 -18 -19 -20 -21
leaf_value=-0.010773706363707546 0.013513985170860774 0.018442523755326394 -0.0056881627926590617 0.017801362589338152 0.00072004342683370994 0.021358576206857362 -0.023004705820237864 -0.010758151664635235 0.014566317249001225 -0.0070842538834185731 0.021265721270594066 -0.020605465179848039 0.025487106967095691 -0.015929984066849593 0.0032758507652323309 -0.028054296595392436 0.032448907274750437 -0.0062390995800493017 0.018190423883651084 0.0054265447775169624
leaf_weight=4928.1971251219511 295.52131888270378 1163.2444044947624 4155.8342068791389 3736.1044733524323 15959.323047727346 1571.1539680361748 2145.3547948002815 865.55845701694489 1606.031393840909 2648.0404998809099 609.48896230757236 4007.1194635480642 1491.4994240254164 908.28114306926727 810.4127271771431 2212.1207769811153 1457.9998692721128 1202.8729937970638 2858.7584957033396 1386.0296820402145
leaf_count=24579 1021 3659 18399 11936 63118 4577 11340 4205 5585 11865 1827 21737 4143 4603 3238 12566 3652 5223 8699 5003
internal_value=1.8065e-06 -0.00321075 0.00227851 0.000192596 0.00396027 0.0159715 -0.0115839 -0.0126268 -0.00993442 0.00108944 0.0108574 -0.0151828 0.0179276 -0.0215356 0.0122149 -0.0245252 0.0266966 -0.00234329 0.0149321 0.0102643
internal_weight=56018.9 46637.1 29461.8 25996.6 19695.4 9381.83 6301.19 17175.3 13189.4 4254.07 6352.67 8935.32 3465.16 3985.96 1973.66 3120.4 3029.15 1498.39 4854.28 1995.52
internal_count=230975 200973 115833 104793 75054 30002 29739 85140 63766 17450 21773 46316 11040 21374 6897 17169 8229 6244 15529 6830
is_linear=0
shrinkage=0.03


Tree=22
num_leaves=21
num_cat=0
split_feature=0 1 3 1 0 2 1 2 1 2 1 1 2 6 2 1 3 2 7 0
split_gain=3033.12 2130.13 997.855 1124.56 989.341 951.298 913.703 412.568 926.682 403.328 266.623 259.108 227.176 193.089 187.451 175.247 270.109 231.812 140.059 122.601
threshold=1.2612342485759378 464367.50000000006 657796.30000000016 2063473.5000000002 3.1553718158746973 2497353.6000000006 148233.00000000003 278539.40000000008 185728.00000000003 1613272.3000000003 888386.50000000012 15878.500000000002 134903.40000000005 0.91505851842000274 446350.90000000008 1413138.0000000002 1435545.1000000003 244485.30000000002 34.957241058349616 4.7990175733073412
decision_type=2 2 2 2 2 2 2 2 2 2 2 2 2 2 2 2 2 2 2 2
left_child=1 7 10 9 6 -5 13 8 11 -4 14 -1 -10 -2 -3 17 -17 -8 -9 -6
right_child=4 2 3 5 19 -7 15 18 12 -11 -12 -13 -14 -15 -16 16 -18 -19 -20 -21
leaf_value=-0.02456370923536106 0.0040858192548087601 0.016033028219570183 -0.0057766156615088205 0.020685061898051887 0.020193795166692195 -0.00021596607163858983 0.017392877942504256 -0.0090299460001930214 0.019371558472262417 -0.020969657799520251 0.025571460778578518 -0.011820890781546705 3.019359991043691e-05 -0.010661570303753304 -0.0015542510474289557 0.028790831392754741 0.01195563695024817 0.0033646099514421466 -0.023120544423682523 0.031856943873957766
leaf_weight=1757.8706494867802 1182.3052085638046 1393.1736526191235 4663.3485577851534 2502.5948697477579 1856.1530360579491 9036.9580046981573 1523.099777251482 768.73529228568077 821.1836911290884 2372.7001283913851 1454.9005446434021 7846.3568766266108 1634.244138404727 2464.9078332483768 896.33756034076214 1087.1259283423424 4064.6044103056192 3487.9415312707424 3646.2716959118843 1440.8011585772038
leaf_count=9978 4840 4508 20576 7585 5490 35940 4868 3704 2578 12281 4045 39191 6771 11605 3762 2884 13421 13252 20044 3652
internal_value=1.85999e-06 -0.00463852 0.00140095 -0.00144697 0.0105252 0.00431686 0.00700013 -0.0128209 -0.00994836 -0.0109 0.0155292 -0.0141532 0.00649864 -0.00588096 0.00914766 0.0116229 0.0155082 0.00762848 -0.0206671 0.0252907
internal_weight=55901.6 38794.7 22320 18575.6 17106.9 11539.6 13810 16474.7 12059.7 7036.05 3744.41 9604.23 2455.43 3647.21 2289.51 10162.8 5151.73 5011.04 4415.01 3296.95
internal_count=230975 170963 88697 76382 60012 43525 50870 82266 58518 32857 12315 49169 9349 16445 8270 34425 16305 18120 23748 9142
is_linear=0
shrinkage=0.03


Tree=23
num_leaves=21
num_cat=0
split_feature=0 1 2 1 4 0 3 1 2 1 2 4 1 2 6 7 1 2 2 0
split_gain=2877.03 2249.67 1157.71 1115.44 1072.03 732.266 644.497 534.662 515.001 1130.07 534.425 390.622 251.357 158.409 158.166 155.652 105.098 172.868 158.877 98.3746
threshold=1.5015094513415541 759053.50000000012 1003998.3000000002 4942447.5000000009 6254817.5476190485 3.3149181459235182 2798962.0500000003 163786.00000000003 597956.00000000012 236918.50000000003 266624.40000000008 170606.04761904766 1449188.5000000002 694143.80000000016 0.89266276214985074 28.973354339599613 2063473.5000000002 1777066.2000000002 255435.90000000002 4.7990175733073412
decision_type=2 2 2 2 2 2 2 2 2 2 2 2 2 2 2 2 2 2 2 2
left_child=1 8 12 6 -5 7 -4 14 9 11 -11 -1 13 -3 -2 -10 18 -18 -9 -7
right_child=5 2 3 4 -6 19 -8 16 15 10 -12 -13 -14 -15 -16 -17 17 -19 -20 -21
leaf_value=-0.0099446847039548602 0.010500925034283072 0.018182084672213095 -0.0012100047135521752 0.02613378304851225 0.0013017856011255271 0.020363530167165002 -0.017800979812583318 0.01938219359586351 -0.0013816759435958551 0.013644202466879475 -0.0048388882062276308 -0.02114137073887732 0.027882345083044189 0.002837423160904295 -0.0069457889969406598 -0.02387433827006313 0.031292415907794711 0.013505192693921267 0.0059236937125175509 0.03128290992694608
leaf_weight=9182.7577555179596 607.19426466524601 1561.0100051760674 5936.8295719474554 2189.9419070929289 5480.1971586942673 1552.3189328759909 3266.8151992559433 1090.5778433531523 307.23942962288857 2319.2056498080492 3583.1737574189901 4037.1536320894957 1447.4969592541456 989.17957480251789 2035.0061551481485 2803.5528914034367 612.7762281447649 2489.7119470238686 2858.7634552419186 1423.4857842475176
leaf_count=45375 2207 4821 24581 6310 21340 4577 15545 3337 1376 7861 16033 21828 3887 3887 9068 15452 1560 8001 10277 3652
internal_value=1.96481e-06 -0.00369206 0.00338156 -5.75209e-05 0.0083917 0.0125696 -0.00709894 0.00857362 -0.0103325 -0.0084909 0.00242362 -0.013364 0.0178975 0.0122301 -0.00293642 -0.0216528 0.0128862 0.0170184 0.00964015 0.0255869
internal_weight=55774.4 43104.6 20871.5 16873.8 7670.14 12669.8 9203.64 9694.03 22233.1 19122.3 5902.38 13219.9 3997.69 2550.19 2642.2 3110.79 7051.83 3102.49 3949.34 2975.8
internal_count=230975 188296 80371 67776 27650 42679 40126 34450 107925 91097 23894 67203 12595 8708 11275 16828 23175 9561 13614 8229
is_linear=0
shrinkage=0.03


Tree=24
num_leaves=21
num_cat=0
split_feature=0 1 4 1 2 0 1 4 4 1 2 4 1 6 1 3 2 4 0 1
split_gain=2727.2 1915.93 921.673 992.354 1078.07 899.248 819.154 580.174 392.803 566.953 428.989 336.597 185.761 176.609 159.538 261.574 217.678 138.408 116.388 92.3965
threshold=1.2612342485759378 464367.50000000006 615081.7857142858 3610047.5000000005 4219260.5000000009 3.1553718158746973 148233.00000000003 2332919.0952380956 534277.85714285728 205024.00000000003 190634.40000000005 170606.04761904766 907832.50000000012 0.91505851842000274 1198347.5000000002 1435545.1000000003 219091.00000000003 404402.85714285722 4.7990175733073412 26640.500000000004
decision_type=2 2 2 2 2 2 2 2 2 2 2 2 2 2 2 2 2 2 2 2
left_child=1 8 12 7 -5 6 13 -4 9 11 -11 -1 17 -2 16 -16 -8 -3 -7 -15
right_child=5 2 3 4 -6 18 14 -9 -10 10 -12 -13 -14 19 15 -17 -18 -19 -20 -21
leaf_value=-0.010800437817955161 0.0039961659590798488 0.017271871442937185 -0.0029802638689814644 0.02491167410529788 0.0002296414802643496 0.019254602904132043 0.017340472719084857 -0.018689900416671647 -0.025080463751756793 0.014473703152893546 -0.0073490274885392257 -0.022770887961887375 0.025161215561724584 -0.017897543230690156 0.026146532228815338 0.010826128143212745 0.0029012996405070081 0.0015174240195259278 0.030725528808170238 -0.0057709565067394939
leaf_weight=7849.6913484036922 1181.639521420002 1158.0146438330412 7580.8724704384804 2127.8433088958263 6332.5929038673639 1834.9664006829262 1307.9519054293633 2934.8718816787004 1882.4767302423716 1182.146096393466 2580.2888960540295 2893.3985878825188 1240.2785064131021 881.1794209331274 1322.2837467342615 4153.6565460860729 3337.1643108129501 885.76588822901249 1406.0941289514303 1578.4019273966551
leaf_count=39433 4840 3692 32365 6098 25022 5490 4155 14494 10814 3955 11964 16100 3470 4564 3638 13870 12762 3556 3652 7041
internal_value=2.12297e-06 -0.00440285 0.00132833 -0.00121116 0.0064373 0.0100145 0.00666648 -0.00736472 -0.0121877 -0.0105145 -0.000492389 -0.0140244 0.0160022 -0.005536 0.0110565 0.0145256 0.00696702 0.010444 0.0242311 -0.0101155
internal_weight=55651.6 38648.2 22260.2 18976.2 8460.44 17003.3 13762.3 10515.7 16388 14505.5 3762.43 10743.1 3284.06 3641.22 10121.1 5475.94 4645.12 2043.78 3241.06 2459.58
internal_count=230975 170963 88697 77979 31120 60012 50870 46859 82266 71452 15919 55533 10718 16445 34425 17508 16917 7248 9142 11605
is_linear=0
shrinkage=0.03


Tree=25
num_leaves=21
num_cat=0
split_feature=0 1 2 1 4 0 3 2 1 2 1 3 1 2 7 6 4 1 7 2
split_gain=2596.28 2177.05 944.415 1220.39 1008.48 483.169 453.66 416.635 806.767 495.579 376.666 237.795 212.986 156.099 145.675 117.661 103.139 84.655 61.6151 54.2303
threshold=1.7948743335446828 356378.00000000006 474979.20000000007 1559016.5000000002 2332919.0952380956 4.3518157793850056 1049933.9000000001 255435.90000000002 106302.50000000001 108541.10000000002 311574.50000000006 56726.05000000001 606999.50000000012 321348.20000000007 37.164033889770515 0.89266276214985074 271887.30952380958 26640.500000000004 46.851417541503913 403026.3000000001
decision_type=2 2 2 2 2 2 2 2 2 2 2 2 2 2 2 2 2 2 2 2
left_child=1 7 12 6 -5 10 -4 8 11 -10 15 -1 13 -3 -9 -2 -16 -17 -14 -12
right_child=5 2 3 4 -6 -7 -8 14 9 -11 19 -13 18 -15 16 17 -18 -19 -20 -21
leaf_value=-0.0095180296565460076 0.014093709361956782 0.015445478519509684 -0.0027932317158239519 0.017324920930076471 0.00027737213628302622 0.028882349048516838 -0.016788499445372525 -0.0088984417346417138 0.015512930317793341 -0.0052890170223540423 0.022936835681248938 -0.01936892879425493 0.015052571389083594 -0.00074569210039080499 -0.012948094933281293 -0.011859053561006841 -0.025632550551784171 0.0022688306972494226 0.02617918389936013 0.014731316535614443
leaf_weight=4882.0939974486828 582.82666446268559 1332.5124839693308 4469.8848123252392 4256.3669424802065 11729.775980263948 1719.9021209478378 3906.21035566926 895.49623399972916 1513.717745706439 3230.4378638416529 887.74074438214302 4022.5876033604145 676.80505204200745 896.41770020127296 758.15552192926407 504.05977568030357 2413.5075904428959 1572.687558427453 1324.5161759108305 3951.5787441134453
leaf_count=24579 1943 4361 19148 13578 46230 4595 19736 4361 5193 14370 2543 22132 2148 3788 3839 2337 13859 6059 3651 12525
internal_value=2.23757e-06 -0.00289211 0.00222804 -4.39246e-05 0.00481634 0.0145413 -0.00931996 -0.0111557 -0.00864431 0.00134826 0.0112521 -0.0139681 0.0153124 0.00893381 -0.0195836 0.00218256 -0.0226005 -0.00116023 0.0224164 0.0162366
internal_weight=55527.3 46308.5 28592.5 24362.2 15986.1 9218.8 8376.1 17716 13648.8 4744.16 7498.89 8904.68 4230.25 2228.93 4067.16 2659.57 3171.66 2076.75 2001.32 4839.32
internal_count=230975 200973 112640 98692 59808 30002 38884 88333 66274 19563 25407 46711 13948 8149 22059 10339 17698 8396 5799 15068
is_linear=0
shrinkage=0.03


Tree=26
num_leaves=21
num_cat=0
split_feature=0 1 4 1 1 4 2 0 2 1 0 2 2 6 1 1 2 1 3 7
split_gain=2493.38 1577.11 1003.32 997.084 879.595 651.378 630.239 474.282 452.211 829.768 441.69 390.471 324.847 273.858 193.876 192.471 176.226 270.755 144.613 111.999
threshold=1.1148688488776373 888386.50000000012 1201818.2380952383 311574.50000000006 10569652.500000002 5987414.171428577 9556767.9000000004 4.3518157793850056 724563.20000000007 325607.00000000006 3.1553718158746973 321348.20000000007 131636.20000000004 0.86179883155615489 1813528.0000000002 38703.500000000007 403026.3000000001 3610047.5000000005 672115.45000000007 30.015361785888675
decision_type=2 2 2 2 2 2 2 2 2 2 2 2 2 2 2 2 2 2 2 2
left_child=1 8 14 7 5 -4 -6 13 9 12 16 -11 -1 -2 18 -15 -5 -18 -3 -10
right_child=3 2 4 10 6 -7 -8 -9 19 11 -12 -13 -14 15 -16 -17 17 -19 -20 -21
leaf_value=-0.0086864565589162834 0.0079273104894408749 0.020835802789750158 -0.0020667477065615695 0.019610888896476119 0.034967148334086089 -0.020897810444307552 0.0043128995657488525 0.026137567542668522 -0.0035893532046107931 0.014392197058910367 0.025773724579075633 -0.0045133437418561862 -0.01854945650697213 -0.014165869426897031 0.028091471418387571 -0.0019155512945602943 0.0045029050650997439 0.014921231725280438 0.0050828300020656922 -0.024997043531243417
leaf_weight=7044.0125752240419 1705.04042352736 949.0414145886898 7469.8487356752157 1746.4116736650467 797.15444029867649 2123.072630494833 2486.3363337665796 561.75155445933342 244.63585123419762 1569.6662045121193 2149.6545156240463 2631.6915856897831 5241.9312635809183 1712.825150847435 1011.4484964609146 3539.7486705183983 4975.6684137582779 4090.837533429265 1172.3687372803688 2179.3478189110756
leaf_count=34940 6663 2815 31206 5306 2101 10161 9481 1568 1132 5207 5958 11712 28228 8688 2717 14849 18467 13017 4487 12272
internal_value=2.28688e-06 -0.00487183 0.00205742 0.00831238 -0.00164707 -0.00623437 0.011755 -0.00037836 -0.0107377 -0.00895897 0.0133537 0.00254994 -0.0128946 -0.00251923 0.0172833 -0.00591029 0.0108846 0.00920369 0.0121301 -0.0228365
internal_weight=55402.5 34920.6 16009.3 20481.9 12876.4 9592.92 3283.49 7519.37 18911.3 16487.3 12962.6 4201.36 12285.9 6957.61 3132.86 5252.57 10812.9 9066.51 2121.41 2423.98
internal_count=230975 156459 62968 74516 52949 41367 11582 31768 93491 80087 42748 16919 63168 30200 10019 23537 36790 31484 7302 13404
is_linear=0
shrinkage=0.03


Tree=27
num_leaves=21
num_cat=0
split_feature=0 1 1 4 1 2 0 0 4 1 3 2 2 1 6 2 1 1 3 2
split_gain=2352.65 1447.62 990.179 882.946 880.649 818.825 467.408 438.876 430.797 866.469 375.469 288.834 270.609 241.653 235 174.816 268.341 159.007 157.342 116.978
threshold=1.0847525245655578 775297.50000000012 311574.50000000006 1176453.5714285716 3867043.5000000005 5094422.2000000011 2.8054663065382628 3.1553718158746973 568164.80952380958 236918.50000000003 2726651.1500000004 131636.20000000004 266624.40000000008 1449188.5000000002 0.86179883155615489 395396.80000000005 949769.50000000012 38703.500000000007 672115.45000000007 740221.40000000002
decision_type=2 2 2 2 2 2 2 2 2 2 2 2 2 2 2 2 2 2 2 2
left_child=1 8 6 13 10 -6 14 15 9 11 -5 -1 -11 18 -2 -4 -17 -16 -3 -10
right_child=2 3 7 4 5 -7 -8 -9 19 12 -12 -13 -14 -15 17 16 -18 -19 -20 -21
leaf_value=-0.0096523885448521404 0.0056552997145926627 0.016725363184145435 0.019078380380888982 -0.0051380964869189123 0.021584179511404913 -0.0013200665824063033 0.015640054292259665 0.0252549289466775 -0.015431172253673657 0.012041897402340818 -0.02097587302622721 -0.020325373274926537 -0.0035465699582982019 0.024474161209730179 -0.015113254472839231 -0.0009518954930529855 0.011393425609793954 -0.0035177000602440466 0.00047201639577694834 -0.026703338431006279
leaf_weight=6577.8963540047407 1694.2851626574993 1051.4820555746555 1766.6685730516911 3894.2000548541546 1951.3545748740435 5015.0098356306553 1316.974301353097 2128.3245888203382 1809.3736941814423 1723.7915435135365 2059.7553312778473 3494.2506375163794 2394.4296185821295 1396.6605476438999 1586.3192001283169 2004.5897481143475 7563.6442864239216 3234.4798502027988 1093.516628921032 1528.5629643946886
leaf_count=33207 6853 3298 5395 17071 5885 20212 4221 5958 9421 5925 10423 19365 10754 3963 8294 8119 25286 13963 4451 8911
internal_value=2.39145e-06 -0.00489605 0.007821 0.00149247 -0.00214513 0.00509566 -0.000660508 0.012755 -0.0108959 -0.0086149 -0.0106171 -0.0133551 0.0029784 0.0147628 -0.00395554 0.0104079 0.00880702 -0.0073333 0.00843944 -0.0205931
internal_weight=55285.6 33990.3 21295.3 16462 12920.3 6966.36 7832.06 13463.2 17528.3 14190.4 5953.96 10072.1 4118.22 3541.66 6515.08 11334.9 9568.23 4820.8 2145 3337.94
internal_count=230975 152886 78089 65303 53591 26097 33331 44758 87583 69251 27494 52572 16679 11712 29110 38800 33405 22257 7749 18332
is_linear=0
shrinkage=0.03


Tree=28
num_leaves=21
num_cat=0
split_feature=0 1 4 1 4 3 1 4 0 4 1 4 1 1 3 2 7 6 1 1
split_gain=2244.84 1938 976.334 1155.96 1017 627.22 449.094 1198.47 348.759 334.453 300.931 277.785 382.382 236.232 216.055 195.616 112.636 93.0491 65.8768 46.2021
threshold=2.0023954080476529 518574.00000000006 820481.21428571444 4942447.5000000009 5759308.0000000009 3934479.4000000004 55032.500000000007 120814.73809523812 4.3518157793850056 545213.10714285716 1064964.5000000002 55092.357142857152 15878.500000000002 311574.50000000006 50665.900000000001 446350.90000000008 40.826715469360359 0.77075628187012357 27964.500000000004 2573074.5000000005
decision_type=2 2 2 2 2 2 2 2 2 2 2 2 2 2 2 2 2 2 2 2
left_child=1 6 10 5 -5 -4 11 14 13 -9 15 12 -1 17 -8 -3 -13 -2 -19 -12
right_child=8 2 3 4 -6 -7 7 9 -10 -11 19 16 -14 -15 -16 -17 -18 18 -20 -21
leaf_value=-0.020204302040868947 0.021136076744133286 0.01675901183365346 -0.0028162773482638707 0.025807855456562924 0.0024471829527382468 -0.021468307874452999 0.021354024948458949 -0.0081197156324348697 0.027489986343120869 -0.020343122014697956 0.021421603209279355 -0.014666164189738424 -0.0018574661273563435 0.016371443791303061 0.00462528824142677 0.0021915490153188374 -0.029041858581781248 -0.0091404047646173516 0.0044523738291296078 0.032539131419891232
leaf_weight=2072.0024923831224 239.31456623971462 1570.5847397595644 10447.427452072501 2273.57899941504 6394.4245505928993 1920.9366334080696 973.78381080925465 9141.4212505817413 1665.056663736701 2584.1121140122414 1549.7308378815651 730.19898495078087 2018.2758033275604 3706.1197896152735 2425.5642425864935 1758.5064599961042 1494.4751745611429 421.80697908997536 1341.2656297534704 429.70854938030243
leaf_count=11662 724 4916 44240 6442 24430 9407 3281 43389 4595 14353 4565 3916 9633 11490 9921 7029 9039 1878 4988 1077
internal_value=2.42726e-06 -0.00237497 0.00307527 0.000174099 0.00857458 -0.00571313 -0.00907215 -0.0062666 0.0154093 -0.0108136 0.0145719 -0.0157917 -0.0111514 0.0118856 0.00941743 0.00906413 -0.0243234 0.00358297 0.00120036 0.0238351
internal_weight=55158.3 47784.7 26344.9 21036.4 8668 12368.4 21439.8 15124.9 7373.56 11725.5 5308.53 6314.95 4090.28 5708.51 3399.35 3329.09 2224.67 2002.39 1763.07 1979.44
internal_count=230975 207300 102106 84519 30872 53647 105194 70944 23675 57742 17587 34250 21295 19080 13202 11945 12955 7590 6866 5642
is_linear=0
shrinkage=0.03


Tree=29
num_leaves=21
num_cat=0
split_feature=0 1 1 2 1 2 4 0 2 1 0 3 2 1 6 2 1 3 3 7
split_gain=2149.61 1306.48 901.241 880.854 863.668 559.166 530.29 469.927 401.671 725.46 371.842 345.086 291.29 240.996 190.145 177.244 318.969 170.929 115.249 106.847
threshold=1.0847525245655578 888386.50000000012 195089.50000000003 1281559.5000000002 10569652.500000002 9556767.9000000004 5987414.171428577 3.3149181459235182 724563.20000000007 325607.00000000006 2.8054663065382628 359193.80000000005 165379.40000000005 1677768.5000000002 0.86179883155615489 213812.30000000002 949769.50000000012 715635.30000000016 122964.90000000001 30.015361785888675
decision_type=2 2 2 2 2 2 2 2 2 2 2 2 2 2 2 2 2 2 2 2
left_child=1 8 10 13 6 -6 -5 15 9 12 14 -11 -1 17 -2 -4 -17 -3 -16 -10
right_child=2 3 7 4 5 -7 -8 -9 19 11 -12 -13 -14 -15 18 16 -18 -19 -20 -21
leaf_value=-0.0087343088760958015 0.0046608700009771829 0.018539790391249405 0.019752185965712595 -0.0029067190084918052 0.033582988383813378 0.0041884457001435064 -0.020263887860799166 0.02472608439814044 -0.0026389883807233882 0.012949021014711456 0.014189985375316131 -0.0047719005594964907 -0.018597041223120579 0.025511055206529794 -0.0054009386965808842 0.00078382935618985972 0.011547867218541888 0.0018053687788237623 -0.016836826287190496 -0.023870709400208832
leaf_weight=7733.2416600286961 1290.0397942364216 971.55055160820484 1325.6661211699247 6816.2233136445284 767.1864121556282 2418.6275241523981 2063.8072604984045 2083.4639790952206 237.37330427765846 1673.6691977381706 1056.0279564112425 2417.611169680953 4136.793090954423 1253.4934147596359 2821.7681007534266 3611.8792693465948 7889.9460161924362 1264.0658903717995 1103.2079162895679 2105.2847402989864
leaf_count=38798 5323 2975 4035 28816 2033 9229 9906 5923 1104 5694 3456 10875 22822 3504 13197 14371 26272 5104 5512 12026
internal_value=2.5151e-06 -0.00468675 0.0074982 0.00170579 -0.0021332 0.011267 -0.0069407 0.0115113 -0.0101192 -0.00841665 -0.00204384 0.00247741 -0.0121715 0.0149816 -0.00533115 0.00936488 0.00816767 0.00907779 -0.00861527 -0.0217194
internal_weight=55040.9 33858.9 21182 15555 12065.8 3185.81 8880.03 14911 18304 15961.3 6271.04 4091.28 11870 3489.11 5215.02 12827.5 11501.8 2235.62 3924.98 2342.66
internal_count=230975 152886 78089 61567 49984 11262 38722 50601 91319 78189 27488 16569 61620 11583 24032 44678 40643 8079 18709 13130
is_linear=0
shrinkage=0.03


Tree=30
num_leaves=21
num_cat=0
split_feature=0 1 2 1 2 2 0 1 4 1 1 1 4 1 1 6 4 7 0 1
split_gain=2037.64 1587.4 930.957 948.505 851.044 662.339 516.965 461.569 958.844 394.906 356.122 215.391 214.067 277.356 213.722 146.025 133.646 94.025 90.3087 88.0785
threshold=1.5342517579091 759053.50000000012 1026919.3000000002 7365325.5000000009 8371585.7000000011 4375294.7000000002 3.3149181459235182 51094.500000000007 120814.73809523812 148233.00000000003 398575.00000000006 106302.50000000001 55092.357142857152 15878.500000000002 1597400.0000000002 0.91647054914751191 652981.90476190497 41.800994873046882 4.7990175733073412 14835.000000000002
decision_type=2 2 2 2 2 2 2 2 2 2 2 2 2 2 2 2 2 2 2 2
left_child=1 7 14 5 -5 -4 10 12 11 -10 15 -9 13 -1 16 -2 -3 -14 -8 -17
right_child=6 2 3 4 -6 -7 18 8 9 -11 -12 -13 17 -15 -16 19 -18 -19 -20 -21
leaf_value=-0.020147583983777501 0.0094995833103487439 0.017906451978443667 -0.0013831805261847714 0.027567262567098034 0.0022590162396771123 -0.018892606528627415 0.017203227139765555 0.00084799027250928442 -0.019605734753198156 -0.0070746431482078195 0.012493682518949771 0.016206365107008854 -0.01545624120128543 -0.0032707370752607782 0.026188961446338862 -0.017428422670428857 0.0048722924353501278 -0.029895340438721319 0.028006568510376181 -0.0012848138631452279
leaf_weight=1829.1991546303034 1118.3874400109053 1383.1540808230639 8500.2080278247595 1683.4208716005087 4128.6653544902802 2521.0437410026789 1481.5279415547848 1687.9129453897476 2871.8340204954147 10682.974479794502 5349.2603944092989 1601.6499075740576 625.34331728518009 1682.4873024225235 1234.9901172965765 351.26730714738369 1450.4377079457045 1156.5825416892767 1314.0836465805769 2268.3916408717632
leaf_count=10486 4046 4268 35302 4767 15855 11991 4577 7628 16044 50549 17422 5418 3450 8244 3401 1805 5509 7208 3652 9353
internal_value=2.5779e-06 -0.00303365 0.00289567 -0.000216973 0.00958933 -0.00538835 0.0109998 -0.00863192 -0.00620352 -0.00972958 0.00752915 0.0083258 -0.0163591 -0.0120617 0.0157739 0.000424746 0.0112346 -0.0248281 0.0222814 -0.00344949
internal_weight=54922.8 43039.9 20901.9 16833.3 5812.09 11021.3 11882.9 22138 16844.4 13554.8 9087.31 3289.56 5293.61 3511.69 4068.58 3738.05 2833.59 1781.93 2795.61 2619.66
internal_count=230975 190120 81093 67915 20622 47293 40855 109027 79639 66593 32626 13046 29388 18730 13178 15204 9777 10658 8229 11158
is_linear=0
shrinkage=0.03


Tree=31
num_leaves=21
num_cat=0
split_feature=0 1 1 4 1 0 0 2 4 1 2 6 4 2 3 1 1 1 0 0
split_gain=1968.38 1137.74 869.133 738.645 582.714 468.355 448.153 423.409 358.305 535.252 325.904 250.835 244.82 232.195 226.245 327.417 206.626 115.642 110.725 99.0291
threshold=0.9043254934255619 311574.50000000006 971306.00000000012 1201818.2380952383 15476315.000000002 2.2802355580746507 2.8054663065382628 7062441.9000000013 837752.26190476201 325607.00000000006 370394.10000000003 0.7686995358891221 277670.69047619053 15117763.700000001 389076.40000000008 7365325.5000000009 38703.500000000007 1813528.0000000002 4.7990175733073412 3.726220708834072
decision_type=2 2 2 2 2 2 2 2 2 2 2 2 2 2 2 2 2 2 2 2
left_child=2 6 8 17 7 14 11 -5 9 12 -11 -2 -1 -6 -3 -16 -13 -4 -8 -7
right_child=1 5 3 4 13 19 18 -9 -10 10 -12 16 -14 -15 15 -17 -18 -19 -20 -21
leaf_value=-0.0099495033702706737 0.0062548388397990675 0.017218631558050815 0.011178148404595679 -0.0027656466145228563 0.030306448412470474 0.015608923122650543 0.0078305405994459343 -0.019186512359074745 -0.02227201549889388 0.011691470229943724 -0.0066976238129183739 -0.014473197031074305 -0.021643535711944693 0.0055891773071872156 0.0030130096210390749 0.013986143874581018 -0.0036839119086774712 0.025911050530059189 0.026385077428375672 0.02555164993464119
leaf_weight=7271.4385443031788 1538.3784106075764 1907.8393231630325 1330.06336414814 6352.621454179287 504.91006489098072 2292.4875090122223 851.6741179227829 1817.565167888999 2051.7064171433449 1513.1012492030859 2032.5267195850611 2322.7819931358099 2069.8997090309858 1060.4883714467287 8691.0280343294144 3406.4891093373299 5116.1846999973059 749.79952770471573 438.49027576297522 1485.9236480370164
leaf_count=37187 6484 6041 4603 26768 1411 7156 2967 8622 11489 5237 9416 12436 12041 3991 33586 11139 22826 2082 1254 4239
internal_value=2.63188e-06 0.00555506 -0.005819 0.000260945 -0.00320603 0.0101458 -0.00239636 -0.00641868 -0.0106278 -0.00877397 0.00114995 -0.00477238 -0.0125407 0.0135616 0.0076171 0.00610289 -0.00705281 0.0164894 0.0141367 0.0195191
internal_weight=54805.4 28051.3 26754.1 11815.4 9735.59 17783.8 10267.5 8170.19 14938.7 12887 3545.63 8977.35 9341.34 1565.4 14005.4 12097.5 7438.97 2079.86 1290.16 3778.41
internal_count=230975 108128 122847 47477 40792 62161 45967 35390 75370 63881 14653 41746 49228 5402 50766 44725 35262 6685 4221 11395
is_linear=0
shrinkage=0.03


Tree=32
num_leaves=21
num_cat=0
split_feature=0 1 1 2 1 4 0 0 2 1 3 2 4 6 3 1 1 1 0 2
split_gain=1856.08 1073.55 821.016 698.06 609.374 640.098 449.717 423.457 345.242 564.016 294.13 248.715 242.213 229.387 222.907 323.953 182.751 153.977 135.401 125.388
threshold=0.9043254934255619 311574.50000000006 971306.00000000012 1281559.5000000002 4138399.5000000005 5759308.0000000009 2.533823787124923 2.4600417375091559 724563.20000000007 356378.00000000006 3341473.5000000005 370394.10000000003 283295.04761904769 0.77075628187012357 389076.40000000008 1198347.5000000002 38703.500000000007 1813528.0000000002 4.7990175733073412 708845.00000000012
decision_type=2 2 2 2 2 2 2 2 2 2 2 2 2 2 2 2 2 2 2 2
left_child=2 7 8 17 10 -6 14 13 9 12 -5 -11 -1 -2 -3 -16 -15 19 -9 -4
right_child=1 6 3 4 5 -7 -8 18 -10 11 -12 -13 -14 16 15 -17 -18 -19 -20 -21
leaf_value=-0.0093988879580633768 0.0055726159474857257 0.016922270329295819 0.019098043597004559 -0.0068868906123816121 0.019717611789094081 -0.0034096694952874861 0.020270707095838933 0.0064369035586256916 -0.021346839276097554 0.012534976645086991 -0.024400414198265136 -0.0047328622479602652 -0.020685153102893088 -0.014461240882975559 -0.0014462992948416212 0.0092150705956190286 -0.0040442279754453409 0.024835811845412319 0.025925149304364001 0.0017979890043036137
leaf_weight=7433.0604467093945 1515.1367936581373 2021.7629978954792 646.5264790058136 3059.1464017629623 1537.8520914167166 3594.5960750281811 3088.2856805697083 1239.2260534912348 2187.577419295907 1331.05174292624 1202.2183736860752 1721.7679501920938 2223.2149663567543 2202.1187990754843 3579.704835832119 9049.6996391117573 4862.6150813549757 859.8903726786375 432.96549978852272 904.63576321303844
leaf_count=37925 6442 6401 1963 13629 4746 14822 9281 4441 12343 4513 6286 7732 12857 11939 15000 31479 21891 2426 1254 3605
internal_value=2.67593e-06 0.00540038 -0.00565579 0.000253603 -0.00344229 0.00352003 0.00986676 -0.00232794 -0.0103387 -0.00844389 -0.0118278 0.00279604 -0.0119974 -0.00501961 0.00767373 0.00619319 -0.00729127 0.0146533 0.0114828 0.00900867
internal_weight=54693.1 27991.5 26701.5 11804.9 9393.81 5132.45 17739.5 10252.1 14896.7 12709.1 4261.36 3052.82 9656.28 8579.87 14651.2 12629.4 7064.73 2411.05 1672.19 1551.16
internal_count=230975 108128 122847 47477 39483 19568 62161 45967 75370 63027 19915 12245 50782 40272 52880 46479 33830 7994 5695 5568
is_linear=0
shrinkage=0.03


Tree=33
num_leaves=21
num_cat=0
split_feature=0 1 2 1 2 0 1 4 4 1 2 2 1 6 1 2 3 2 7 0
split_gain=1767.38 1224.02 703.799 846.334 803.938 593.738 521.215 370.783 361.461 532.375 469.442 292.549 162.344 131.509 122.874 245.551 199.12 121.404 86.8552 86.2904
threshold=1.2612342485759378 518574.00000000006 724563.20000000007 2494555.5000000005 2791822.2000000007 3.3149181459235182 133051.00000000003 1791999.8809523813 534277.85714285728 148233.00000000003 190634.40000000005 105513.90000000001 1064964.5000000002 0.91505851842000274 2063473.5000000002 2177931.8000000003 1281470.6000000003 465182.30000000005 32.526668548583991 4.7990175733073412
decision_type=2 2 2 2 2 2 2 2 2 2 2 2 2 2 2 2 2 2 2 2
left_child=1 8 12 7 -5 6 13 -4 9 11 -11 -1 17 -2 16 -16 -8 -3 -10 -7
right_child=5 2 3 4 -6 19 14 -9 18 10 -12 -13 -14 -15 15 -17 -18 -19 -20 -21
leaf_value=-0.0088443134368545919 0.0040946563762757193 0.01484107295849252 -0.0036775841099450073 0.020826838754428707 7.8032152175220973e-06 0.016008792451566126 0.0085708263375782138 -0.017595934590585675 -0.0061767313257223358 0.010748095233797368 -0.0071794728382965529 -0.020615018724404671 0.022270170231272507 -0.008423155258581224 0.025951199395558358 0.0089805619379987531 -0.0066286175983401897 0.0015806668509083432 -0.023343353155872427 0.026720252997574578
leaf_weight=6120.0659302026033 1112.3829353004694 1364.5685251355171 4374.3498485088348 2094.6851672381163 8220.8713008910418 1453.0126276165247 5123.6639037430286 2841.6385709345341 308.46566274762154 2047.3411509394646 3672.8166320472956 2756.1935547441244 1187.3132692873478 2353.2609179466963 997.35570426285267 3327.2093142867088 914.11200764775276 1140.9418083131313 1893.7144757509232 1267.1785636916757
leaf_count=31759 4599 4405 19254 6282 32604 4577 18197 14533 1538 7475 17694 15956 3470 11277 2740 11228 3742 4635 11358 3652
internal_value=2.70212e-06 -0.00355899 0.00122964 -0.00127761 0.00423533 0.00818645 0.00566608 -0.0091586 -0.00960923 -0.00789993 -0.000762893 -0.0124993 0.0131327 -0.00440526 0.0090344 0.0128944 0.00626965 0.00880264 -0.0209388 0.0209986
internal_weight=54571.1 38023 21224.4 17531.5 10315.6 16548.2 13828 7215.99 16798.6 14596.4 5720.16 8876.26 3692.82 3465.64 10362.3 4324.57 6037.78 2505.51 2202.18 2720.19
internal_count=230975 170963 85183 72673 38886 60012 51783 33787 85780 72884 25169 47715 12510 15876 35907 13968 21939 9040 12896 8229
is_linear=0
shrinkage=0.03


Tree=34
num_leaves=21
num_cat=0
split_feature=0 1 1 3 0 2 1 2 1 4 1 1 2 3 4 4 1 4 2 4
split_gain=1690.98 1211.15 547.125 629.916 510.576 482.399 604.82 486.374 444.668 345.63 533.453 323.231 523.032 305.732 271.367 249.783 217.069 215.569 173.396 166.177
threshold=0.78292968968619603 555436.50000000012 2234456.0000000005 2876293.7500000005 2.4600417375091559 918640.80000000016 4591662.0000000009 5306094.5000000009 15476315.000000002 1374429.523809524 434610.50000000006 49113.500000000007 114547.50000000001 570254.95000000007 3179880.3333333335 9522364.3809523825 1198347.5000000002 295134.35714285722 18328464.900000002 55092.357142857152
decision_type=2 2 2 2 2 2 2 2 2 2 2 2 2 2 2 2 2 2 2 2
left_child=2 4 9 -4 11 16 14 -8 15 10 17 19 -13 -12 -7 -5 -3 -1 -10 -2
right_child=1 5 3 8 -6 6 7 -9 18 -11 13 12 -14 -15 -16 -17 -18 -19 -20 -21
leaf_value=-0.0093960785481102902 -0.0074141832905784315 0.012589639782106803 0.017382521533780077 -0.0054497182507624127 0.011778353194697309 0.0034400479316483066 0.025814979237677522 0.0078942069023746047 0.025146883461992613 -0.020872193391373563 0.011236034597919898 0.0097163151923713841 -0.0056390627906067053 -0.0057800692638715172 -0.01060501798095306 -0.024111477383705237 0.025935174517013916 -0.020287119902220038 0.0011434972628682827 -0.021052130474750838
leaf_weight=5919.3915700465441 2561.7787911593914 2929.9064801186323 1532.8583317995071 2299.2953297197819 2081.6024135500193 5233.7951715737581 1857.2970007285476 5121.5474561974406 471.81333117187023 2232.271869674325 1580.3694814890623 2773.6212778836489 7124.5628989934921 2383.6149611324072 1621.7168656885624 897.46122740209103 1753.306957013905 2260.1892792880535 635.91482794284821 1171.9782747328281
leaf_count=30328 13135 9968 4840 9759 7050 20309 5193 18071 1412 11991 5501 10688 33088 10744 7180 4426 4899 13115 2495 6783
internal_value=2.74343e-06 0.00406551 -0.00687757 0.000868052 -0.00206031 0.00926372 0.00644647 0.0126635 -0.00501287 -0.0100227 -0.0080283 -0.00417348 -0.00133625 0.00100395 0.000117594 -0.0106888 0.017586 -0.0124055 0.0113672 -0.011695
internal_weight=54444.3 34231.1 20213.2 5837.34 15713.5 18517.6 13834.4 6978.84 4304.48 14375.8 12143.6 13631.9 9898.18 3963.98 6855.51 3196.76 4683.21 8179.58 1107.73 3733.76
internal_count=230975 136364 94611 22932 70744 65620 50753 23264 18092 71679 59688 63694 43776 16245 27489 14185 14867 43443 3907 19918
is_linear=0
shrinkage=0.03


Tree=35
num_leaves=21
num_cat=0
split_feature=0 1 0 4 1 2 1 0 3 1 3 3 1 7 4 6 1 0 2 1
split_gain=1607.71 1320.95 693.544 388.663 640.862 385.173 502.573 357.077 329.729 309.814 426.57 345.675 232.62 191.593 189.767 100.208 94.6827 69.4335 56.7541 75.5989
threshold=1.7688583142913441 205024.00000000003 0.78292968968619603 170606.04761904766 55032.500000000007 315150.20000000007 2234456.0000000005 4.3518157793850056 65580.700000000012 10066290.500000002 3934479.4000000004 9949750.1000000015 407868.50000000006 48.897819519042976 55092.357142857152 0.95067878862337996 434610.50000000006 0.74495603042331615 403026.3000000001 3280193.0000000005
decision_type=2 2 2 2 2 2 2 2 2 2 2 2 2 2 2 2 2 2 2 2
left_child=1 3 5 4 14 16 -7 12 -6 10 -4 -11 15 17 -1 -2 -3 -5 -14 -20
right_child=7 2 9 13 8 6 -8 -9 -10 11 -12 -13 18 -15 -16 -17 -18 -19 19 -21
leaf_value=-0.0098073362703767156 0.0092674374503759361 0.0036205841771394104 0.0053655128232548074 -0.019349772260200442 0.015279112074140899 -0.011322602335631355 0.00069799578851239186 0.024667608734064778 -0.0036441675837771601 0.030771255978656993 -0.0087657740955054374 0.0075753340475378256 0.021312353116245374 -0.025952581143684764 -0.021633661963827919 -0.0018715539123753675 0.017544017239075307 -0.0076650527301033271 0.0074685796808376557 0.015927723207704275
leaf_weight=3822.496862128377 1189.3572384864092 1202.2749923020601 12469.565536096692 745.42927207052708 1209.7420517504215 6807.1658398061991 5795.3631761074066 1545.0458555668592 2631.1505011469126 794.08781871199608 2272.9490521252155 2126.9203405082226 661.0848463922739 1715.388195976615 1794.3678443878889 1869.2292353212833 692.88888454437256 1185.7351886034012 1861.5557546168566 1943.5538934320211
leaf_count=20389 4245 4892 48517 4358 4488 33567 22829 4595 12337 2101 9753 7560 1935 10437 10682 7629 2148 6045 6415 6053
internal_value=2.76311e-06 -0.00230717 0.000964142 -0.0103358 -0.00712768 -0.0038986 -0.00579484 0.0115311 0.00231598 0.00495533 0.0031868 0.0138812 0.00883385 -0.0186563 -0.0135854 0.00245994 0.00871112 -0.0121754 0.0131989 0.0117893
internal_weight=54335.4 45265.5 32161.2 13104.3 9457.76 14497.7 12602.5 9069.83 3840.89 17663.5 14742.5 2921.01 7524.78 3646.55 5616.86 3058.59 1895.16 1931.16 4466.19 3805.11
internal_count=230975 200103 131367 68736 47896 63436 56396 30872 16825 67931 58270 9661 26277 20840 31071 11874 7040 10403 14403 12468
is_linear=0
shrinkage=0.03


Tree=36
num_leaves=21
num_cat=0
split_feature=0 1 2 1 1 2 0 2 1 0 2 2 2 2 1 6 1 3 1 1
split_gain=1530.18 877.613 710.843 694.678 686.872 652.711 350.334 346.568 535.925 282.688 276.102 273.897 251.359 248.203 267.558 234.995 189.607 131.384 127.504 91.9848
threshold=1.0292024399015667 888386.50000000012 1281559.5000000002 580134.50000000012 4138399.5000000005 5094422.2000000011 2.8054663065382628 740221.40000000002 325607.00000000006 3.5095012176107336 2962846.1000000001 321348.20000000007 131636.20000000004 918640.80000000016 7365325.5000000009 0.90318947980238307 1677768.5000000002 672115.45000000007 61329.000000000007 2730699.0000000005
decision_type=2 2 2 2 2 2 2 2 2 2 2 2 2 2 2 2 2 2 2 2
left_child=1 7 16 6 10 -6 15 8 12 13 -4 -10 -1 19 -15 -2 17 -3 -17 -5
right_child=3 2 4 9 5 -7 -8 -9 11 -11 -12 -13 -14 14 -16 18 -18 -19 -20 -21
leaf_value=-0.0067434822787949388 0.003913441902279124 0.017662423493450603 -0.0054377995825270762 0.015469467755053121 0.020920410460649023 -0.0013565839160661365 0.013310762598061703 -0.020280774854196 0.01269818064501458 0.023671593446191245 -0.020024797818981806 -0.0037521277494001713 -0.01589404769930073 0.0021778580719807863 0.013453574721972405 -0.01208269860263647 0.023316466648410777 0.0022152633771244292 -0.0024228629603571289 0.034344496145791541
leaf_weight=6326.2061190158129 3702.0246141403913 805.36740966141224 3391.8470580428839 2324.5571901202202 1589.6467088758945 4635.6127876788378 1607.7683558762074 2099.157019726932 1433.744757682085 1391.2950315698981 1781.0591561943293 2498.0377222001553 4715.619028583169 4779.4486462622881 3137.1212333738804 1930.902475476265 1150.833704970777 1288.1916430443525 3386.8164997547865 258.18047921359539
leaf_count=32222 15429 2492 15093 7426 4786 18708 5337 12111 4830 4153 9080 11303 26465 17928 10125 10161 3333 5181 14175 637
internal_value=2.70318e-06 -0.0042434 0.00114527 0.00598307 -0.00238127 0.00433194 0.000409501 -0.00886502 -0.00726464 0.0109646 -0.0104602 0.00224656 -0.0106514 0.00928073 0.00664612 -0.00189015 0.0135347 0.0081576 -0.00593042 0.0173563
internal_weight=54233.4 31715.3 14642.6 22518.1 11398.2 6225.26 10627.5 17072.8 14973.6 11890.6 5172.91 3931.78 11041.8 10499.3 7916.57 9019.74 3244.39 2093.56 5317.72 2582.74
internal_count=230975 145604 58673 85371 47667 23494 45102 86931 74820 40269 24173 16133 58687 36116 28053 39765 11006 7673 24336 8063
is_linear=0
shrinkage=0.03


Tree=37
num_leaves=21
num_cat=0
split_feature=0 1 4 1 4 2 4 1 2 3 0 7 1 1 5 0 6 2 1 2
split_gain=1461.01 1251.34 803.275 840.075 647.36 617.129 410.771 749.365 380.691 313.781 245.918 194.834 178.744 154.513 105.515 77.8704 67.4384 50.7099 73.1256 35.036
threshold=2.0804698095306944 649270.00000000012 855001.33333333349 10569652.500000002 5987414.171428577 9981441.5000000019 534277.85714285728 190232.50000000003 190634.40000000005 126443.8 4.3518157793850056 55.555917739868171 1413138.0000000002 144305.50000000003 1.1017804470576851 0.85320894715377193 0.82911547991020906 128130.20000000001 949769.50000000012 260869.80000000002
decision_type=2 2 2 2 2 2 2 2 2 2 2 2 2 2 2 2 2 2 2 2
left_child=1 6 12 4 -4 -5 7 9 -9 -1 13 15 14 16 -3 -8 -2 -15 -19 -13
right_child=10 2 3 5 -6 -7 11 8 -10 -11 -12 19 -14 17 -16 -17 -18 18 -20 -21
leaf_value=-0.0060267760088180142 0.017639537135136371 0.016154922563387929 -0.00013643112077341469 0.029576333942384073 -0.016213834270698183 0.0050421071538639612 -0.016225281243938582 0.01418587662150053 -0.0015929893344957713 -0.016037693734844028 0.023889151458873284 -0.00018311963768805013 0.024180829775580455 0.024795723861509016 0.0047439107208510755 -0.0057678774380265155 -0.0021879232859860608 0.0061602627154699868 0.015205311567174298 -0.027067732028030974
leaf_weight=8853.5731488317251 181.49001376330853 1538.3692233115435 12584.93480297178 1239.0039253234863 2745.798808529973 3614.7652979493141 1358.0629448518157 1997.5009278655052 4423.9475652426481 4133.4507576972246 1510.9043609797955 45.377047747373581 1281.6439107656479 304.40634207427502 1386.700461268425 1213.5253254771233 1033.8971018046141 1238.6100908070803 2294.8682671636343 1130.8250290155411
leaf_count=44579 567 4993 51593 3346 12716 13315 7729 6668 19516 23092 4595 212 3669 854 5113 5771 4234 4342 7246 6825
internal_value=2.77023e-06 -0.00182882 0.00291319 0.00042777 -0.00301596 0.0113049 -0.00682373 -0.00506792 0.0033153 -0.00921301 0.0132699 -0.0159165 0.0148386 0.0100948 0.0107453 -0.0112905 0.00077285 0.0130469 0.0120347 -0.0260305
internal_weight=54111.7 47547.5 24391.2 20184.5 15330.7 4853.77 23156.3 19408.5 6421.45 12987 6564.18 3747.79 4206.71 5053.27 2925.07 2571.59 1215.39 3837.88 3533.48 1176.2
internal_count=230975 209137 94745 80970 64309 16661 114392 93855 26184 67671 21838 20537 13775 17243 10106 13500 4801 12442 11588 7037
is_linear=0
shrinkage=0.03


Tree=38
num_leaves=21
num_cat=0
split_feature=0 1 1 2 1 2 1 2 0 4 1 1 2 3 6 7 1 7 2 3
split_gain=1422.4 987.276 462.029 607.707 456.392 424.194 531.752 432.144 409.577 307.188 537.127 280.315 478.377 268.551 242.082 223.076 199.063 163.384 154.369 122.374
threshold=0.78292968968619603 555436.50000000012 2649180.5000000005 3804853.1000000006 8360914.5000000009 918640.80000000016 3610047.5000000005 4219260.5000000009 2.4600417375091559 1374429.523809524 811677.00000000012 49113.500000000007 114547.50000000001 8726487.8500000015 0.54941852603110219 43.894163131713874 1198347.5000000002 48.156768798828132 40332.30000000001 5331560.6500000013
decision_type=2 2 2 2 2 2 2 2 2 2 2 2 2 2 2 2 2 2 2 2
left_child=2 8 9 -4 19 16 15 -8 11 10 14 18 -13 -6 -1 -7 -3 -11 -2 -5
right_child=1 5 3 4 13 6 7 -9 -10 17 -12 12 -14 -15 -16 -17 -18 -19 -20 -21
leaf_value=-0.00099743418646036511 -0.0061653619234762836 0.011564160447166821 0.01629471099875502 -0.0064220247569490201 0.023361892498569126 0.0066702503161131035 0.023115216992952239 0.0068672744678420806 0.010699616345011475 -0.010170519181503626 0.0070996201322986114 0.0095267814655957354 -0.0051780519651530568 -0.0023498772756126124 -0.012279842816816751 -0.0054385818316506828 0.024485004977986672 -0.025160852031509407 -0.018958857206948242 -0.024357678195336453
leaf_weight=2181.3098468557 2375.6027691811323 2899.9101099446416 1663.6410787031054 522.90764047205448 472.39645060896873 2164.7774193063378 1965.5449328646064 5881.9828276187181 2049.0576320588589 1202.3638668134809 2017.7607122957706 2768.2912267893553 7092.1034528166056 1617.1597873717546 7948.5312008559704 3726.192419372499 1703.525408282876 1435.8082948178053 1320.7618878185749 991.64146013557911
leaf_count=10633 12291 9968 5337 2243 1436 8215 5689 20979 7050 5979 7450 10688 33088 6582 41986 15870 4899 7972 7627 4993
internal_value=2.87008e-06 0.00374501 -0.00633204 0.001297 -0.00562588 0.00846407 0.00582317 0.0109368 -0.00180143 -0.00905004 -0.00703489 -0.00369092 -0.00104969 0.00346291 -0.00985034 -0.000988903 0.0163456 -0.0183289 -0.0107367 -0.0181653
internal_weight=54001.3 33947.8 20053.5 5267.75 3604.11 18341.9 13738.5 7847.53 15605.8 14785.8 12147.6 13556.8 9860.39 2089.56 10129.8 5890.97 4603.44 2638.17 3696.36 1514.55
internal_count=230975 136364 94611 20591 15254 65620 50753 26668 70744 74020 60069 63694 43776 8018 52619 24085 14867 13951 19918 7236
is_linear=0
shrinkage=0.03


Tree=39
num_leaves=21
num_cat=0
split_feature=0 1 1 2 1 2 3 1 4 2 0 0 2 1 6 4 1 1 7 2
split_gain=1344.52 709.048 647.837 671.525 551.134 472.223 376.522 518.516 356.256 342.49 327.183 281.943 254.265 291.401 241.547 223.213 207.199 161.467 122.966 111.172
threshold=0.94201595258082149 580134.50000000012 1638699.0000000002 2068440.5000000002 8360914.5000000009 8371585.7000000011 1253157.7500000002 434610.50000000006 6515501.0476190485 560370.10000000021 2.9043479605430194 3.5095012176107336 918640.80000000016 5331623.0000000009 0.76264646464646479 289219.04761904769 38703.500000000007 2812017.5000000005 35.704397201538093 1310424.2000000002
decision_type=2 2 2 2 2 2 2 2 2 2 2 2 2 2 2 2 2 2 2 2
left_child=2 10 6 17 8 -6 7 15 -5 -9 14 12 -3 -14 -2 -1 -16 19 -8 -4
right_child=1 11 3 4 5 -7 18 9 -10 -11 -12 -13 13 -15 16 -17 -18 -19 -20 -21
leaf_value=-0.0071999947550331674 0.0079594743712611826 0.015875383788117779 0.017804675698272762 -0.0045502895433331206 0.027381238793661451 0.00035658955587534796 -0.0037258310424347625 0.010766074700624375 -0.02436125162205836 -0.0052641815454062685 0.012968018449902785 0.022622995104779751 0.00079532914467035165 0.011390772665209613 -0.012149142580664959 -0.016628550471574102 -0.0015437597507556716 0.026149604673684729 -0.022714076255811445 0.00051386666768817783
leaf_weight=8077.027057364583 1781.6813965141773 2949.6396481394768 707.48226392269135 3231.5680725425482 768.3346416503191 2398.6111192107201 368.79968209564686 2168.7599828019738 1093.3473856896162 2684.0676532387733 1467.5601665303111 1352.3127330169082 4968.9753427505493 4408.9538425803185 2193.2575894743204 3137.6675783097744 6793.3019909337163 881.78212090581656 1830.0305341333151 635.07570505142212
leaf_count=41435 7247 9423 2210 13844 2176 9498 1796 7615 5560 12296 4910 4153 19265 14658 11910 18202 29323 2444 10454 2556
internal_value=2.88874e-06 0.00492646 -0.00455701 0.00170174 -0.0025957 0.00691306 -0.00788616 -0.00629281 -0.00955854 0.00189984 -0.000320439 0.00961948 0.00819302 0.00577669 -0.00213147 -0.00983793 -0.00413211 0.0161761 -0.0195293 0.00962553
internal_weight=53898.2 25915.7 27982.6 9716.2 7491.86 3166.95 18266.4 16067.5 4324.92 4852.83 12235.8 13679.9 12327.6 9377.93 10768.2 11214.7 8986.56 2224.34 2198.83 1342.56
internal_count=230975 100889 130086 38288 31078 11674 91798 79548 19404 19911 53390 47499 43346 33923 48480 59637 41233 7210 12250 4766
is_linear=0
shrinkage=0.03


Tree=40
num_leaves=21
num_cat=0
split_feature=0 1 0 1 2 1 4 1 1 2 0 6 6 4 3 2 2 7 0 1
split_gain=1283.49 884.985 451.606 416.494 555.877 427.046 289.418 403.693 283.455 297.258 279.811 245.348 224.621 178.784 176.778 145.626 133.119 125.594 120.214 113.539
