tree
version=v4
num_class=1
num_tree_per_iteration=1
label_index=0
max_feature_idx=69
objective=binary sigmoid:1
feature_names=Column_0 Column_1 Column_2 Column_3 Column_4 Column_5 Column_6 Column_7 Column_8 Column_9 Column_10 Column_11 Column_12 Column_13 Column_14 Column_15 Column_16 Column_17 Column_18 Column_19 Column_20 Column_21 Column_22 Column_23 Column_24 Column_25 Column_26 Column_27 Column_28 Column_29 Column_30 Column_31 Column_32 Column_33 Column_34 Column_35 Column_36 Column_37 Column_38 Column_39 Column_40 Column_41 Column_42 Column_43 Column_44 Column_45 Column_46 Column_47 Column_48 Column_49 Column_50 Column_51 Column_52 Column_53 Column_54 Column_55 Column_56 Column_57 Column_58 Column_59 Column_60 Column_61 Column_62 Column_63 Column_64 Column_65 Column_66 Column_67 Column_68 Column_69
feature_infos=[0.50000062922841426:14.988973535363726] [-32.33590781216872:14.422184219713019] [0.50000277432528406:225.04216149244729] [12.100000381469727:39097.1015625] [0:54.654658197962171] [0:39.678059288576783] [1084:69828097.200000182] [1084:69828097.200000182] [1.9141922823930662e-07:36.046053390221402] [0:1] [1084:69828097.200000182] [1084:69828097.200000182] [0:31.474793648496195] [0:25.941158900513205] [0:20.493255506723909] [-18.347770941561361:164.9337255048336] [-9.142663418666233:82.863092248625378] [-5.6651142934806504:39.717024775416938] [0:419.5044846540755] [0:292.727607117893] [0:200.83149510590263] [0:22.919316200701186] [0:16.426698416093473] [0:17.955895230820524] [0:14.151594987249016] [-6.5345845937728884:9.6481350660324132] [-5.7207052111625671:6.8238686084747329] [-5.6111685037612915:5.805937199365526] [0:10] [0:10] [0:10] [0:10] [0:75] [0:23] [0.028639618138424822:1] [0:61] [0:1] [0:1] [0:1] [0:1] [0:1] [9.914225006103516:90.702699089050313] [-1:1] [-99.18692607879639:97.928110694885319] [0:1] [0.63257229328155518:76.408266258239763] [0.50661190003156664:896.6828979492268] [12.229236078262328:76.199689674377453] [-1:1] [-0.52361277788877492:0.4180393621325495] [0:94.81152229309086] [0.48701298236846924:99.054949378967294] [3.5484911799430852:93.999431228637704] [-282.60783948778698:251.73547290049444] [0:1] [0:1] [0:1] [0:1] [0:1] [0:1] [0:1] [0:1] [0:1] [0:1] [0:1] [0:1] [0:1] [0:1] [0:6] [1:12]
tree_sizes=2420 2460 2443 2440 2440 2439 2423 2460 2447 2472 2446 2431 2450 2460 2426 2440 2447 2441 2449 2468 2441 2467 2448 2433 2441 2470 2449 2436 2456 2451 2458 2447 2447 2457 2450 2444 2465 2462 2463 2442 2451 2472 2466 2468 2461 2453 2455 2464 2452 2455 2458 2459 2449 2464 2459 2452 2474 2442 2444 2443 2451 2456 2459 2448 2457 2455 2462 2455 2455 2451 2455 2460 2461 2464 2432 2450 2468 2452 2447 2463 2445 2454 2468 2467 2475 2458 2452 2447 2450 2439 2452 2450 2474 2451 2454 2452 2446 2467 2461 2450 2465 2451 2439 2455 2456 2459 2459 2460 2461 2451 2436 2447 2462 2439 2447 2442 2444 2491 2444 2462 2415 2456 2471 2462 2432 2451 2471 2438 2466 2443 2447 2459 2442 2464 2452 2488 2469 2436 2452 2444 2450 2450 2465 2469 2465 2455 2419 2435 2441 2458 2465 2463 2449 2443 2431 2444 2466 2451 2465 2424 2468 2451 2450 2439 2480 2453 2465 2469 2461 2409 2451 2470 2446 2426 2446 2472 2441 2333 2470 2460 2456 2438 2458 2443 2459 2443 2464 2437 2424 2462 2449 2441 2446 2456 2467 2449 2450 2455 2452 2335 2454 2464 2431 2460 2339 2479 2457 2469 2409 2463 2474 2430 2453 2450 2448 2450 2467 2338 2453 2439 2423 2437 2462 2466 2429 2461 2447 2475 2461 2432 2337 2451 2451 2471 2443 2315 2464 2421 2461 2467 2475 2450 2321 2457 2431 2450 2447 2463 2426 2319 2473 2463 2416 2453 2466 2433 2468 2479 2329 2431 2470 2448 2449 2462 2463 2474 2459 2454 2340 2431 2447 2456 2485 2451 2462 2445 2452 2458 2416 2430 2437 2446 2440 2451 2464 2450 2461 2452 2463 2419 2458 2460 2418 2463 2442 2450 2474 2465 2444 2464 2476 2460 2454 2460 2442 2457 2424 2456 2444 2429 2449 2475 2448 2436 2440 2472 2453 2420 2450 2468 2473 2450 2441 2440 2435 2455 2429 2463 2465 2473 2440 2453 2453 2444 2470 2461 2453 2461 2434 2440 2470 2452 2463 2412 2466 2492 2477 2454 2467 2444 2482 2446 2448 2453 2455 2419 2439 2478 2439 2456 2468 2478 2442 2471 2459 2445 2445 2449 2454 2452 2466 2460 2431 2451 2447 2441 2469 2460 2412 2440 2451 2454 2467 2472 2456 2463 2435 2475 2449 2428 2428 2457 2429 2452 2463 2435 2442 2460 2459 2449 2468 2441 2465 2435 2433 2444 2466 2449 2446 2451 2471 2473 2466 2459 2435 2424 2453 2446 2431 2442 2455 2416 2467 2453 2444 2443 2465 2453 2460 2426 2465 2454 2468 2414 2426 2446 2465 2451 2453 2450 2478 2426 2464 2461 2459 2460 2477 2425 2443 2437 2457 2447 2466 2444 2453 2451 2449 2434 2460 2448 2438 2426 2446 2446 2452 2428 2458 2421 2443 2453 2467 2458 2455 2476 2411 2446 2457 2454 2457 2415 2423 2420 2465 2440 2417 2451 2454 2417 2460 2462 2437 2459 2464 2459 2469 2439 2440 2404 2441 2412

Tree=0
num_leaves=21
num_cat=0
split_feature=6 34 11 6 11 6 6 11 6 11 6 34 11 6 41 6 11 0 8 34
split_gain=5990.33 1473.94 1057.79 1436.24 914.153 639.018 566.24 520.832 461.194 368.502 494.453 366.659 240.014 469.738 212.571 209.916 197.926 165.995 152.292 145.909
threshold=456584.50000000006 0.86049260542085892 660553.30000000016 1913178.5000000002 2378273.4000000004 76293.000000000015 4612634.5000000009 137746.45000000004 913627.50000000012 1544957.4000000001 955058.50000000012 0.55848572497326243 517879.95000000007 107010.00000000001 48.182773590087898 3626565.5000000005 353635.8000000001 2.8078278240199044 0.00069776816135085713 0.94779143832668644
decision_type=2 2 2 2 2 2 2 2 2 2 2 2 2 2 2 2 2 2 2 2
left_child=1 11 8 9 15 -3 -6 -7 16 10 -4 -1 13 -13 -11 -5 19 -10 -9 -2
right_child=2 5 3 4 6 7 -8 18 17 14 -12 12 -14 -15 -16 -17 -18 -19 -20 -21
leaf_value=0.0043002439318893734 0.028576598245483101 -0.027004912152634761 -0.0062457234790184021 0.020354131717165328 -0.0016307768242523209 0.0013227780122054846 0.012208920802770794 -0.024612099488200607 0.036208616974439389 -0.0023069525365180337 0.011274792518744498 -0.01146962624734702 -0.018014334030390877 0.001236262314076001 -0.016950830005447528 0.036208245717114375 0.0082307034227850559 0.011884308674651902 -0.012995926845698932 0.0057627082337596775
leaf_weight=3276.0139582306147 1040.9130385220051 4947.780172124505 3176.1922990530729 2174.7025457471609 3749.2423252463341 1753.6615236699581 9163.7408421337605 1842.4567399173975 1681.6559982001781 1606.8148745447397 2666.9345714747906 5471.3300803154707 1555.9138456583023 5022.7080559283495 2005.825571462512 1148.6219625473022 1982.241275280714 297.10822154581547 2263.8653134256601 333.02699106931686
leaf_count=12839 3604 22305 13078 7866 15112 6971 34550 8223 5581 6497 10102 23066 6751 19974 8663 3812 7622 1122 9609 1296
internal_value=-6.13442e-08 -0.010582 0.00891303 0.00638887 0.0118019 -0.0190661 0.00819061 -0.0123632 0.0210689 -0.00290571 0.00175103 -0.00459911 -0.00701857 -0.00538827 -0.0104376 0.0258337 0.014296 0.0325564 -0.018208 0.0230468
internal_weight=57160.8 26133.7 31027 25692.1 16236.3 10807.8 12913 5859.98 5334.95 9455.77 5843.13 15326 12050 10494 3612.64 3323.32 3356.18 1978.76 4106.32 1373.94
internal_count=228643 109738 118905 99680 61340 47108 49662 24803 19225 38340 23180 62630 49791 43040 15160 11678 12522 6703 17832 4900
is_linear=0
shrinkage=1


Tree=1
num_leaves=21
num_cat=0
split_feature=34 10 34 34 7 26 10 11 26 68 46 13 17 12 46 51 37 26 17 0
split_gain=1622.66 1117.14 324.535 249.63 187.489 152.936 127.615 117.349 103.323 85.5429 69.8749 68.791 68.2414 61.9208 60.3121 57.3144 54.3937 51.0969 50.9913 40.7066
threshold=0.82785847686241965 316849.20000000007 0.59446424218505156 0.93228578818660657 465467.1428571429 -0.7268093710765241 60460.400000000001 1315148.1000000003 -0.92110083065927018 1.5000000000000002 5.8019299507141122 2.5335921980051066 0.16848901444037365 2.3473180562364773 1.5440342426300051 74.518634796142592 1.0000000180025095e-35 -0.92110083065927018 0.35064654850808075 2.9076897024854169
decision_type=2 2 2 2 2 2 2 2 2 2 2 2 2 2 2 2 2 2 2 2
left_child=2 3 5 11 13 19 -5 10 -6 12 -3 -2 -7 -4 -9 -8 -13 -16 -10 -1
right_child=1 7 4 6 8 9 15 14 18 -11 -12 16 -14 -15 17 -17 -18 -19 -20 -21
leaf_value=0.019132034280419562 -0.015105574511863467 -0.0073484451005580891 -0.0065914959823977467 -0.022672869090414528 0.01335772951744383 0.016567752650561908 -0.015417113569041805 -0.0064124700798892636 0.0053880824209411498 0.004900540580000912 -0.00068597115045843972 -0.0095753853095657936 0.0079762901112254911 0.00024804672202690574 0.011145585732818928 -0.0054369722620108913 -0.0033609557946341073 0.0025675375139126281 0.0013291488699905176 -0.027843489917238191
leaf_weight=1338.3780558109283 1142.8224543482065 2111.5537249445915 1429.6070674359798 2251.7784846276045 1156.4364892542362 1310.222624540329 2400.0846957266331 610.79884557425976 8018.0096011757851 4493.2282238304615 4305.5854796767235 3032.9683488607407 2279.969836294651 7146.9917339384556 693.65893426537514 660.37926176190376 2177.8369415849447 6311.4870549291372 4268.5237476527691 16.810664847493172
leaf_count=4868 4905 8737 5899 9997 4332 4829 10312 2514 31240 17547 17273 12702 8772 28565 2626 2711 8863 24914 16961 76
internal_value=1.76639e-09 -0.00559253 0.00456868 -0.0124527 0.00257372 0.00922278 -0.0172521 0.000110406 0.00478485 0.00765918 -0.00287825 -0.00843997 0.0111117 -0.000892016 0.00262863 -0.0132636 -0.00697809 0.00341695 0.00397795 0.0185493
internal_weight=57157.1 25699 31458.2 11665.9 22019.6 9438.61 5312.24 14033.1 13443 8083.42 6417.14 6353.63 3590.19 8576.6 7615.94 3060.46 5210.81 7005.15 12286.5 1355.19
internal_count=228643 105554 123089 49490 86997 36092 23020 56064 52533 31148 26010 26470 13601 34464 30054 13023 21565 27540 48201 4944
is_linear=0
shrinkage=0.03


Tree=2
num_leaves=21
num_cat=0
split_feature=6 34 11 6 11 6 34 11 6 11 6 6 6 11 6 26 34 11 41 0
split_gain=5516.1 1287.07 948.112 1432.09 785.021 905.497 413.158 400.273 375.035 414.937 352.9 294.271 219.213 561.737 184.562 172.941 161.453 161.197 156.507 146.998
threshold=358087.00000000006 0.89289781972014326 432128.10000000003 955058.50000000012 1439580.5000000002 3185165.0000000005 0.6868553960659225 966343.05000000016 78773.000000000015 134247.60000000003 1603094.5000000002 654335.00000000012 103882.50000000001 264514.55000000005 571122.00000000012 -0.55950600923970339 0.94645029544664594 113896.60000000002 48.182773590087898 2.8078278240199044
decision_type=2 2 2 2 2 2 2 2 2 2 2 2 2 2 2 2 2 2 2 2
left_child=1 6 11 7 10 -6 15 14 -3 -10 -5 16 17 -14 -4 -1 -2 -8 -9 -13
right_child=2 8 3 4 5 -7 12 18 9 -11 -12 19 13 -15 -16 -17 -18 -19 -20 -21
leaf_value=0.01065330740326683 0.018385145065926776 -0.027293446142655813 -0.0066393586336497704 0.012810560239801056 -0.0025746265176584166 0.011634941795268368 -0.011092575560864803 -0.0070384639003278227 -0.00013708174235286421 -0.021187470048972878 0.029394699184076105 0.034382655296181543 0.0049166794834038362 -0.015535041431492747 0.0058662532045679425 -0.0023529339344265316 -0.0017147370177216907 -0.023353869947829273 -0.021768306588902418 0.0094284309856744915
leaf_weight=1144.3978621661663 1822.8310383707285 4083.2833880931139 2100.7552747875452 2447.6189558804035 6127.467050164938 11825.762997180223 3835.5151363760233 1170.0961389541626 1261.6782892793417 2538.1869203597307 2186.3291363716125 1489.3456284403801 2426.1475047320127 2408.6888697743416 2148.2678637951612 4694.5549571812153 448.07982158660889 1289.4064350277185 1458.3133042007685 247.80401231348515
leaf_count=4342 6652 18536 8670 9176 24794 44610 16185 4836 5059 11204 7507 4973 9487 10350 8352 18979 1810 5737 6437 947
internal_value=-2.88154e-09 -0.0110802 0.00783925 0.00597707 0.00962661 0.00678519 -0.00613995 -0.00600894 -0.0209812 -0.0141981 0.0206351 0.0215288 -0.00985454 -0.00527226 -0.000316634 0.000196207 0.0144192 -0.0141775 -0.015211 0.0308229
internal_weight=57154.5 23681.9 33472.7 29464.6 22587.2 17953.2 15798.7 6877.43 7883.15 3799.87 4633.95 4008.06 9959.76 4834.84 4249.02 5838.95 2270.91 5124.92 2628.41 1737.15
internal_count=228643 99879 128764 114382 86087 69404 65080 28295 34799 16263 16683 14382 41759 19837 17022 23321 8462 21922 11273 5920
is_linear=0
shrinkage=0.03


Tree=3
num_leaves=21
num_cat=0
split_feature=6 34 10 6 10 6 6 7 34 10 6 6 6 10 6 53 26 34 7 10
split_gain=5192.98 1254.98 1131.88 1330.08 925.732 656.128 447.536 399.374 391.153 383.362 377.432 344.258 289.046 707.744 243.054 205.496 185.905 183.93 166.959 148.41
threshold=456584.50000000006 0.89441323345817747 588281.00000000012 1526326.0000000002 1781413.9000000001 4612634.5000000009 78773.000000000015 183834.71428571432 0.66106105903900036 1409075.0000000002 779971.00000000012 913627.50000000012 103882.50000000001 154704.60000000003 2821971.0000000005 -0.16229075712768928 -0.23702251687645912 0.94645029544664594 139936.1904761905 343941.30000000005
decision_type=2 2 2 2 2 2 2 2 2 2 2 2 2 2 2 2 2 2 2 2
left_child=1 8 11 9 14 -6 -3 -8 16 10 -4 17 18 -14 -5 -11 -1 19 -10 -2
right_child=2 6 3 4 5 -7 7 -9 12 15 -12 -13 13 -15 -16 -17 -18 -19 -20 -21
leaf_value=0.0081856491673605696 0.027832924163155907 -0.026610701869758644 -0.0085595801682824563 0.019023566087465207 -0.00081882763528894715 0.012116340241383047 -0.0018365529742007355 -0.020248140581071206 -0.010770391616299783 -0.0016938313321935836 0.0074220180088293607 0.032841548135769505 0.014200571520749361 -0.0094842664456012415 0.036505962101784264 -0.01927199376998795 -0.0030151908959476924 0.00013991137579263672 -0.023644879571099776 0.013003728727503695
leaf_weight=2119.8753665685654 1059.1261304318905 4027.5362748205662 2376.5582134723663 2010.9311597645283 5622.3478658944368 9480.2956279814243 1785.9955748021603 2609.6483537256718 4394.959710508585 894.49366743862629 3020.0415481925011 1662.3874149918556 1471.0423990041018 4977.6607406139374 1111.2213911116123 1809.0969704091549 3595.6750849634409 548.96829515695572 1142.1406427919865 1424.0888311564922
leaf_count=8138 3658 18306 9896 7289 22547 35612 7229 11500 18550 3605 11635 5578 5491 20839 3652 7906 14583 2193 5102 5334
internal_value=-1.0345e-08 -0.00985458 0.00829946 0.00587945 0.0103751 0.00730089 -0.0193865 -0.0127673 -0.00531881 -0.0042354 0.000384031 0.0218698 -0.00839836 -0.00408141 0.0252458 -0.0134562 0.00113916 0.0158545 -0.013426 0.0193286
internal_weight=57144.1 26124.5 31019.6 26325 18224.8 15102.6 8423.18 4395.64 17701.4 8100.19 5396.6 4694.57 11985.8 6448.7 3122.15 2703.59 5715.55 3032.18 5537.1 2483.21
internal_count=228643 109738 118905 102142 69100 58159 37035 18729 72703 33042 21531 16763 49982 26330 10941 11511 22721 11185 23652 8992
is_linear=0
shrinkage=0.03


Tree=4
num_leaves=21
num_cat=0
split_feature=6 34 10 6 10 6 6 11 10 10 6 6 6 34 41 10 6 41 6 34
split_gain=4905.47 1145.06 992.133 1412.61 826.242 805.419 417.893 417.278 374.523 326.248 589.148 265.034 229 227.446 186.757 186.079 185.021 168.954 164.224 144.543
threshold=358087.00000000006 0.86049260542085892 421729.90000000008 955058.50000000012 1200913.1000000003 2821971.0000000005 49692.000000000007 127260.85000000002 792997.00000000012 257025.80000000002 126872.50000000001 654335.00000000012 1603094.5000000002 0.71526986838774997 42.387845993041999 135981.20000000004 546064.00000000012 55.929555892944343 116621.50000000001 0.94779143832668644
decision_type=2 2 2 2 2 2 2 2 2 2 2 2 2 2 2 2 2 2 2 2
left_child=1 9 11 8 12 -6 -3 18 16 10 13 19 -5 -1 -10 -12 -4 -11 -8 -2
right_child=2 6 3 4 5 -7 7 -9 14 17 15 -13 -14 -15 -16 -17 -18 -19 -20 -21
leaf_value=-0.0010036150178862702 0.018345748113325098 -0.025958094382314459 -0.0069315282568491636 0.015475587563776058 -0.0022395153927886259 0.010906487316671922 -0.0095943356418296457 -0.019356629978282445 -0.0026932934504387538 -0.0074519229430499911 0.020340742957049719 0.030372478133088767 0.030731003759141257 -0.01161233970384627 -0.018002779932944874 0.0040059974322185663 0.0071702845582170358 -0.020636936688786321 0.0069656448082514588 -0.00089474055575842711
leaf_weight=3528.5977882295847 1902.2872386574745 3842.2899656444788 1565.4911859035492 1977.7921456098557 6237.737284809351 12804.944573000073 1375.7094048708677 3831.1542481333017 1019.1822504401207 2321.9676093608141 979.93748299777508 1697.2589423060417 1603.6318851858377 3753.7281555980444 2419.748681768775 1745.8659439831972 1800.3546354621649 1403.2993033826351 886.12327483296394 431.02666001021862
leaf_count=14188 6924 17475 6477 7291 25195 48340 5803 16864 4133 9631 3537 5758 5427 15920 10537 6853 6945 6174 3434 1737
internal_value=-1.06096e-08 -0.0104522 0.00739372 0.00548192 0.0090866 0.0066003 -0.0182102 -0.0133243 -0.00650269 -0.00483983 -0.00201879 0.0213526 0.0223064 -0.00647196 -0.0134656 0.00987841 0.000611379 -0.0124187 -0.00310659 0.0147915
internal_weight=57128.1 23668.7 33459.5 29428.9 22624.1 19042.7 9935.28 6092.99 6804.78 13733.4 10008.1 4030.57 3581.42 7282.33 3438.93 2725.8 3365.85 3725.27 2261.83 2333.31
internal_count=228643 99879 128764 114345 86253 73535 43576 26101 28092 56303 40498 14419 12718 30108 14670 10390 13422 15805 9237 8661
is_linear=0
shrinkage=0.03


Tree=5
num_leaves=21
num_cat=0
split_feature=6 34 10 6 10 6 6 10 34 6 10 6 6 10 6 53 26 10 34 34
split_gain=4617.36 1089.8 934.617 1329.49 782.84 881.317 397.431 352.496 352.44 316.516 365.56 250.355 188.613 517.535 174.097 166.947 155.487 160.381 136.086 120.401
threshold=358087.00000000006 0.89289781972014326 421729.90000000008 955058.50000000012 1509380.1000000003 3626565.5000000005 2507646.0000000005 792997.00000000012 0.6868553960659225 78773.000000000015 115407.90000000001 654335.00000000012 57945.500000000007 135981.20000000004 546064.00000000012 -0.086040794974246368 -0.55950600923970339 257025.80000000002 0.94779143832668644 0.97772552867758944
decision_type=2 2 2 2 2 2 2 2 2 2 2 2 2 2 2 2 2 2 2 2
left_child=1 8 11 7 6 -6 -5 14 16 -3 -11 18 -10 -14 -4 -9 -1 -18 -2 -13
right_child=2 9 3 4 5 -7 -8 15 12 10 -12 19 13 -15 -16 -17 17 -19 -20 -21
leaf_value=0.010169408804906188 0.017801937150390079 -0.025077000043029866 -0.0067239206391514605 0.014766458796978185 -0.0029939621368386023 0.010953854541403461 0.035129313907008894 -0.0048547162768677078 -0.014616854439836185 0.0013023354374669372 -0.019080012964368447 0.033346198217086231 0.0065901900838205513 -0.011736297078190176 0.0069556400017614711 -0.018387629024096474 0.0012921701284506072 -0.011060577774245132 -0.00086790657009519034 0.012869597286707786
leaf_weight=1144.1841313540936 1901.5959547460079 4070.5923485308886 1565.4135161787271 4023.8702702224255 6469.1678625047207 11026.952580213547 1098.0300267189741 1352.3593264967203 3517.8770097792149 1125.9048397839069 2669.9011251032352 1376.763807117939 2022.2241002619267 4413.795582279563 1800.2362459301949 2085.7944407761097 3380.8889108747244 1313.4407060593367 431.02241536974907 318.16270385682583
leaf_count=4342 6924 18536 6477 14862 26228 41551 3612 5546 15166 4493 11770 4574 7860 18733 6945 9124 13441 5538 1737 1184
internal_value=-1.49067e-08 -0.010143 0.00717416 0.00531879 0.00881645 0.00579667 0.0191318 -0.00630854 -0.00559877 -0.019266 -0.0130342 0.0207279 -0.00903114 -0.00597804 0.000593074 -0.0130646 0.000252966 -0.00216404 0.0143521 0.0295024
internal_weight=57108.2 23658.8 33449.4 29421.8 22618 17496.1 5121.9 6803.8 15792.4 7866.4 3795.81 4027.54 9953.9 6436.02 3365.65 3438.15 5838.51 4694.33 2332.62 1694.93
internal_count=228643 99879 128764 114345 86253 67779 18474 28092 65080 34799 16263 14419 41759 26593 13422 14670 23321 18979 8661 5758
is_linear=0
shrinkage=0.03


Tree=6
num_leaves=21
num_cat=0
split_feature=6 34 11 6 11 6 6 7 34 6 11 6 6 6 7 53 11 34 11 34
split_gain=4347.2 1060.21 875.635 1108.49 816.518 565.112 390.513 353.057 343.789 339.731 323.683 346.014 252.895 249.964 607.184 168.431 161.755 160.341 156.686 151.08
threshold=467274.00000000006 0.89441323345817747 660553.30000000016 1913178.5000000002 2794726.7500000005 9666286.5000000019 81336.000000000015 183834.71428571432 0.66106105903900036 913627.50000000012 2050119.3 955058.50000000012 3626565.5000000005 103882.50000000001 250219.26190476192 -0.21614249076463882 110819.75000000001 0.94928390757451475 353635.8000000001 0.95721322927205288
decision_type=2 2 2 2 2 2 2 2 2 2 2 2 2 2 2 2 2 2 2 2
left_child=1 8 9 10 12 -6 -3 -8 15 17 11 -4 -5 16 -15 -1 -10 18 -2 -11
right_child=2 6 3 4 5 -7 7 -9 13 19 -12 -13 -14 14 -16 -17 -18 -19 -20 -21
leaf_value=0.006466467167673946 0.02536369531721152 -0.024379604095569222 -0.0066254389389130992 0.016060399076832911 0.0002033866759967453 0.013253906368619141 -0.0010245480657182665 -0.018416607809093093 -0.0093412642680125255 0.033843803764972751 -0.01353290378867289 0.0063808946723917116 0.031466172422054219 0.0079599794640809723 -0.010862512669700107 -0.0037824552499551717 -0.021039932718503296 -0.0017994544008050459 0.01030177939621192 0.015249465036527231
leaf_weight=2815.5769565105438 994.80033898353577 4078.6736483126879 3574.782391756773 2692.9575135707855 6543.0867562144995 5493.3398517221212 1747.332275852561 2634.0071148723364 4094.7803191840649 1426.6333294510841 2001.1138341873884 3795.3449812978506 1489.3791429400444 2485.8324830830097 4064.3233183920383 2960.6154164224863 1437.0180159509182 553.53013303875923 1656.9406468868256 542.93457721173763
leaf_count=10894 3452 18601 14812 9887 26013 20432 7061 11607 17262 4715 8544 14654 5008 9570 17189 12063 6390 2227 6274 1988
internal_value=-1.38857e-08 -0.00895102 0.00765724 0.00538125 0.0101274 0.00615955 -0.0176993 -0.0114804 -0.00480668 0.0189122 -0.00283289 7.23453e-05 0.0215466 -0.00768475 -0.00371924 0.00121333 -0.0123803 0.0128866 0.0159523 0.0287181
internal_weight=57083 26318.2 30764.8 25590 16218.8 12036.4 8460.01 4381.34 17858.1 5174.84 9371.24 7370.13 4182.34 12082 6550.16 5776.19 5531.8 3205.27 2651.74 1969.57
internal_count=228643 110637 118006 99350 61340 46445 37269 18668 73368 18656 38010 29466 14895 50411 26759 22957 23652 11953 9726 6703
is_linear=0
shrinkage=0.03


Tree=7
num_leaves=21
num_cat=0
split_feature=34 10 26 34 34 11 34 4 11 4 34 46 68 16 25 0 4 2 1 16
split_gain=1313.9 714.649 254.268 205.842 168.168 143.438 116.916 105.408 86.9908 73.0267 65.5854 65.5451 60.3414 61.5885 53.9778 50.4601 48.7635 48.6814 57.4072 44.5992
threshold=0.80332081763400776 178961.20000000004 -0.74208892732858645 0.93813157088904775 0.53789673991095799 1439580.5000000002 0.92685803037275671 3.6827642263403177 528157.50000000012 2.9336014379589552 0.61023002131379178 2.0181361436843877 1.5000000000000002 0.65981568443260252 -1.3359765008091924 4.8113545757392027 3.0263770826628207 6.0154302134725954 4.9107151790237102 0.15811994188337616
decision_type=2 2 2 2 2 2 2 2 2 2 2 2 2 2 2 2 2 2 2 2
left_child=2 3 10 7 12 6 9 -2 16 -3 -1 -7 13 -4 -13 -8 -6 18 -5 -10
right_child=1 5 4 17 8 11 15 -9 19 -11 -12 14 -14 -15 -16 -17 -18 -19 -20 -21
leaf_value=0.017089597663502508 -0.010660839243527535 -0.0052078737584378308 0.013280739257494994 -0.017604031894999452 -0.0025804797855597276 -0.0049222198738606048 -0.0064797539847222928 -0.0023186438539000579 0.0065313505754949009 0.0013945572399595373 0.0087410113143964029 0.010011900888585581 0.0052820291928723281 -0.00082408415063856639 0.0019133376814827355 -0.019497358626118212 0.0021376312871221013 -0.0084075641737376503 -0.05640155400738376 0.002526484086152954
leaf_weight=1434.0547422915697 3773.9416760355234 2339.385595023632 2212.7057865858078 3193.7637852430344 3971.1545799672604 1128.4995352178812 3860.8217055797577 2134.0271900296211 3772.1995971798897 4240.9296085387468 2068.3509648889303 837.74477697908878 3144.8226539045572 318.75300611555576 6394.0776152908802 287.9863309264183 3915.3185753077269 555.67247100174427 34.697114184498787 7435.7547414749861
leaf_count=5237 16064 9614 8263 14125 16118 4594 15975 8740 14575 16897 7915 3175 12230 1277 25216 1255 15534 2345 179 29315
internal_value=-4.84748e-09 -0.00451219 0.00459332 -0.0111465 0.00352354 -0.0011438 -0.00343934 -0.00764754 0.00217581 -0.000952691 0.0121593 0.00180217 0.00805716 0.0115047 0.00285149 -0.00738336 -0.000238126 -0.0166093 -0.018021 0.00387438
internal_weight=57054.7 28781.5 28273.1 9692.1 24770.7 19089.4 10729.1 5907.97 19094.4 6580.32 3502.41 8360.32 5676.28 2531.46 7231.82 4148.81 7886.47 3784.13 3228.46 11208
internal_count=228643 118179 110464 41453 97312 76726 43741 24804 75542 26511 13152 32985 21770 9540 28391 17230 31652 16649 14304 43890
is_linear=0
shrinkage=0.03


Tree=8
num_leaves=21
num_cat=0
split_feature=6 34 10 6 10 6 6 10 10 6 10 6 6 6 34 41 26 8 10 41
split_gain=4026.43 922.574 881.007 1185.75 753.833 776.018 429.396 559.07 349.829 340.236 240.671 370.675 222.289 204.655 176.593 158.225 154.302 151.501 145.448 138.16
threshold=358087.00000000006 0.80332081763400776 421729.90000000008 998394.00000000012 1509380.1000000003 3626565.5000000005 86634.500000000015 154704.60000000003 922749.90000000002 2582915.0000000005 257025.80000000002 126872.50000000001 654335.00000000012 571122.00000000012 0.96009682366852833 48.182773590087898 -0.68208755850791924 0.0010229059291188547 135981.20000000004 54.405513763427741
decision_type=2 2 2 2 2 2 2 2 2 2 2 2 2 2 2 2 2 2 2 2
left_child=1 10 12 8 9 -6 14 -8 13 -5 11 16 -2 -4 -3 -10 -1 -9 -13 -12
right_child=2 6 3 4 5 -7 7 17 15 -11 19 18 -14 -15 -16 -17 -18 -19 -20 -21
leaf_value=0.0087797428277223439 0.013868750805030673 -0.017350981187552305 -0.007171237629668272 0.014653737155979356 -0.0029253747951099563 0.010234725572525159 0.0025564439219337557 -0.021317103114774104 -0.0054107345587699369 0.034049343250287044 -0.0047790201040083568 0.021471713791700601 0.028161854033289416 0.0059269584142123211 -0.028747297251644259 -0.019661437867628119 -0.0060800832345102654 -0.0096276398889715096 0.0048840293935024683 -0.018045030724674355
leaf_weight=723.8223053663969 2330.4596388190985 5152.2433103322983 2035.9816197305918 3787.6011273562908 6360.8405555784702 11017.975838214159 2315.3758215457201 2173.7586116194725 1197.2477253973484 1036.8002478033304 1734.9768164604902 733.10846582055092 1689.0199476331472 2271.2727672457695 1604.9297157675028 1692.4178538173437 4796.0786125659943 1844.6224234998226 1355.2095514088869 1191.9686126410961
leaf_count=2773 8661 22792 8455 13953 25770 41551 9204 9723 4927 3414 7119 2619 5758 8806 7511 7469 19823 7812 5293 5210
internal_value=-2.06064e-08 -0.00947929 0.00670137 0.00490035 0.00833046 0.00541798 -0.0147974 -0.00918546 -0.00568189 0.018822 -0.00287098 -5.85689e-05 0.0198748 -0.000264384 -0.0200578 -0.0137571 -0.00413152 -0.0159511 0.0107072 -0.0101815
internal_weight=57045.7 23626.1 33419.6 29400.1 22203.2 17378.8 13090.9 6333.76 7196.92 4824.4 10535.2 7608.22 4019.48 4307.25 6757.17 2889.67 5519.9 4018.38 2088.32 2926.95
internal_count=228643 99879 128764 114345 84688 67321 57042 26739 29657 17367 42837 30508 14419 17261 30303 12396 22596 17535 7912 12329
is_linear=0
shrinkage=0.03


Tree=9
num_leaves=21
num_cat=0
split_feature=34 11 34 26 34 4 68 24 11 25 36 48 41 34 46 49 51 37 34 10
split_gain=1210.24 651.748 226.158 203.29 148.826 127.586 95.8436 90.0876 87.1786 66.9672 66.5595 65.4089 61.6895 59.9313 58.476 56.7967 53.6857 44.92 44.0107 41.8424
threshold=0.76124860815872064 212394.50000000003 0.93813157088904775 -0.45847211554646489 0.9339949021731403 3.6827642263403177 1.0000000180025095e-35 1.3893999995862074 1776245.6500000001 -1.3359765008091924 0.52600945338534555 1.0000000180025095e-35 70.844074249267592 0.59037523090071964 4.6884527206420907 -0.36275568604469294 25.664409637451175 1.0000000180025095e-35 0.60242433147223051 792997.00000000012
decision_type=2 2 2 2 2 2 2 2 2 2 2 2 2 2 2 2 2 2 2 2
left_child=3 2 5 11 7 17 16 19 14 -9 -4 -1 15 -13 -6 -8 -5 -2 -18 -3
right_child=1 4 10 6 8 -7 12 9 -10 -11 -12 13 -14 -15 -16 -17 18 -19 -20 -21
leaf_value=0.0028807549265445873 -0.011557011104138494 -0.0056951630925962263 -0.017892739876872548 0.00088103776263311095 -0.013133165232410596 -0.0013278631782554823 -0.0083701292653522337 0.0084590770921567464 1.1279898971620104e-05 0.0015405720671205498 -0.0097499808486070302 0.015967533124379072 -0.0021837582658948136 0.008884530691847593 -0.0049648584840857896 0.0037629447589370372 0.013164269371777481 -0.0055593974673921699 0.0063117482095434206 -0.00013187187556626189
leaf_weight=855.6772128790617 3016.2910679876804 2044.9482179135084 2650.4859291017056 837.3073343783617 1122.6796533614397 2868.8334380835295 358.22862322628498 1452.4294318109751 2303.8702231049538 9462.5248680710793 1370.6783464848995 1895.1232452690601 2109.6582235395908 2484.7853182405233 2652.1454340368509 11315.06682099402 1518.3854092806578 1791.3722671866417 1897.8898578733206 3004.2338167130947
leaf_count=3362 12924 8423 11808 3331 4786 11697 1489 5568 9147 37567 5864 6952 8507 9486 10899 44377 5671 7459 7361 11965
internal_value=-2.4127e-08 -0.00363008 -0.00935368 0.00526292 -0.000592685 -0.00633462 0.00375226 0.00092842 -0.00458748 0.0024612 -0.0151171 0.0104671 0.00253738 0.0119492 -0.00739421 0.00339061 0.00768884 -0.00932225 0.0093574 -0.00238504
internal_weight=57012.6 33740.5 11697.7 23272.1 22042.8 7676.5 18036.5 15964.1 6078.7 10915 4021.16 5235.59 13783 4379.91 3774.83 11673.3 4253.58 4807.66 3416.28 5049.18
internal_count=228643 138107 49752 90536 88355 32080 70736 63523 24832 43135 17672 19800 54373 16438 15685 45866 16363 20383 13032 20388
is_linear=0
shrinkage=0.03


Tree=10
num_leaves=21
num_cat=0
split_feature=6 10 6 34 10 6 6 7 10 6 10 10 6 34 6 53 34 6 10 6
split_gain=3731.83 1039.83 953.136 902.904 817.637 507.262 397.241 386.581 352.734 488.852 516.33 330.134 314.996 251.856 246.759 214.338 186.929 181.881 177.655 123.268
threshold=571122.00000000012 759389.00000000012 2067856.0000000002 0.89143455338605471 2634855.1000000006 9666286.5000000019 107010.00000000001 239799.6904761905 697378.20000000007 221557.50000000003 268112.70000000007 1545517.1000000003 1204001.0000000002 0.71526986838774997 955058.50000000012 -0.21614249076463882 0.96300573090411434 3626565.5000000005 528869.60000000009 191059.50000000003
decision_type=2 2 2 2 2 2 2 2 2 2 2 2 2 2 2 2 2 2 2 2
left_child=3 12 11 8 17 -6 -5 19 9 13 -11 14 16 -1 -3 -13 18 -4 -2 -8
right_child=1 2 4 6 5 -7 7 -9 -10 10 -12 15 -14 -15 -16 -17 -18 -19 -20 -21
leaf_value=-0.0010871604379904514 0.024137957223589111 -0.0059464196787737938 0.017099708722446469 -0.021445582158844425 0.00025157479413681063 0.012553702532312487 -0.0069080241027010937 -0.016975064550254718 -0.017534208196903558 0.018254798113631059 -0.0016763180219433805 0.0008853079303239534 0.031383406069598142 -0.0098130457161271865 0.008084441704683679 -0.014742555629004964 -0.0027505909580661501 0.031566683526369689 0.0091142791507001029 0.0081053510807795257
leaf_weight=5175.5019960254431 1690.3270109146833 1951.3735462129116 2036.9365557432175 4783.9965862780809 6650.491637557745 5520.6859512031078 945.21865974366665 2425.4182770997286 1592.7078520357609 1729.9963691681623 3612.4489373266697 1147.2972595989704 1547.8526647239923 7008.0562746971846 2673.8932973444462 2535.142308101058 459.37321758270264 1269.6110779643059 1219.4160939604044 1026.9401008039713
leaf_count=20802 5897 8075 7418 21800 26382 20539 3952 10666 6958 6298 14607 4569 5176 29689 10188 10900 1849 4248 4637 3993
internal_value=-4.02134e-08 0.00762199 0.00502581 -0.00773038 0.00942558 0.00583166 -0.0154628 -0.00895437 -0.00401694 -0.00278853 0.0047778 -0.00317121 0.0201808 -0.00610634 0.0021649 -0.00987355 0.0150341 0.0226546 0.0178418 0.000909722
internal_weight=57002.7 28702.4 23785.4 28300.3 15477.7 12171.2 9181.57 4397.58 19118.7 17526 5342.45 8307.71 4916.97 12183.6 4625.27 3682.44 3369.12 3306.55 2909.74 1972.16
internal_count=228643 109878 92319 118765 58587 46921 40411 18611 78354 71396 20905 33732 17559 50491 18263 15469 12383 11666 10534 7945
is_linear=0
shrinkage=0.03


Tree=11
num_leaves=21
num_cat=0
split_feature=6 10 6 10 34 6 10 6 10 6 6 11 10 6 41 6 34 41 46 0
split_gain=3528.82 819.085 1064.33 859.961 793.156 576.866 413.467 388.304 288.456 586.586 256.993 302.377 237.377 232.026 217.108 197.926 195.95 154.72 151.835 124.069
threshold=358087.00000000006 421729.90000000008 1385255.5000000002 1781413.9000000001 0.89289781972014326 4612634.5000000009 987214.40000000014 853905.50000000012 257025.80000000002 107010.00000000001 37269.000000000007 44764.000000000007 132600.20000000004 2821971.0000000005 42.387845993041999 668860.00000000012 0.72462132364968768 55.929555892944343 7.4936816692352304 2.8078278240199044
decision_type=2 2 2 2 2 2 2 2 2 2 2 2 2 2 2 2 2 2 2 2
left_child=4 15 6 13 8 -5 7 -3 9 16 -6 -12 -11 -4 -8 -2 -1 -10 -13 -17
right_child=1 2 3 5 10 -7 14 -9 17 12 11 18 -14 -15 -16 19 -18 -19 -20 -21
leaf_value=-0.001889232141714284 0.013499080082837142 -0.0027830890883225436 0.016402625977227209 -0.001860510179202498 -0.024460627778685823 0.01006984137736096 -8.5390349194362154e-05 0.014969869388056797 -0.0072577410186287824 0.016657071120815912 0.0071141383971239525 -0.023232663124376222 0.0012342048325484989 0.032297072947050719 -0.014469280017837254 0.030505251764027835 -0.011508274861519714 -0.019133545863397643 -0.011678612307948269 0.0069983967034286769
leaf_weight=3380.8407126814127 2386.6754314005375 4039.602511331439 2730.3041537255049 5937.2901681810617 2574.7827398180962 9458.6304746717215 1350.465430021286 1528.3816703855991 2612.1833632737398 1441.2197167873383 602.17163467407227 1526.2209285795689 2383.5629055052996 1185.4846532642841 3141.0370645076036 1386.2618738114834 4369.2190990447998 1587.2723505795002 3108.5423351973295 236.56116586923599
leaf_count=13658 8869 16412 9948 23891 11991 35612 5401 5618 10887 5282 2403 6957 9491 3934 13529 4647 18757 7005 13448 903
internal_value=-1.63126e-08 0.0062763 0.00454001 0.00866171 -0.00888273 0.00546901 -0.00337261 0.00209 -0.0050113 -0.00256773 -0.0167004 -0.012885 0.00704571 0.0212146 -0.0101445 0.0189953 -0.00731212 -0.0117465 -0.0154833 0.0270786
internal_weight=56966.7 33380.7 29371.2 19311.7 23586 15395.9 10059.5 5567.98 15774.3 11574.8 7811.72 5236.93 3824.78 3915.79 4491.5 4009.5 7750.06 4199.46 4634.76 1622.82
internal_count=228643 128764 114345 73385 99879 59503 40960 22030 65080 47188 34799 22808 14773 13882 18930 14419 32415 17892 20405 5550
is_linear=0
shrinkage=0.03


Tree=12
num_leaves=21
num_cat=0
split_feature=6 34 10 6 10 6 10 10 6 6 7 34 10 6 6 26 41 41 8 34
split_gain=3329.73 746.953 742.877 1125.65 740.553 660.732 344.323 258.554 392.773 256.757 356.472 202.531 175.958 162.202 156.581 150.475 133.862 131.367 123.231 121.135
threshold=298476.50000000006 0.86049260542085892 343941.30000000005 853905.50000000012 1052862.7000000002 2821971.0000000005 759389.00000000012 234852.30000000002 103882.50000000001 38953.500000000007 84831.333333333358 0.95610882667718144 109291.80000000002 668860.00000000012 467274.00000000006 -0.68208755850791924 54.023998260498054 42.387845993041999 0.00084311298097541302 0.95328386566704337
decision_type=2 2 2 2 2 2 2 2 2 2 2 2 2 2 2 2 2 2 2 2
left_child=1 7 13 6 11 -6 14 8 15 -3 -11 -5 -10 19 -4 -1 -9 -8 -12 -2
right_child=2 9 3 4 5 -7 17 16 12 10 18 -13 -14 -15 -16 -17 -18 -19 -20 -21
leaf_value=0.0059837579304348916 0.017173124601677768 -0.022509475073512267 -0.0066731015991286363 0.023338809686273703 -0.0020089203353504509 0.0092642783653420994 -0.0039018912353396351 -0.0065628329646258473 0.018883531963790813 0.00049874621168963544 -0.022815355312870728 0.0048392613038404841 0.0025376156153813995 0.027629792548954604 0.0046963620462405721 -0.0077486805278381803 -0.018918484203914593 -0.017391528345914675 -0.012480298045300797 0.00030981802806376052
leaf_weight=822.46840341389179 2136.472764596343 3235.5438129752874 1998.6456553786993 2930.1339285373688 7341.5676075220108 12903.211577817798 916.3372777402401 1874.7077104598284 840.04073484241962 1525.3439310193062 1648.2655153870583 650.93560193479061 2012.9553578048944 1161.2021365463734 2398.4558645784855 5661.7616866230965 1362.865567818284 2233.0405482053757 2805.9735395014286 467.21846726536751
leaf_count=3210 7803 14973 8321 10262 29611 48776 3751 7781 3037 6253 7522 2505 7944 3956 9333 23727 6016 9811 12168 1883
internal_value=-2.71776e-09 -0.00921344 0.0057136 0.00420248 0.00740063 0.00517617 -0.00589475 -0.00445855 -0.00192548 -0.0157019 -0.0120183 0.0199761 0.00735053 0.0183055 -0.000471481 -0.00600684 -0.011764 -0.0134666 -0.0163047 0.0141471
internal_weight=56927.1 21789.9 35137.2 31372.3 23825.8 20244.8 7546.48 12574.8 9337.23 9215.13 5979.58 3581.07 2853 3764.89 4397.1 6484.23 3237.57 3149.38 4454.24 2603.69
internal_count=228643 92631 136012 122370 91154 78387 31216 51715 37918 40916 25943 12767 10981 13642 17654 26937 13797 13562 19690 9686
is_linear=0
shrinkage=0.03


Tree=13
num_leaves=21
num_cat=0
split_feature=34 10 34 26 4 46 34 25 34 47 34 10 68 68 51 13 69 46 10 15
split_gain=1060.01 471.209 262.356 184.405 135.847 117.383 94.0809 86.0474 70.1009 65.9119 55.6022 53.5107 47.6663 47.2027 47.1827 45 43.1246 38.1815 37.382 36.573
threshold=0.76124860815872064 357709.40000000008 0.93228578818660657 -0.45847211554646489 3.6827642263403177 2.0181361436843877 0.50890677510635696 -1.2744710743427274 0.94232901245096379 23.952890396118168 0.59037523090071964 60460.400000000001 1.0000000180025095e-35 1.0000000180025095e-35 33.337224960327156 1.7927972784461375 4.5000000000000009 7.6006929874420175 14262981.900000002 0.57171114404169654
decision_type=2 2 2 2 2 2 2 2 2 2 2 2 2 2 2 2 2 2 2 2
left_child=3 2 4 9 15 18 13 -7 -9 -1 -11 -4 14 19 -8 -2 -15 -13 -3 -5
right_child=1 5 11 6 -6 7 12 8 -10 10 -12 17 -14 16 -16 -17 -18 -19 -20 -21
leaf_value=0.0014685991659548563 -0.019980746740129503 -0.0092996847062642753 -0.016146303841235513 0.016092357839047739 0.00018579381511275316 0.0067441851948240291 -0.00049177248615009644 0.0010312140191759745 -0.003921842372657915 0.015061301281750443 0.0083331908364452246 -0.014537988694928361 0.0013512472500009627 0.01007382580277659 0.0076985285362046419 -0.0065836273611508903 0.0027776753519122492 -0.0077442323062459455 0.00066340020520824067 0.0022716570510632013
leaf_weight=721.47087731957436 234.66023862361908 1528.7670838087797 2211.8090138733387 795.94182322919369 3699.6768842190504 1860.6470037847757 864.07892970740795 11179.245353266597 3340.0490498542786 1943.8847810029984 2563.0807941555977 1141.9832888990641 10705.141000747681 1198.8611700981855 2367.4304598867893 5875.7566528916359 1860.6388059258461 2139.1323156803846 435.4852279573679 219.94038687646389
leaf_count=2853 1049 6370 9997 2923 15020 7179 3464 44429 13560 7149 9798 5005 42503 4547 9109 24704 7323 9079 1715 867
internal_value=-1.71414e-08 -0.00340344 -0.00729044 0.00492741 -0.00435114 -0.000160844 0.00348765 0.000670185 -0.000108198 0.0098874 0.0112351 -0.0125399 0.0023152 0.00749711 0.00550851 -0.00709812 0.00563666 -0.0101088 -0.00709082 0.0131002
internal_weight=56887.7 33647.2 15303 23240.5 9810.09 18344.2 18012 16379.9 14519.3 5228.44 4506.97 5492.92 13936.7 4075.38 3231.51 6110.42 3059.5 3281.12 1964.25 1015.88
internal_count=228643 138107 64854 90536 40773 73253 70736 65168 57989 19800 16947 24081 55076 15660 12573 25753 11870 14084 8085 3790
is_linear=0
shrinkage=0.03


Tree=14
num_leaves=21
num_cat=0
split_feature=6 11 6 34 11 6 6 11 34 11 6 11 6 6 0 6 8 11 41 0
split_gain=3095.04 820.897 771.336 734.297 694.539 482.391 342.026 345.4 276.868 257.834 247.832 231.542 488.155 217.699 178.558 165.607 119.695 118.813 116.346 113.295
threshold=571122.00000000012 767086.50000000012 1913178.5000000002 0.89143455338605471 2794726.7500000005 9666286.5000000019 81336.000000000015 137746.45000000004 0.53789673991095799 2050119.3 1204001.0000000002 561288.60000000021 168886.00000000003 4961833.5000000009 2.8078278240199044 1122987.0000000002 0.00073569708580090295 375573.10000000003 55.160757064819343 3.7383170906284962
decision_type=2 2 2 2 2 2 2 2 2 2 2 2 2 2 2 2 2 2 2 2
left_child=3 10 9 8 13 -6 -5 -8 -1 15 14 12 -10 -4 17 -3 -9 -2 -11 -12
right_child=1 2 4 6 5 -7 7 16 11 18 19 -13 -14 -15 -16 -17 -18 -19 -20 -21
leaf_value=0.0043591371406154714 0.023858281672486218 -0.0044377600558121247 0.01572070064855088 -0.020454873293404768 -0.00068653667979833596 0.011384063779059077 0.0037564219593832619 -0.019214682947138337 -0.0081001168793042571 -0.006634150071097045 0.030975157709506613 -0.014177147747959775 0.0037288329221453593 0.033138559558073176 -0.011678395621436577 0.0057299414695239949 -0.0082726551949170671 0.011287715645444115 -0.021623601024757039 0.0050837375175930167
leaf_weight=3192.4066235423088 1018.033033311367 3244.3998675644398 3207.617497831583 4116.4201248735189 6535.8070611804724 5476.6935211718082 1417.4947029054165 1794.0894372165203 8723.0231318026781 1190.0591389238834 1378.9373266845942 2276.9943456202745 4905.6129860430956 808.62620767951012 234.30401246249676 2594.6938090026379 1804.9510492533445 2018.2957475334406 766.01768445968628 170.96300664544106
leaf_count=12463 3543 13314 11728 19043 26013 20432 5636 8057 36730 4932 4607 9845 19316 2673 981 10022 7675 7565 3412 656
internal_value=-3.4043e-08 0.00694757 0.00466309 -0.00704939 0.00842753 0.00481665 -0.0140459 -0.00878692 -0.00370355 -0.00307748 0.0182378 -0.0053218 -0.0038423 0.0192276 0.0135552 8.04192e-05 -0.0137272 0.0155024 -0.0125042 0.0281192
internal_weight=56875.4 28644.4 23823.9 28231 16028.7 12012.5 9132.96 5016.54 19098 7795.17 4820.53 15905.6 13628.6 4016.24 3270.63 5839.09 3599.04 3036.33 1956.08 1549.9
internal_count=228643 109878 92526 118765 60846 46445 40411 21368 78354 31680 17352 65891 56046 14401 12089 23336 15732 11108 8344 5263
is_linear=0
shrinkage=0.03


Tree=15
num_leaves=21
num_cat=0
split_feature=6 10 6 34 10 6 6 7 10 10 6 6 6 6 6 41 41 7 10 8
split_gain=2931.37 727.526 1000.74 642.065 621.018 562.792 294.356 417.001 283.175 206.344 278.337 185.83 179.771 178.211 152.529 146.629 133.512 128.725 125.328 116.878
threshold=326908.50000000006 404816.10000000003 955058.50000000012 0.81038667878397008 1200913.1000000003 2821971.0000000005 38953.500000000007 84831.333333333358 792997.00000000012 257025.80000000002 126872.50000000001 668860.00000000012 1603094.5000000002 116621.50000000001 558560.00000000012 42.387845993041999 41.613084793090827 125056.73809523811 251326.60000000003 0.021498192955760689
decision_type=2 2 2 2 2 2 2 2 2 2 2 2 2 2 2 2 2 2 2 2
left_child=3 11 8 9 12 -6 19 -8 14 10 16 18 -4 -9 -3 -10 -1 -12 -2 -5
right_child=1 2 4 6 5 -7 7 13 15 -11 17 -13 -14 -15 -16 -17 -18 -19 -20 -21
leaf_value=0.0023744141922625067 0.019218194415960253 -0.0056494902746568737 0.012443753455238403 -0.025125917830879304 -0.0025332724977089717 0.0084663115076072902 0.0025003227969824268 -0.020228581577492379 -0.0024084197275251375 -0.010108946712004871 0.022459247796500936 0.025621122614592911 0.025928283164042363 -0.0097390099036200727 0.0063425718730907342 -0.015821215853889219 -0.0072283394476059856 0.0048338936485198729 0.0063886348669430692 -0.0148255824182979
leaf_weight=2013.346644192934 1310.4335367530584 2053.9481584131718 2000.4983047097921 1900.455548658967 6231.4599320590496 12756.034787893295 1903.8716049641371 2276.8955320417881 1041.4167686551809 2665.7706449776888 489.97714565694332 1506.1890360116959 1602.6287353932858 4051.3867742419243 1783.4064774811268 2481.2508773952723 3693.7806344777346 1561.1794172823429 1436.4651103466749 2072.8488380461931
leaf_count=7996 4730 8508 7414 8952 25195 48340 7742 10333 4233 11288 1733 5186 5507 17366 6865 10868 15420 6075 5546 9346
internal_value=-1.15052e-08 0.00554186 0.0038931 -0.00837636 0.00702317 0.00485638 -0.0130463 -0.00980965 -0.00571424 -0.00290831 -0.000434154 0.0171526 0.0184415 -0.0135131 -7.61922e-05 -0.011856 -0.0038407 0.00904421 0.0125091 -0.0197523
internal_weight=56833.2 34203.7 29950.6 22629.5 22590.6 18987.5 12205.5 8232.15 7360.02 10424.1 7758.28 4253.09 3603.13 6328.28 3837.35 3522.67 5707.13 2051.16 2746.9 3973.3
internal_count=228643 132392 116930 96251 86456 73535 53739 35441 30474 42512 31224 15462 12921 27699 15373 15101 23416 7808 10276 18298
is_linear=0
shrinkage=0.03


Tree=16
num_leaves=21
num_cat=0
split_feature=6 10 6 10 34 6 10 10 6 10 34 6 11 26 6 0 25 6 53 6
split_gain=2764.02 676.343 940.076 683.697 614.432 570.078 322.791 255.741 411.965 199.17 194.044 176.48 296.585 155.824 142.862 126.899 126.523 124.814 120.946 107.741
threshold=298476.50000000006 323408.60000000003 853905.50000000012 1052862.7000000002 0.89289781972014326 2908530.5000000005 759389.00000000012 245837.40000000005 107010.00000000001 115407.90000000001 0.95610882667718144 26889.000000000004 50940.05000000001 -0.68208755850791924 456584.50000000006 1.8809557361641696 -0.65755947530269609 89185.500000000015 -0.26558301804793544 521398.50000000006
decision_type=2 2 2 2 2 2 2 2 2 2 2 2 2 2 2 2 2 2 2 2
left_child=4 15 6 10 7 -5 14 8 13 -10 -4 -6 -13 -1 -3 19 -8 -14 -9 -2
right_child=1 2 3 5 11 -7 16 18 9 -11 -12 12 17 -15 -16 -17 -18 -19 -20 -21
leaf_value=0.0048991728808867293 0.015686630501037684 -0.0061451306686061465 0.022061914962832357 -0.0018862059728345882 -0.023072896203029075 0.0085310182167664568 -0.0017369607462584371 -0.0043006842758158163 0.017115825214159993 0.0012713885386311911 0.0041703639109854241 0.0023471095660978899 -0.022963474671965366 -0.0080267799283099857 0.0044411452194939886 0.0057518982794345841 -0.01594958698747841 -0.012238216317969664 -0.016089821684389129 0.027681742942524672
leaf_weight=958.8461582660675 1619.9691384732723 2037.4725188910961 2969.0602498203516 7539.4456197321415 2016.5109885782003 12678.671470180154 736.04885104298592 1204.0646352767944 1038.6036043614149 2284.7522424459457 668.3808354139328 969.88077783584595 1510.3670078516006 6736.074500143528 2625.9407954514027 628.97360487282276 2407.7700745016336 2762.9695600122213 2240.6531914323568 1154.0209157764912
leaf_count=3777 5971 8483 10447 30397 9575 47990 2999 4962 3785 9090 2577 4025 7067 28457 10219 2436 10563 12077 9816 3930
internal_value=-1.31697e-08 0.00520926 0.00384337 0.00680058 -0.00840905 0.00464638 -0.00519259 -0.00483441 -0.00260386 0.00622304 0.0187743 -0.0155305 -0.0126298 -0.00641611 -0.000184061 0.0179182 -0.012622 -0.0160289 -0.0119691 0.0206768
internal_weight=56788.5 35065.8 31662.8 23855.6 21722.7 20218.1 7807.23 14463 11018.3 3323.36 3637.44 7259.73 5243.22 7694.92 4663.41 3402.96 3143.82 4273.34 3444.72 2773.99
internal_count=228643 136012 123675 91411 92631 78387 32264 59887 45109 12875 13024 32744 23169 32234 18702 12337 13562 19144 14778 9901
is_linear=0
shrinkage=0.03


Tree=17
num_leaves=21
num_cat=0
split_feature=6 11 34 6 11 6 34 7 6 6 6 6 7 7 34 11 25 34 53 34
split_gain=2608.52 801.209 667.164 657.073 607.269 477.731 313.284 275.236 695.452 268.688 254.687 249.794 278.019 213.403 168.658 148.908 144.289 143.564 139.064 108.192
threshold=654335.00000000012 966343.05000000016 0.91807569260091226 2067856.0000000002 3331637.0000000005 9666286.5000000019 0.53789673991095799 536033.66666666674 227047.00000000003 4961833.5000000009 1455444.5000000002 133883.50000000003 239799.6904761905 2529080.1666666674 0.94928390757451475 620655.70000000007 -0.83170792758464807 0.89289781972014326 -0.16229075712768928 0.98307131744862042
decision_type=2 2 2 2 2 2 2 2 2 2 2 2 2 2 2 2 2 2 2 2
left_child=2 10 6 13 9 -6 -1 8 -8 -5 14 -4 -13 17 15 -2 -9 -3 -15 -12
right_child=1 3 11 4 5 -7 7 16 -10 -11 19 12 -14 18 -16 -17 -18 -19 -20 -21
leaf_value=0.0048304844904706904 0.021818374718418659 0.0014231848287808405 -0.01899442500566776 0.01300097994908133 -0.0023859709455788173 0.010174937695802579 -0.0071025843997158675 -0.0010439963696395591 0.0075381483590262277 0.030777599820979711 0.030515219587817971 0.0028398518733452035 -0.015243628320353232 -0.0013655233366983081 -0.0010751819101185594 0.0088280335139421431 -0.015749086195134359 -0.011560972172419018 -0.020844529687183821 0.010342679800618397
leaf_weight=3362.4348921179771 1660.6564271748066 4248.9184583127499 4080.2336726635695 3221.6068210303783 5510.0782576650381 5391.6330423951149 11426.988189324737 763.7995031028986 3922.293236836791 1003.6225959062576 1336.9093374609947 1306.3677942603827 1846.9571377038956 510.12438252568245 658.33986596763134 1522.1078524291515 2809.5248078554869 935.07736745476723 933.42968408763409 291.45217269659042
leaf_count=13105 5847 16912 18924 11948 22065 20193 48231 3103 15154 3362 4480 5246 8156 2055 2617 5794 12271 3954 4139 1087
internal_value=-2.71041e-08 0.00669784 -0.00617723 0.00411726 0.00756834 0.00382625 -0.00360767 -0.00510708 -0.00336135 0.0172235 0.0169619 -0.0140935 -0.00775196 -0.00375959 0.0127469 0.0156059 -0.0126059 -0.000918868 -0.013961 0.0269046
internal_weight=56742.6 27224 29518.6 21754.5 15126.9 10901.7 22285 18922.6 15349.3 4225.23 5469.47 7233.56 3153.32 6627.55 3841.1 3182.76 3573.32 5184 1443.55 1628.36
internal_count=228643 104453 124190 84628 57568 42258 91864 78759 63385 15310 19825 32326 13402 27060 14258 11641 15374 20866 6194 5567
is_linear=0
shrinkage=0.03


Tree=18
num_leaves=21
num_cat=0
split_feature=6 10 6 10 34 6 6 10 10 6 6 6 10 6 8 53 8 6 34 26
split_gain=2471.8 663.742 868.186 703.839 566.169 466.071 294.115 476.164 269.879 290.279 200.326 194 183.677 269.073 172.094 168.655 145.142 170.305 129.191 127.983
threshold=358087.00000000006 477863.3000000001 1385255.5000000002 1781413.9000000001 0.80332081763400776 4612634.5000000009 55729.500000000007 103087.10000000002 1174819.1000000003 716345.50000000012 763374.50000000012 2821971.0000000005 257025.80000000002 149222.00000000003 0.0010504940878051216 -0.21614249076463882 0.029229095777939175 13979.500000000002 0.9504833738090791 -0.68208755850791924
decision_type=2 2 2 2 2 2 2 2 2 2 2 2 2 2 2 2 2 2 2 2
left_child=4 10 8 11 12 -5 16 -8 9 -3 18 -4 13 19 -9 -10 -6 -18 -2 -1
right_child=1 2 3 5 6 -7 7 14 15 -11 -12 -13 -14 -15 -16 -17 17 -19 -20 -21
leaf_value=0.0084826246687513731 0.01406040228762624 -0.0063360727385403546 0.014347633338947487 -0.0022462060773341154 -0.021444529214699495 0.0084876523484514136 0.0039260151335544216 -0.018083920914880005 -0.00085124889753870013 0.0068817579347693761 0.024396448044442982 0.029193412617411013 -0.0086807972718500916 0.010869391569448574 -0.0076168797166594072 -0.015349377785231273 -0.018609247076022888 -0.0012029299982273787 -0.0019451125330917677 -0.00452561688050421
leaf_weight=784.22652934491634 2641.6543287038803 3198.446083933115 2634.7757670879364 5932.1745054870844 3033.1775187849998 9424.9468747377396 2173.607755869627 2693.0582686513662 1053.8456928133965 2808.2344006747007 1571.5864163339138 1132.8127320706844 2920.3828254491091 1655.0444355458021 2975.8867055475712 2294.2021687328815 1177.7442107349634 886.8122848123312 548.03626708686352 5156.578642770648
leaf_count=3000 9740 13315 9675 23891 14210 35612 8757 12153 4242 10778 5454 3824 12329 6231 12674 10016 5461 3787 2217 21277
internal_value=1.67248e-08 0.00526193 0.0035286 0.00719197 -0.00745675 0.00434136 -0.0116584 -0.00801198 -0.00396074 -0.000156492 0.0156298 0.0188114 -0.00228659 0.000171795 -0.0125893 -0.0107859 -0.0172682 -0.0111325 0.0113104 -0.00280844
internal_weight=56697.2 33240.7 28479.4 19124.7 23456.5 15357.1 12940.3 7842.55 9354.73 6006.68 4761.28 3767.59 10516.2 7595.85 5668.94 3348.05 5097.73 2064.56 3189.69 5940.81
internal_count=228643 128764 111353 73002 99879 59503 57042 33584 38351 24093 17411 13499 42837 30508 24827 14258 23458 9248 11957 24277
is_linear=0
shrinkage=0.03


Tree=19
num_leaves=21
num_cat=0
split_feature=11 0 4 53 36 0 68 12 25 16 12 1 4 25 0 25 27 49 54 0
split_gain=388.046 330.069 194.57 164.739 118.085 115.048 97.6151 77.1233 71.1208 68.5108 68.4257 66.934 61.0239 60.7728 50.8609 49.8161 48.284 45.7434 38.5498 38.2964
threshold=538787.95000000007 1.3424715385522259 3.6827642263403177 -0.33327369816220465 0.51764693914675253 4.3698874822159732 1.0000000180025095e-35 2.1431992847287753 -0.49953171908855432 0.15811994188337616 2.7035202359198069 0.43165687176821049 2.1521909331183564 -1.5603074967861172 4.8113545757392027 -1.5603074967861172 -0.55349611291395762 -0.20191854983568189 1.0000000180025095e-35 0.71428596322774551
decision_type=2 2 2 2 2 2 2 2 2 2 2 2 2 2 2 2 2 2 2 2
left_child=1 2 7 10 11 6 17 19 -4 -9 -2 15 -7 -8 16 -3 -6 -5 -13 -1
right_child=3 4 8 5 14 12 13 9 -10 -11 -12 18 -14 -15 -16 -17 -18 -19 -20 -21
leaf_value=-0.0043071984060298676 0.0013893211115249869 -0.00013997456282936944 0.0076081477397704584 -0.0025878048277031139 0.0083681829060239469 -0.046342172819813357 0.010298384677465923 0.0014485394260859306 0.0012274268676079473 -0.0035582046221493665 0.0078939946471479026 -0.017659018369955291 -0.010491745769549315 -2.7639071015258369e-05 -0.018271780813663503 -0.011203164826149734 -0.0039268759851742814 0.0063327619130873845 -0.042004799209184387 -0.011996730619245022
leaf_weight=1274.8290641009808 1966.6397341489792 420.01788909733295 2266.1407935321331 592.50126895308495 334.66958706080914 48.593884527683258 529.67723485827446 3757.6150399595499 5133.8754498660564 7121.5292507559061 5600.0522931516171 679.52443745732307 354.24568416178226 16255.194140329957 191.3297773450613 2864.8556727319956 2038.0364162474871 4078.9661164581776 64.052744850516319 1073.9829166829586
leaf_count=5266 7755 1739 8859 2395 1323 239 2008 15204 20734 29524 21435 3045 1475 64856 851 12595 8554 15783 323 4680
internal_value=2.55183e-08 -0.0025816 -0.000714052 0.00238817 -0.00842519 0.00106751 0.00136572 -0.00289327 0.00318142 -0.00182889 0.00620338 -0.0116284 -0.0148163 0.000298217 -0.00339249 -0.00978858 -0.00219266 0.00520133 -0.0197562 -0.0078232
internal_weight=56646.3 27220.5 20628 29425.9 6592.49 21859.2 21456.3 13228 7400.02 10879.1 7566.69 4028.45 402.84 16784.9 2564.04 3284.87 2372.71 4671.47 743.577 2348.81
internal_count=228643 112697 84267 115946 28430 86756 85042 54674 29593 44728 29190 17702 1714 66864 10728 14334 9877 18178 3368 9946
is_linear=0
shrinkage=0.03


Tree=20
num_leaves=21
num_cat=0
split_feature=6 10 6 10 6 10 0 8 6 11 6 6 6 11 51 11 6 25 0 51
split_gain=2294.52 627.866 767.923 703.623 481.364 381.162 325.176 259.867 346.516 316.846 223.837 214.498 188.622 179.843 175.606 141.286 135.869 117.59 100.202 80.4726
threshold=298476.50000000006 292009.60000000003 1097684.5000000002 1509380.1000000003 3626565.5000000005 759389.00000000012 1.2313596531059126 0.0013301397780150442 57945.500000000007 130701.15000000001 546064.00000000012 2582915.0000000005 25511.500000000004 48875.350000000013 46.581737518310554 50940.05000000001 110210.00000000001 -0.86503619551658617 1.8809557361641696 31.776059150695804
decision_type=2 2 2 2 2 2 2 2 2 2 2 2 2 2 2 2 2 2 2 2
left_child=6 18 5 11 -5 10 7 17 15 -10 -3 -4 -8 -14 -7 -9 -15 -1 19 -2
right_child=1 2 3 4 -6 14 12 8 9 -11 -12 -13 13 16 -16 -17 -18 -19 -20 -21
leaf_value=-0.0012427500734879229 0.012944048275707007 -0.0032166579442191954 0.013658786854225689 -0.0027411128841849145 0.0077689227080005125 -0.0037959143399525978 -0.023281379677932503 -0.0048666834963195342 0.009848516208404233 -0.0042132925844336078 0.0086638362738020811 0.028986658900543916 0.0024422423283628988 -0.020219539756887624 -0.01531511462479548 -0.014539336317330731 -0.0084087517061624626 -0.01436123311138119 0.0067343108524206483 0.024867716452085502
leaf_weight=752.91121956706047 758.15798276662827 3189.6757013499737 3430.6598028838634 6107.745327681303 10959.469718888402 2465.302635371685 1417.8824779093266 3822.9179526567459 2578.6640349030495 3272.1043046265841 2583.1157081723213 1080.4621935486794 772.80992695689201 1545.194345369935 2304.3993681669235 2108.8051484525204 2025.9742694795132 3356.2560899108648 552.51402525603771 1552.6670965254307
leaf_count=3085 2817 13072 12623 24723 41551 10168 6795 16211 9935 13557 9785 3657 3212 7144 10074 9309 8695 14688 2131 5411
internal_value=9.77019e-09 0.00475055 0.0035506 0.00679287 0.00400776 -0.00308567 -0.00767512 -0.00546145 -0.00319592 0.0019843 0.00209943 0.01733 -0.0137806 -0.0106795 -0.00936122 -0.00830544 -0.0135191 -0.0119576 0.0182115 0.0209557
internal_weight=56637.7 34984.2 32120.8 21578.3 17067.2 10542.5 21653.5 15891.7 11782.5 5850.77 5772.79 4511.12 5761.86 4343.98 4769.7 5931.72 3571.17 4109.17 2863.34 2310.83
internal_count=228643 136012 125653 82554 66274 43099 92631 66785 49012 23492 22857 16280 25846 19051 20242 25520 15839 17773 10359 8228
is_linear=0
shrinkage=0.03


Tree=21
num_leaves=21
num_cat=0
split_feature=34 34 4 26 36 11 68 1 5 25 41 2 15 34 49 25 45 1 46 43
split_gain=874.113 327.372 164.658 159.359 123.887 92.4551 84.4708 83.0499 66.2991 66.1953 61.0954 59.812 56.3657 55.0422 50.496 50.2269 48.6769 83.833 43.1654 42.1308
threshold=0.76124860815872064 0.9339949021731403 3.7229503776469053 -0.45847211554646489 0.53030235890726296 227793.90000000002 1.0000000180025095e-35 -0.78875536307135363 0.016962894964795489 -1.0727115213870999 70.844074249267592 1.4530735212332984 0.57806180663253082 0.62137003481306896 -0.36275568604469294 -1.5603074967861172 26.115241050720218 4.9107151790237102 2.6025005578994755 -0.28863650560379023
decision_type=2 2 2 2 2 2 2 2 2 2 2 2 2 2 2 2 2 2 2 2
left_child=3 2 5 11 7 -2 12 15 -9 -4 14 -1 13 -5 -8 -3 -6 -18 -7 -13
right_child=1 4 9 6 16 18 10 8 -10 -11 -12 19 -14 -15 -16 -17 17 -19 -20 -21
leaf_value=0.0039552074367804084 -0.0066237264974701344 0.0024627326546077534 0.0069551203225914158 0.01263570731688597 -0.0053809757004083447 -0.006431930734142919 -0.0082655920950893691 -0.034863819148800192 -0.012805626064117163 0.00063045778923938138 -0.002715846197938012 0.012261522935877241 0.0003257005736698859 0.0048862423595525065 0.0031978485035112059 -0.0083573499538011058 0.0054705626824662831 -0.021497202257334546 -0.00050858876269173998 0.0023536329121827161
leaf_weight=1464.2016765326262 4832.2754922658205 454.50705523788929 1826.4992456138134 1616.9467584341764 3102.0940940231085 1309.623317912221 356.78930294513702 127.88787931203842 2984.9973686039448 8068.3266648501158 2098.5693406909704 3310.6531468033791 931.41256363689899 1683.9627128392458 11264.487179756165 2566.0005940943956 871.68485210835934 117.76052525639534 7165.2481347322464 437.27800159156322
leaf_count=5709 20658 1843 7101 6051 12990 5391 1489 622 13122 32486 8507 12373 3721 6591 44377 11106 3440 528 28820 1718
internal_value=2.39023e-08 -0.00310376 -0.00113288 0.0044789 -0.00757602 -0.00331215 0.00313815 -0.0102731 -0.0137119 0.00179794 0.00199519 0.00909686 0.00684326 0.00868231 0.0028459 -0.00672921 -0.00353295 0.00226095 -0.00142392 0.0111056
internal_weight=56591.2 33426.9 23202 23164.3 10224.9 13307.1 17952.2 6133.39 3112.89 9894.83 13719.8 5212.13 4232.32 3300.91 11621.3 3020.51 4091.54 989.445 8474.87 3747.93
internal_count=228643 138107 94456 90536 43651 54869 70736 26693 13744 39587 54373 19800 16363 12642 45866 12949 16958 3968 34211 14091
is_linear=0
shrinkage=0.03


Tree=22
num_leaves=21
num_cat=0
split_feature=6 10 6 10 34 6 10 6 8 6 53 10 8 6 6 10 34 10 6 6
split_gain=2147.19 773.483 604.289 620.231 558.203 448.49 654.726 400.079 243.523 231.168 218.327 191.575 174.999 202.032 167.338 167.19 140.826 144.575 139.201 131.309
threshold=654335.00000000012 922749.90000000002 2067856.0000000002 2634855.1000000006 0.74460098458349544 100807.50000000001 154704.60000000003 8062299.5000000009 0.00046608491313393957 1204001.0000000002 -0.3218672028781599 697378.20000000007 0.0027629067844530098 26889.000000000004 391506.50000000006 1618743.3000000003 0.96584254680815607 528869.60000000009 3626565.5000000005 196061.50000000003
decision_type=2 2 2 2 2 2 2 2 2 2 2 2 2 2 2 2 2 2 2 2
left_child=4 9 10 18 11 12 19 -5 -8 16 -3 14 -6 -14 -1 -12 17 -2 -4 -7
right_child=1 2 3 7 5 6 8 -9 -10 -11 15 -13 13 -15 -16 -17 -18 -19 -20 -21
leaf_value=-0.00011305459342418573 0.021421082028256558 0.0044293279782947554 0.013991295829001804 -0.001800344557993857 -0.021554643752306018 0.0029145670031456125 -0.015476082759701472 0.0091111591779346711 -0.0047290730888769512 0.024332078196370271 -0.0016658826159393345 -0.011477918468369966 -0.01654514263114908 -0.0059840917711402666 0.011685673391522216 -0.012931286745294618 -0.0058521260682408236 0.0077133281026774882 0.027192292127283597 0.016597054678999558
leaf_weight=7795.5891177803278 1230.478447958827 2011.7610398083925 1877.6230646669865 5793.3010903000832 1988.321148365736 1536.3830284327269 3029.4651833772659 6327.26460082829 5079.0566328763962 2041.6256147772074 2343.8171588480473 1149.3698244541883 3338.7371606677771 3185.7540518045425 1256.1783756166697 2399.4718433618546 375.51801487803459 1583.7588549852371 1164.9399677813053 1071.5131438374519
leaf_count=31332 4342 7845 6916 23130 9302 6148 13391 23791 21198 7092 9463 4944 15429 13785 4702 10322 1527 6045 3980 3959
internal_value=1.47829e-08 0.00608475 0.00361091 0.00693568 -0.00561316 -0.00862244 -0.00453898 0.00389576 -0.00874432 0.0164495 -0.00385223 5.93649e-05 -0.0137629 -0.0113884 0.00152434 -0.00736468 0.0114042 0.0137068 0.0190457 0.00853633
internal_weight=56579.9 27149.6 21918.2 15163.1 29430.4 19229.2 10716.4 12120.6 8108.52 5231.38 6755.05 10201.1 8512.81 6524.49 9051.77 4743.29 3189.76 2814.24 3042.56 2607.9
internal_count=228643 104453 85447 57817 124190 83212 44696 46921 34589 19006 27630 40978 38516 29214 36034 19785 11914 10387 10896 10107
is_linear=0
shrinkage=0.03


Tree=23
num_leaves=21
num_cat=0
split_feature=6 10 6 10 34 6 10 11 6 6 6 10 41 11 41 6 11 6 8 34
split_gain=2033.04 593.803 755.9 599.815 476.042 436.631 295.419 232.504 360.757 216.577 204.14 177.584 159.611 151.765 146.226 144.169 261.412 109.66 107.514 97.18
threshold=298476.50000000006 343941.30000000005 1097684.5000000002 1509380.1000000003 0.89441323345817747 3754523.5000000005 922749.90000000002 264514.55000000005 103882.50000000001 571122.00000000012 2582915.0000000005 135981.20000000004 57.524875640869148 113896.60000000002 55.553707122802741 25511.500000000004 50940.05000000001 684734.00000000012 0.0012920441072285078 0.96966156896063449
decision_type=2 2 2 2 2 2 2 2 2 2 2 2 2 2 2 2 2 2 2 2
left_child=4 17 6 10 7 -5 9 8 13 -3 -4 -10 -8 -1 -9 -6 -17 19 -18 -2
right_child=1 2 3 5 15 -7 12 14 11 -11 -12 -13 -14 -15 -16 16 18 -19 -20 -21
leaf_value=-0.0034564764898715942 0.014663451367170647 -0.005052335890985222 0.012563786384608816 -0.002533214141564911 -0.020738108848884024 0.0074129477985599079 -0.0057600160076243237 -0.0063428066658828865 0.01404527382863166 0.0061402711814506541 0.027773100060984827 0.00027069561445160526 -0.018931391268197043 -0.013782345136202094 -0.019279098469039215 0.0027659475749697874 -0.019941270435017779 0.023794836371848413 -0.010224056702964043 -0.0027763371781782875
leaf_weight=6002.9358760714531 2301.0219305306673 3363.5493756979704 3328.3344972580671 6300.9501669704914 1877.7032260000706 10748.696386530995 2191.9577416181564 2206.5366541296244 1444.3884101957083 2895.2479383647442 1043.1725607216358 2020.9005360305309 1330.7003336697817 1628.5766187161207 1221.8894674777985 997.56268626451492 1770.4081753790379 1091.6879651248455 2433.1211673468351 328.63647599518299
leaf_count=24978 8483 13966 12310 25485 9115 40789 9141 9245 5347 11139 3566 8128 5974 7128 5481 4182 8262 3814 10765 1345
internal_value=5.28753e-08 0.0044748 0.00312386 0.00627914 -0.00723359 0.0037372 -0.00378613 -0.00412477 -0.00201506 0.000125236 0.0161932 0.00601216 -0.0107356 -0.00566003 -0.0109533 -0.0136127 -0.0110402 0.0158021 -0.0143167 0.0124839
internal_weight=56528 34924 31202.6 21421.2 21604 17049.6 9781.46 14525.2 11096.8 6258.8 4371.51 3465.29 3522.66 7631.51 3428.43 7078.8 5201.09 3721.35 4203.53 2629.66
internal_count=228643 136012 122370 82150 92631 66274 40220 60307 45581 25105 15876 13475 15115 32106 14726 32324 23209 13642 19027 9828
is_linear=0
shrinkage=0.03


Tree=24
num_leaves=21
num_cat=0
split_feature=6 10 6 10 6 6 11 6 10 6 10 7 6 6 6 6 53 41 41 11
split_gain=1921.69 641.15 657.278 631.03 442.644 367.177 661.534 274.034 412.188 254.721 212.276 204.392 248.127 192.508 190.108 176.489 157.672 143.324 136.303 111.512
threshold=446372.50000000006 588281.00000000012 1526326.0000000002 2364983.3000000003 4612634.5000000009 47751.500000000007 113896.60000000002 126872.50000000001 262558.20000000007 2821971.0000000005 1409075.0000000002 46833.61904761906 15017.000000000002 779971.00000000012 1071786.0000000002 133883.50000000003 -0.62417910713313962 41.224491119384773 40.643672943115241 50940.05000000001
decision_type=2 2 2 2 2 2 2 2 2 2 2 2 2 2 2 2 2 2 2 2
left_child=5 14 10 9 -5 11 15 16 -9 -4 13 12 -1 -3 -2 19 -8 -13 -12 -7
right_child=1 2 3 4 -6 6 7 8 -10 -11 18 17 -14 -15 -16 -17 -18 -19 -20 -21
leaf_value=-0.013815430298846252 0.011661147180302981 -0.0067158395673810618 0.010527696815397745 -0.0048769135965082101 0.0068194270934151587 0.010971368644113961 -0.0037235567388887326 0.0030154708851641769 -0.0093855714949615844 0.025074334345198058 0.00095306290379540328 -0.00853197479600863 0.00011032972072745357 0.0046293864156682621 0.025423806344160159 0.015747074467151102 -0.018561979894298659 -0.022428288441295706 -0.014628998736209957 -0.0012362723693757341
leaf_weight=2608.6454953998327 3500.9233485758305 2442.3822423070669 2921.7281312197447 4275.4903260171413 9131.5094598084688 972.48524960875511 880.80142441391945 3920.3879854530096 6270.6020187735558 1721.8479035198689 672.71307951211929 1010.107476323843 2061.5888705104589 2998.73940525949 1217.4385017901659 1272.8374547064304 2402.2878238409758 1972.1587199121714 2029.4534043073654 2190.0192355662584
leaf_count=11811 13067 10230 10975 17430 34726 3793 3690 15652 26891 5969 2683 4439 8698 11635 4218 4695 10882 9211 8877 9071
internal_value=5.50397e-08 0.00503239 0.00319868 0.00639058 0.00308947 -0.00608559 -0.00373529 -0.00704332 -0.00461499 0.0159216 -0.00387657 -0.0115861 -0.00766816 -0.000463199 0.0152122 0.00631417 -0.0145811 -0.0177215 -0.0107498 0.00251764
internal_weight=56474.1 30912.2 26193.9 18050.6 13407 25561.9 17909.4 13474.1 10191 4643.58 8143.29 7652.5 4670.23 5441.12 4718.36 4435.34 3283.09 2982.27 2702.17 3162.5
internal_count=228643 119810 102525 69100 52156 108833 74674 57115 42543 16944 33425 34159 20509 21865 17285 17559 14572 13650 11560 12864
is_linear=0
shrinkage=0.03


Tree=25
num_leaves=21
num_cat=0
split_feature=34 34 24 26 23 34 25 47 49 4 34 17 68 11 51 68 16 53 4 25
split_gain=793.503 316.46 175.915 146.265 113.725 80.8846 64.7558 58.5782 54.4265 52.654 51.3474 49.2354 45.1268 44.8599 43.4766 41.5009 41.2148 38.1665 32.5702 31.4772
threshold=0.76124860815872064 0.94364471140568906 1.3893999995862074 -0.45847211554646489 1.939120495115231 0.50890677510635696 -1.3359765008091924 23.447055816650394 -0.36275568604469294 1.0000000180025095e-35 0.57721646100071466 0.93253002840999966 1.0000000180025095e-35 1776245.6500000001 13.487924098968508 1.5000000000000002 0.65981568443260252 0.18424030658669341 3.7031140133635372 -1.5190248399972914
decision_type=2 2 2 2 2 2 2 2 2 2 2 2 2 2 2 2 2 2 2 2
left_child=3 2 14 7 9 15 -4 -1 -7 -3 -9 -8 -10 19 18 16 -5 -11 -2 -6
right_child=1 4 6 5 13 8 11 10 12 17 -12 -13 -14 -15 -16 -17 -18 -19 -20 -21
leaf_value=0.00029184234927637909 -0.012104038073731862 -0.038144731589809869 0.0058402600319703672 0.01189286328062622 0.0014077823175831104 -0.0090625659781735125 0.00039783576602872345 0.013799037665628242 0.0053865302743971964 -0.012740291335590823 0.0072963507939483793 -0.0076163225354073261 0.0012650556347581616 0.0013340158086206824 -0.003736308702733357 0.0039799931168239336 -0.001215417762947799 -0.0074208984098769184 0.00034229040550300116 -0.0074400040237640108
leaf_weight=652.42160186171532 1012.4039160013199 62.651149213314056 1930.6465093642473 1564.0611869394779 433.47563101351261 396.3652323782444 12979.084605172276 1824.5746992230415 3108.7148939371109 2843.2422437518835 2725.2836605757475 728.6618115156889 10355.582251250744 1059.8675029575825 7713.0748762339354 2240.6424385905266 250.4427639991045 2118.4361668229103 232.72354705631733 2191.1431029140949
leaf_count=2597 4379 318 7565 5873 1804 1666 52659 6741 12136 12596 10462 3088 41274 4169 32025 8779 1008 9087 943 9474
internal_value=8.01369e-08 -0.00296396 -0.00122389 0.00427027 -0.00787848 0.0029844 0.000696318 0.00869857 0.0018941 -0.0108142 0.00990404 -2.81723e-05 0.00221665 -0.00387517 -0.00457602 0.00671111 0.0100836 -0.0104691 -0.00977773 -0.00597873
internal_weight=56423.5 33305.4 24596.6 23118.1 8708.82 17915.8 15638.4 5202.28 13860.7 5024.33 4549.86 13707.7 13464.3 3684.49 8958.2 4055.15 1814.5 4961.68 1245.13 2624.62
internal_count=228643 138107 100659 90536 37448 70736 63312 19800 55076 22001 17203 55747 53410 15447 37347 15660 6881 21683 5322 11278
is_linear=0
shrinkage=0.03


Tree=26
num_leaves=21
num_cat=0
split_feature=6 11 6 7 6 34 7 34 11 6 25 46 6 7 11 41 11 66 6 34
split_gain=1810.89 526.833 785.92 486.889 457.739 417.03 247.595 226.152 186.145 195.165 146.808 142.53 161.536 203.534 131.586 128.279 112.956 111.156 109.564 105.864
threshold=237918.50000000003 312081.75000000006 779971.00000000012 1178817.0952380954 2908530.5000000005 0.86049260542085892 654334.64285714296 0.94232901245096379 248571.45000000004 97858.000000000015 -0.72653665393590916 7.4936816692352304 21746.500000000004 35243.595238095244 101482.85000000002 48.549625396728523 113896.60000000002 1.0000000180025095e-35 510068.50000000006 0.95328386566704337
decision_type=2 2 2 2 2 2 2 2 2 2 2 2 2 2 2 2 2 2 2 2
left_child=5 18 6 7 -5 8 17 -4 9 16 -8 -7 -13 -14 -11 -10 -1 -3 19 -2
right_child=1 2 3 4 -6 11 10 -9 15 14 -12 12 13 -15 -16 -17 -18 -19 -20 -21
leaf_value=-0.0025438827520775278 0.013201431456967587 0.0024389418329581942 0.017476365194126289 -0.0026291653573385231 0.006797739865488925 -0.019760796942531647 -0.00083547132815143361 0.001525134424583393 -0.003709446612163375 0.017160587350987216 -0.01371272188202396 -0.017993800428585331 0.0087134630085859265 -0.0098829121060677368 0.0014099798996244492 -0.017962750803533552 -0.012687337509142907 -0.0091997870886871315 0.020880626982189641 -0.0029345032454776362
leaf_weight=5031.2328970432281 2189.5219159722328 3307.9704672992229 3691.2712884694338 7379.5110524892807 12468.310874029994 1898.4602339267731 1069.5566111505032 1021.2518336772919 1069.3710014820099 632.16524788737297 3124.3674783408642 1800.8959128558636 612.23205421864986 3928.9398730397224 1949.543766155839 1212.7942954897881 1229.5049211084843 950.79460315406322 1405.6340715587139 439.36673130095005
leaf_count=20794 8197 13237 13391 29911 47482 8959 4348 4005 4417 2300 13637 8657 2506 17428 7763 5409 5363 4019 4996 1824
internal_value=7.28167e-08 0.00388613 0.00263549 0.00535098 0.00329277 -0.00743436 -0.0052547 0.0140196 -0.00364532 -0.00167384 -0.0104287 -0.0125495 -0.0103909 -0.00737578 0.00526672 -0.011284 -0.00453589 -0.000159474 0.0141196 0.0105046
internal_weight=56412.7 37047.6 33013 24560.3 19847.8 19365.1 8452.69 4712.52 11124.6 8842.45 4193.92 8240.53 6342.07 4541.17 2581.71 2282.17 6260.74 4258.77 4034.52 2628.89
internal_count=228643 145047 130030 94789 77393 83596 35241 17396 46046 36220 17985 37550 28591 19934 10063 9826 26157 17256 15017 10021
is_linear=0
shrinkage=0.03


Tree=27
num_leaves=21
num_cat=0
split_feature=6 10 6 10 6 46 6 10 6 6 10 6 6 6 0 7 10 53 6 0
split_gain=1708.37 557.036 679.008 630.929 431.053 306.096 323.863 474.467 256.048 215.177 204.176 226.454 175.914 170.794 142.565 132.814 116.893 110.283 91.2149 91.0809
threshold=358087.00000000006 497749.20000000001 1455444.5000000002 2364983.3000000003 4612634.5000000009 7.7041621208190927 47751.500000000007 154704.60000000003 2821971.0000000005 133883.50000000003 1409075.0000000002 716345.50000000012 913627.50000000012 126872.50000000001 1.2847683522467348 49055.571428571435 268112.70000000007 -0.21614249076463882 29639.000000000004 3.7383170906284962
decision_type=2 2 2 2 2 2 2 2 2 2 2 2 2 2 2 2 2 2 2 2
left_child=5 12 10 8 -5 18 14 9 -4 -8 11 -3 16 -9 15 -7 -2 -12 -1 -14
right_child=1 2 3 4 -6 6 7 13 -10 -11 17 -13 19 -15 -16 -17 -18 -19 -20 -21
leaf_value=-0.024819029502256409 0.017028925242120407 -0.006810985404436776 0.010199350563160382 -0.0050689782886871263 0.0063926541677047028 -0.003591790767431264 0.001246663352861615 -0.016142241627865418 0.024360796169232611 0.014420414958540784 -0.0015416876704806533 0.0040302321252707598 0.026453682453930864 -0.0042800655273798997 -0.017301324357191068 -0.01376854910255094 0.0061999618073500387 -0.01516565461130643 -0.011432042087034704 0.0007739643843393991
leaf_weight=510.06554815173149 1467.5702474266291 3306.8352563530207 3335.1726109534502 4367.57871773839 9118.6114342361689 3289.4841805249453 3636.6474124640226 1404.2870884090662 1753.0643721520901 1609.8615867197514 765.14966773986816 3645.9978133141994 1081.9126660227776 4918.8864119499922 1656.0833354741335 1777.9988806843758 2308.0571844726801 1775.8185082525015 4494.6562857180834 140.44109995663166
leaf_count=2492 5321 13902 12546 17833 34726 14029 14889 6293 6110 5993 3092 14205 3746 20569 7895 7937 8893 7841 19782 549
internal_value=4.97667e-08 0.00438412 0.00274103 0.00607694 0.00268074 -0.00622215 -0.00442354 -0.00138059 0.0150784 0.00528895 -0.00378559 -0.00112596 0.0136116 -0.00691449 -0.00965976 -0.00716245 0.0104091 -0.0110631 -0.0127964 0.0235032
internal_weight=56364.2 33066.2 28068.2 18574.4 13486.2 23298 18293.2 11569.7 5088.24 5246.51 9493.8 6952.83 4997.98 6323.17 6723.57 5067.48 3775.63 2540.97 5004.72 1222.35
internal_count=228643 128764 110255 71215 52559 99879 77605 47744 18656 20882 39040 28107 18509 26862 29861 21966 14214 10933 22274 4295
is_linear=0
shrinkage=0.03


Tree=28
num_leaves=21
num_cat=0
split_feature=6 11 6 7 34 6 8 34 8 6 11 8 11 41 6 34 51 41 41 6
split_gain=1615.04 482.384 707.298 457.762 394.009 391.518 274.62 201.187 197.761 335.587 228.834 121.39 116.663 116.068 102.332 140.667 98.3856 91.6513 90.8262 79.792
threshold=237918.50000000003 312081.75000000006 816687.50000000012 1154271.3571428575 0.74460098458349544 2908530.5000000005 0.00028887021231604592 0.94232901245096379 0.0012920441072285078 55729.500000000007 89682.950000000012 0.021498192955760689 248571.45000000004 51.105644226074226 1204001.0000000002 0.96300573090411434 63.570261001586921 48.549625396728523 44.106439590454109 107010.00000000001
decision_type=2 2 2 2 2 2 2 2 2 2 2 2 2 2 2 2 2 2 2 2
left_child=4 14 6 7 12 -5 13 -4 -6 11 -11 -10 19 -3 15 18 -8 -14 -2 -1
right_child=1 2 3 5 8 -7 16 -9 9 10 -12 -13 17 -15 -16 -17 -18 -19 -20 -21
leaf_value=-0.0010341648060079244 0.0075480814363765069 -0.0069452735180269192 0.017511002455576161 -0.0022750203464473474 -0.016778251247644108 0.0064506022938361513 0.0022834550343240455 0.0019744106970704103 -0.017437792822998708 0.0073255517516221851 -0.0068817971718525585 -0.0085461993383702008 -0.00056193214437587639 -0.01825141969467545 0.029137589419005711 -0.0013853699408731296 -0.0062537640889578231 -0.016308835709101025 0.018349563488180076 0.0076057246013028325
leaf_weight=3688.7319200336933 1075.1711690872908 2045.7342155426741 3329.9542946517467 7360.1735656112432 2996.1559046804905 12467.958680227399 3600.5554226338863 968.22949895262718 2729.1097915917635 1573.9662937372923 2900.6899945139885 2799.2517742067575 638.09284621477127 1360.7743890881538 343.63281147181988 591.33999451994896 1833.5948572456837 694.94125470519066 2011.2300246506929 1301.4392120242119
leaf_count=14987 4127 8608 12075 29789 13781 47544 14439 3788 12882 6244 12434 12633 2580 6116 1177 2402 7671 3072 7311 4983
internal_value=9.25381e-08 0.0036722 0.00247564 0.00513563 -0.00702932 0.00321166 -0.00478351 0.0140112 -0.0100171 -0.00799203 -0.00188434 -0.0129356 -0.000886989 -0.0114617 0.0134815 0.0120186 -0.00059718 -0.00877115 0.0145868 0.00121912
internal_weight=56310.7 36988.3 32967 24126.3 19322.4 19828.1 8840.66 4298.18 12999.2 10003 4474.66 5528.36 6323.21 3406.51 4021.37 3677.74 5434.15 1333.03 3086.4 4990.17
internal_count=228643 145047 130030 93196 83596 77333 36834 15863 57974 44193 18678 25515 25622 14724 15017 13840 22110 5652 11438 19970
is_linear=0
shrinkage=0.03


Tree=29
num_leaves=21
num_cat=0
split_feature=6 10 6 10 34 6 6 7 6 10 6 6 34 10 11 46 6 11 25 26
split_gain=1532.29 547.976 588.17 593.181 415.761 392.977 220.785 216.329 348.671 190.229 176.116 166.843 162.96 160.343 155.229 148.995 176.635 145.257 115.416 95.1604
threshold=409811.00000000006 551230.50000000012 1526326.0000000002 2364983.3000000003 0.89441323345817747 8062299.5000000009 2821971.0000000005 362447.66666666669 149222.00000000003 1409075.0000000002 716345.50000000012 1204001.0000000002 0.96009682366852833 135981.20000000004 130701.15000000001 7.4936816692352304 26889.000000000004 46646.350000000006 -0.41236257851123803 -0.28114197403192515
decision_type=2 2 2 2 2 2 2 2 2 2 2 2 2 2 2 2 2 2 2 2
left_child=4 11 9 6 7 -5 -4 8 14 10 -3 12 -2 -10 -1 -6 -17 -18 -9 -11
right_child=1 2 3 5 15 -7 -8 18 13 19 -12 -13 -14 -15 -16 16 17 -19 -20 -21
leaf_value=-0.0018352275886644512 0.013620650647795064 -0.0068628101318023134 0.010010097509732785 -0.0023055989344411268 -0.018299609017973041 0.0079909724087052249 0.023526700485515275 -0.002381220324112985 0.017903528827695168 -0.0013811645392015587 0.0035329232782168414 0.025461445411438806 -0.0032902384198926016 0.0031992569697244714 -0.010546042371921045 -0.017128833232638075 0.006588057729425811 -0.0081560919176790619 -0.013334123827026248 -0.013799167211894581
leaf_weight=6938.7562875151634 3344.629391938448 2481.587681800127 2957.1227381229401 7044.3262868225574 2039.8239930272102 6336.9945475012064 1720.3650773763657 1366.3343535661697 888.53449484705925 776.77607049047947 3586.1597056537867 881.60372410714626 605.73024727404118 2682.1077955067158 2506.1947676688433 1662.2468911707401 730.6575120985508 3398.4663848131895 2363.9089120030403 1948.6490095555782
leaf_count=28752 12371 10467 11127 28242 9671 23914 6034 5627 3201 3147 14002 3082 2449 10660 10852 8153 3004 14993 10344 8551
internal_value=7.41317e-08 0.00436055 0.00268693 0.00578515 -0.00562131 0.00257055 0.0149815 -0.00295298 -0.00112757 -0.00367599 -0.000718724 0.0136611 0.0110276 0.00685833 -0.00414662 -0.0113271 -0.00887129 -0.00554708 -0.00932223 -0.0102599
internal_weight=56261 31683.9 26852 18058.8 24577 13381.3 4677.49 16745.8 13015.6 8793.17 6067.75 4831.96 3950.36 3570.64 9444.95 7831.19 5791.37 4129.12 3730.24 2725.43
internal_count=228643 123386 105484 69317 105257 52156 17161 69436 53465 36167 24469 17902 14820 13861 39604 35821 26150 17997 15971 11698
is_linear=0
shrinkage=0.03


Tree=30
num_leaves=21
num_cat=0
split_feature=34 34 24 26 36 68 5 0 36 1 41 2 17 15 4 43 26 4 0 34
split_gain=706.015 284.238 173.059 135.662 92.3512 77.3405 69.4955 61.621 94.0121 71.7467 60.7084 55.7022 53.3456 52.2247 48.0345 47.3615 45.142 44.9724 42.8714 41.8822
threshold=0.76124860815872064 0.95328386566704337 1.3893999995862074 -0.45847211554646489 0.74999866857253927 1.0000000180025095e-35 0.016962894964795489 4.8113545757392027 0.99974862479368853 5.1594606297942418 70.844074249267592 1.4530735212332984 0.18152296958648265 0.43458102582037261 4.2885018688237286 -1.6142689585685728 -1.1823150327429175 2.5074005365160561 4.8113545757392027 0.62137003481306896
decision_type=2 2 2 2 2 2 2 2 2 2 2 2 2 2 2 2 2 2 2 2
left_child=3 2 17 11 6 13 18 8 -6 -9 12 -1 -7 19 -4 -16 -8 -2 -3 -5
right_child=1 4 14 5 7 10 16 9 -10 -11 -12 -13 -14 -15 15 -17 -18 -19 -20 -21
leaf_value=0.0033299729099370541 -0.0067493559368052786 -0.013083637560539952 -0.00094385727796481933 0.012478373203153436 -0.002779057281684432 0.0049941639385088655 0.00075867888396948305 -0.029709390210465623 0.01822155557685505 0.0045112763633576242 -0.0030134212106449755 0.01024459648646342 0.00085056282124351549 0.0016992975234653399 0.0066701417968201343 0.00098574492615584037 -0.010051203480276374 -0.0025973629840257578 -0.047647167417282026 0.0051078348556884735
leaf_weight=1458.3301546871662 4508.7007929235697 60.506100252270699 9142.0174884796143 1370.9851707816124 1066.6972050219774 4731.1010142713785 372.69273193180561 136.43686740100384 233.92221650481224 92.539144039154053 2087.4526111781597 3731.2504235804081 6837.7554536610842 1435.0415677428246 1719.4990679472685 5666.0071057677269 5180.8255171328783 4899.005118906498 69.278403803706169 1404.8770417124033
leaf_count=5709 19157 269 37645 5142 4410 18499 1544 643 869 364 8507 14091 27367 5713 6786 22900 22811 20337 372 5508
internal_value=1.08049e-07 -0.00280411 -0.00133909 0.00403165 -0.00807183 0.00279146 -0.0098329 -0.00152849 0.000997997 -0.0158793 0.00169544 0.00830151 0.00254509 0.00634593 0.000509803 0.00230919 -0.00932576 -0.00458723 -0.0315335 0.00874811
internal_weight=56204.9 33148.1 25935.2 23056.8 7212.9 17867.2 5683.3 1529.6 1300.62 228.976 13656.3 5189.58 11568.9 4210.9 16527.5 7385.51 5553.52 9407.71 129.785 2775.86
internal_count=228643 138107 106825 90536 31282 70736 24996 6286 5279 1007 54373 19800 45866 16363 67331 29686 24355 39494 641 10650
is_linear=0
shrinkage=0.03


Tree=31
num_leaves=21
num_cat=0
split_feature=6 10 6 10 6 34 8 0 10 6 41 7 41 41 7 8 6 6 7 0
split_gain=1439.75 543.06 694.823 513.296 368.279 338.027 322.871 185.387 184.619 235.411 151.747 141.141 125.469 119.949 119.367 107.633 167.503 107.427 104.483 62.9476
threshold=196061.50000000003 220027.00000000003 779971.00000000012 922749.90000000002 2067856.0000000002 0.89289781972014326 0.00032821541312195128 2.8078278240199044 154704.60000000003 47751.500000000007 54.023998260498054 84831.333333333358 50.749441146850593 41.224491119384773 49055.571428571435 0.0026756704365406597 25511.500000000004 349699.00000000006 33521.976190476198 4.8113545757392027
decision_type=2 2 2 2 2 2 2 2 2 2 2 2 2 2 2 2 2 2 2 2
left_child=5 13 6 7 -5 8 12 -4 9 14 -10 -11 -3 -2 -1 -7 -17 -8 -18 -15
right_child=1 2 3 4 -6 15 17 -9 10 11 -12 -13 -14 19 -16 16 18 -19 -20 -21
leaf_value=-0.002700677615382474 0.0061617641213558101 -0.0066270424631930573 0.017726057623786103 -0.0030341219199164324 0.0056904113150389977 -0.018550129522435715 -0.0049490587973309115 -0.0051182637428711713 -0.0047559323114161368 0.011711007712645036 -0.017768584319809627 -0.00049191394570780131 -0.017612835062245567 0.020028457816050917 -0.012896088331493331 -0.017120826856222352 0.0085679108153411988 0.0027240097274234439 -0.0078228812986543151 -0.0073167038454563091
leaf_weight=2908.634088203311 923.04351755976677 2289.4656599462032 3221.0987600833178 6121.8514107316732 15082.997436672449 2022.7879480272532 2703.6746603548527 354.94716593623161 1968.3142604678869 1328.732691347599 1366.4953107088804 2382.7432228028774 1582.3244322538376 2117.6325866430998 1603.1665509194136 1708.858792245388 433.78253427147865 4182.6229917705059 1812.5849096179008 78.574768409132957
leaf_count=12162 3588 9661 11666 24957 57817 9674 11396 1432 8254 5071 6147 9695 7136 7657 7063 8462 1781 16616 8083 325
internal_value=9.64512e-08 0.00323428 0.00218087 0.00494472 0.00317163 -0.00712964 -0.00418557 0.0154586 -0.00413416 -0.00171965 -0.0100881 0.00387681 -0.0111167 0.0152362 -0.00632339 -0.0129212 -0.0100424 -0.000288564 -0.00465775 0.0190501
internal_weight=56194.3 38658.2 35539 24780.9 21204.8 17536.1 10758.1 3576.05 11558.1 8223.28 3334.81 3711.48 3871.79 3119.25 4511.8 5978.01 3955.23 6886.3 2246.37 2196.21
internal_count=228643 152251 140681 95872 82774 76392 44809 13098 48392 33991 14401 14766 16797 11570 19225 28000 18326 28012 9864 7982
is_linear=0
shrinkage=0.03


Tree=32
num_leaves=21
num_cat=0
split_feature=6 10 6 10 6 34 6 10 6 10 6 7 34 34 25 34 6 10 10 53
split_gain=1363.01 566.54 471.872 608.256 503.87 418.022 374.952 242.884 472.483 219.087 195.315 180.472 159.409 137.016 135.708 126.095 112.157 203.213 109.54 103.031
threshold=546064.00000000012 759389.00000000012 1963960.5000000002 4218730.2000000002 10100696.500000002 0.931072796934866 4961833.5000000009 430120.60000000003 191059.50000000003 220027.00000000003 1204001.0000000002 2529080.1666666674 0.53239075406341607 0.96300573090411434 -0.026221631467342372 0.86993692806883238 133883.50000000003 174801.90000000002 528869.60000000009 -0.16229075712768928
decision_type=2 2 2 2 2 2 2 2 2 2 2 2 2 2 2 2 2 2 2 2
left_child=5 10 11 6 -5 7 -4 8 12 -10 13 15 -1 18 -9 -3 -7 -18 -2 -13
right_child=1 2 3 4 -6 16 -8 14 9 -11 -12 19 -14 -15 -16 -17 17 -19 -20 -21
leaf_value=0.0040000122073452979 0.017032943058745514 0.001071185335568653 0.0089428520996127185 -0.0062897682753064758 0.0074720088160666141 -0.01557856384352512 0.026521089616344706 -0.0035832254296568745 0.01479597498345353 0.0016172128219964171 0.022939756815167547 -0.0021341068414595004 -0.0057070752239226329 -0.0048513710462086647 -0.014628079798879126 -0.0084329578539659167 0.0051977808208661406 -0.01349257660729538 0.005615888325653632 -0.019686378671763479
leaf_weight=1763.4800219535828 1804.2051707655191 5013.5570072382689 4654.9574189186096 4556.7039629071951 5046.1874275505543 3337.654318317771 1426.8779076039791 1854.035284101963 1831.8819209337234 2985.6068222075701 1459.0994028151035 466.21165016293526 11145.586424320936 488.07369321584702 2176.6625448763371 1676.4726376235485 803.91451552510262 1501.2300713509321 1302.2005518525839 849.26532842218876
leaf_count=6914 6552 20092 17638 18518 19081 16131 4910 7736 6757 11984 5176 1888 47757 1979 9672 7043 3223 6777 5014 3801
internal_value=6.10177e-08 0.00456383 0.00261857 0.00564342 0.000941856 -0.00478753 0.0130669 -0.00290045 -0.00138898 0.00662852 0.0136829 -0.00330786 -0.00438101 0.00992525 -0.00954768 -0.00131048 -0.0120637 -0.00697435 0.0122469 -0.0134658
internal_weight=56143.9 28743.8 23690.2 15684.7 9602.89 27400.1 6081.84 21757.3 17726.6 4817.49 5053.58 8005.51 12909.1 3594.48 4030.7 6690.03 5642.8 2305.14 3106.41 1315.48
internal_count=228643 111692 92971 60147 37599 116951 22548 90820 73412 18741 18721 32824 54671 13545 17408 27135 26131 10000 11566 5689
is_linear=0
shrinkage=0.03


Tree=33
num_leaves=21
num_cat=0
split_feature=6 10 6 10 6 34 8 6 8 6 10 11 41 0 41 26 10 6 10 25
split_gain=1293.21 471.702 540.852 452.248 372.278 347.689 245.277 228.365 188.128 362.187 233.133 119.709 105.225 102.05 99.0877 94.3416 92.3201 80.5376 78.1403 74.4787
threshold=285596.50000000006 323408.60000000003 955058.50000000012 1545517.1000000003 3626565.5000000005 0.71526986838774997 0.00028887021231604592 1726662.0000000002 0.0012920441072285078 62028.500000000007 88546.700000000026 48875.350000000013 48.182773590087898 3.0163675747941436 45.974128723144538 -0.74208892732858645 240225.00000000003 168886.00000000003 600472.10000000009 -0.81533037275075904
decision_type=2 2 2 2 2 2 2 2 2 2 2 2 2 2 2 2 2 2 2 2
left_child=5 13 6 7 -5 15 12 -4 19 11 -11 -10 -3 14 -2 -1 17 -17 -8 -7
right_child=1 2 3 4 -6 8 18 -9 9 10 -12 -13 -14 -15 -16 16 -18 -19 -20 -21
leaf_value=0.010035169163569677 0.008839105433578574 -0.004819895592314688 0.0072998472607435508 -0.0033602327948580092 0.0058092655505860204 -0.0063707746427623209 0.003966385217648181 0.019825913399441075 -0.0081049613683557304 0.0089986931037135103 -0.0048664776193811524 -0.016825182653515625 -0.014904817490506239 -0.003008263046433134 0.019608715300957525 -0.00063790262334304025 -0.0082194634349803466 0.012014029455803255 -0.0033409911319642127 -0.016359000537601216
leaf_weight=764.97456935048103 1253.4918673485518 1902.6049176007509 3233.140487909317 6294.9318996965885 10859.083855777979 869.68883427977562 2626.0378690510988 2202.0988730490208 3944.7226398140192 1619.0037350356579 3349.3272623568773 2210.9141692221165 1823.6478641182184 294.18677861988544 1988.8215028345585 3445.9085419178009 1287.9788458794355 521.32902528345585 2642.1154370754957 2954.1868457645178
leaf_count=2890 4786 7911 12322 25638 41470 3838 10336 7914 18015 6356 14236 10431 8116 1188 7178 13941 5491 1942 10966 13678
internal_value=1.2062e-07 0.00351994 0.00235654 0.00483375 0.00244438 -0.00589537 -0.00386495 0.0123748 -0.00834699 -0.00637375 -0.000348308 -0.011237 -0.00975551 0.0139101 0.0154451 0.000191898 -0.00124094 0.00102467 0.000301547 -0.0140873
internal_weight=56088.2 35120.2 31583.7 22589.3 17154 20968 8994.41 5435.24 14947.8 11124 4968.33 6155.64 3726.25 3536.5 3242.31 6020.19 5255.22 3967.24 5268.15 3823.88
internal_count=228643 137825 124673 87344 67108 90818 37329 20236 66554 49038 20592 28446 16027 13152 11964 24264 21374 15883 21302 17516
is_linear=0
shrinkage=0.03


Tree=34
num_leaves=21
num_cat=0
split_feature=6 10 6 10 6 34 7 6 10 6 11 7 6 34 25 6 11 6 25 10
split_gain=1226.28 491.166 458.061 528.873 376.873 347.796 236.618 327.95 248.976 227.983 185.007 174.589 141.972 153.137 130.282 96.6372 144.821 89.6902 85.7024 64.2039
threshold=446372.50000000006 588281.00000000012 1526326.0000000002 2565176.8000000003 8062299.5000000009 0.93813157088904775 504496.73809523816 152815.50000000003 150763.30000000002 2908530.5000000005 130701.15000000001 1129829.8809523813 1204001.0000000002 0.96300573090411434 -0.40263982415199273 94914.500000000015 164669.70000000004 779971.00000000012 -0.83170792758464807 115407.90000000001
decision_type=2 2 2 2 2 2 2 2 2 2 2 2 2 2 2 2 2 2 2 2
left_child=5 12 11 9 -5 6 7 10 -9 -4 -1 17 13 -2 -13 -7 -17 -3 -8 -15
right_child=1 2 3 4 -6 15 18 8 -10 -11 -12 14 -14 19 -16 16 -18 -19 -20 -21
leaf_value=-0.0024391216827985176 0.012874036664517708 -0.0033925804811757725 0.0085494860878959893 -0.0031609913673306786 0.0071149277698408188 -0.016249532594880694 -0.0014310290563494237 0.01530644279618552 0.00053687358209856238 0.021797382973301253 -0.010713952491296818 -0.00071992708061898022 0.023323570690581583 0.020824967491334008 -0.011507358385015647 0.0018042959010003631 -0.013865352235930745 0.0058718675456540916 -0.014172693372249648 -0.0087554172532724617
leaf_weight=8535.8309097737074 3147.3411566913128 1877.2136984467506 3262.147384300828 6564.5900886058807 6289.8890698999166 2511.8106839954853 609.36384811997414 1323.6215420514345 4587.2568749636412 1822.114262253046 3400.4450006335974 1585.2754928171635 956.64165408909321 77.171552523970604 2765.1575599014759 879.09177593886852 1339.9430395066738 1884.7102773040533 2156.2298472821712 457.75391235947609
leaf_count=36074 11697 7817 12382 26417 23825 12421 2513 4860 18649 6476 14959 6410 3416 275 11931 3606 6168 7267 9583 1897
internal_value=1.22569e-07 0.00403311 0.0024316 0.00510674 0.00186717 -0.00488366 -0.00320001 -0.00193473 0.00384422 0.0132973 -0.00479648 -0.00348392 0.0130269 0.0103518 -0.00757647 -0.0122195 -0.00765767 0.00124887 -0.0113652 -0.00448797
internal_weight=56033.6 30690 26051.1 17938.7 12854.5 25343.6 20612.7 17847.2 5910.88 5084.26 11936.3 8112.36 4638.91 3682.27 4350.43 4730.85 2219.03 3761.92 2765.59 534.925
internal_count=228643 119810 102525 69100 50242 108833 86638 74542 23509 18858 51033 33425 17285 13869 18341 22195 9774 15084 12096 2172
is_linear=0
shrinkage=0.03


Tree=35
num_leaves=21
num_cat=0
split_feature=6 10 6 10 6 34 6 10 6 10 7 7 6 34 0 51 53 6 10 0
split_gain=1160.08 506.792 384.17 592.388 445.89 369.972 323.548 227.725 328.066 256.297 186.578 171.421 160.236 127.566 123.002 111.195 105.153 102.797 184.249 93.8199
threshold=571122.00000000012 759389.00000000012 2067856.0000000002 4218730.2000000002 10100696.500000002 0.931072796934866 4961833.5000000009 600472.10000000009 237918.50000000003 251326.60000000003 2529080.1666666674 278286.50000000006 1204001.0000000002 0.91364269435300083 2.8078278240199044 46.989568710327156 -0.16229075712768928 133883.50000000003 234852.30000000002 3.7383170906284962
decision_type=2 2 2 2 2 2 2 2 2 2 2 2 2 2 2 2 2 2 2 2
left_child=5 12 10 6 -5 7 -4 8 11 -10 13 -1 14 -3 -2 -9 -12 -7 -19 -14
right_child=1 2 3 4 -6 17 -8 15 9 -11 16 -13 19 -15 -16 -17 -18 18 -20 -21
leaf_value=-0.0023747911202485349 0.011215703625536335 0.0011008192328102588 0.0088509340351490655 -0.0061034870366431836 0.0068783873833996659 -0.014603774598405271 0.025397914845400844 -0.005190627902399182 0.014956017849337358 0.00045684927073304135 -0.0016044710728094723 -0.011137881566339488 0.024306969143565234 -0.010352095820862259 -0.011273014336483329 -0.018116276152631741 -0.018438800598271639 0.0022851525632193669 -0.014459708850747066 -0.00016364395471400316
leaf_weight=12203.528288722038 3041.7127842456102 5753.6608955860138 4284.6993671506643 4519.1128757894039 5033.3514668941498 3305.7562799751759 1414.6505845636129 1263.6728389114141 1603.3317619264126 3476.0831847339869 517.53079983592033 2404.978722423315 1279.339673474431 1032.3229114860296 235.86390160024166 1138.7985402494669 941.38623757660389 1138.0897651165724 1231.1795049905777 158.47670139372349
leaf_count=51291 11398 23057 16243 18353 19081 16131 4910 5381 5890 14042 2091 10541 4552 4379 985 5195 4205 4668 5626 624
internal_value=1.6687e-07 0.00428459 0.00248334 0.00530375 0.000736877 -0.00435319 0.0129581 -0.00259795 -0.00153392 0.00503355 -0.00273398 -0.00381745 0.0132602 -0.000641464 0.00959735 -0.0113175 -0.0124671 -0.0111856 -0.00641624 0.0216098
internal_weight=55977.5 28212.1 23496.7 15251.8 9552.46 27765.4 5699.35 22090.4 19687.9 5079.41 8244.9 14608.5 4715.39 6785.98 3277.58 2402.47 1458.92 5675.03 2369.27 1437.82
internal_count=228643 109878 92319 58587 37434 118765 21153 92340 81764 19932 33732 61832 17559 27436 12383 10576 6296 26425 10294 5176
is_linear=0
shrinkage=0.03


Tree=36
num_leaves=21
num_cat=0
split_feature=34 34 12 27 23 25 12 46 19 34 49 0 36 18 0 51 25 34 0 49
split_gain=625.221 281.379 183.765 113.19 83.6347 70.9859 66.7628 56.2896 53.4809 53.2744 51.0843 45.5812 99.1496 38.4661 37.2173 52.0122 41.9172 34.5072 33.9296 33.2675
threshold=0.71763181956720523 0.95328386566704337 3.2271579381342348 -0.21287707878010612 1.939120495115231 -0.93591836094856251 2.3934886911613558 1.9526894092559817 1.4355754349392897 0.52681789754960506 -0.20191854983568189 4.8113545757392027 0.94722499266235627 3.2999497797528092 4.8113545757392027 96.814380645751967 2.6967140138149275 0.50239809532572699 5.5600904374891744 -0.13572905957698819
decision_type=2 2 2 2 2 2 2 2 2 2 2 2 2 2 2 2 2 2 2 2
left_child=3 2 10 6 14 13 -1 -7 17 -8 -2 12 -6 -4 16 -16 -3 -5 -13 -19
right_child=1 4 5 8 11 7 9 -9 -10 -11 -12 18 -14 -15 15 -17 -18 19 -20 -21
leaf_value=-0.00034038179003880299 -0.0071136444742947542 -0.0099592815508790615 0.0054397129800378462 0.0066229149223152985 -0.0042191786148612709 -0.0077982894442841805 0.013675305122382698 0.00047934074362312117 -0.0017427221685921105 0.0070341755415218752 -0.002659565891448766 -0.024486660945895352 0.016800021521238172 -0.0077423491223857204 -0.012975109229359209 -0.041318830705824698 0.018894649138277857 -0.00072018075757796461 -0.0059589372686702381 0.0038223937395463624
leaf_weight=717.85235531628132 3074.4705561101437 3724.0032274276018 3491.0391470044851 2870.159585699439 2493.2803313732147 782.77647459506989 1723.7741038650274 13331.975333079696 1832.6363158375025 2943.4326454401016 9412.1469379663467 154.51240366697311 219.78059020638466 211.2876138240099 214.16315150260925 80.047367617487907 45.871316269040108 1865.9517109543085 209.66608560085297 6524.2422299534082
leaf_count=2866 13147 16637 13842 11116 10696 3265 6401 54705 7428 11355 39068 721 824 888 925 428 172 7541 879 25739
internal_value=2.23377e-07 -0.00222808 -0.000965634 0.00451578 -0.00758516 0.000990097 0.00817696 2.02796e-05 0.00300997 0.00948699 -0.00375625 -0.00385415 -0.00251645 0.00468743 -0.0104102 -0.0206867 -0.00960819 0.00378347 -0.0138198 0.00281214
internal_weight=55923.1 37445 30303.7 18478 7141.32 17817.1 5385.06 14114.8 13093 4667.21 12486.6 3077.24 2713.06 3702.33 4064.09 294.211 3769.87 11260.4 364.178 8390.19
internal_count=228643 156197 124915 72446 31282 72700 20622 57970 51824 17756 52215 13120 11520 14730 18162 1353 16809 44396 1600 33280
is_linear=0
shrinkage=0.03


Tree=37
num_leaves=21
num_cat=0
split_feature=34 34 12 26 23 68 41 25 46 69 49 15 4 25 51 18 34 20 68 15
split_gain=588.405 264.987 172.919 121.488 78.8427 77.4464 67.336 66.793 52.9457 52.8585 48.0944 47.3222 41.4618 41.1317 39.101 36.1929 36.0305 31.6027 47.8767 46.8616
threshold=0.71763181956720523 0.95328386566704337 3.2271579381342348 -0.75768612800166002 1.939120495115231 1.0000000180025095e-35 58.526338577270515 -0.93591836094856251 1.9526894092559817 10.500000000000002 -0.20191854983568189 0.57806180663253082 1.0000000180025095e-35 -1.604514595866203 86.810020446777358 3.2999497797528092 0.47434329663010227 1.7013690381080302 2.5000000000000004 -1.5972236972795872
decision_type=2 2 2 2 2 2 2 2 2 2 2 2 2 2 2 2 2 2 2 2
left_child=3 2 10 17 12 11 9 15 -9 -7 -2 16 -3 -6 -15 -4 -5 -1 19 -19
right_child=1 4 7 5 13 6 -8 8 -10 -11 -12 -13 -14 14 -16 -17 -18 18 -20 -21
leaf_value=0.01286636170444498 -0.0069020370761206521 -0.035201993212641787 0.005276684980401544 0.014912389084211766 0.0045517926335788645 0.0028210866080407497 -0.00072435399476532324 -0.0075617691241079187 0.00046495640303064416 0.0092783539736143589 -0.0025798367449820663 0.00071778695416843381 -0.0097403812679562277 -0.0071874788183465925 0.0015407592368338282 -0.0075095118609256372 0.0071231268871818423 -0.020760639264553026 0.015280102499523591 0.0043034549658751906
leaf_weight=1723.5577627569437 3073.6799305081367 58.399624794721603 3490.9325889348984 692.73338331282139 458.27310612797737 6660.7337098866701 4299.0476757735014 783.03859011828899 13332.09119220078 1376.7619779855013 9411.9390585124493 804.39294567704201 4002.2764225006104 2019.2368467748165 598.95011937618256 211.30330190062523 2339.355365216732 91.359574645757675 232.2976395636797 253.20541694760323
leaf_count=6406 13147 312 13842 2562 1879 26312 17370 3265 54705 5280 39068 3224 17850 8825 2416 888 9059 397 853 983
internal_value=2.11606e-07 -0.00216154 -0.000936689 0.00438144 -0.00736204 0.0034639 0.0023062 0.000960381 1.96728e-05 0.00392717 -0.00364387 0.00718659 -0.0101066 -0.0037395 -0.00519076 0.00454692 0.00890272 0.0108321 0.00475418 -0.00234216
internal_weight=55913.6 37440.1 30303 18473.4 7137.14 16173 12336.5 17817.4 14115.1 8037.5 12485.6 3836.48 4060.68 3076.46 2618.19 3702.24 3032.09 2300.42 576.863 344.565
internal_count=228643 156197 124915 72446 31282 63807 48962 72700 57970 31592 52215 14845 18162 13120 11241 14730 11621 8639 2233 1380
is_linear=0
shrinkage=0.03


Tree=38
num_leaves=21
num_cat=0
split_feature=34 34 12 26 23 68 25 41 12 43 17 15 0 36 45 4 0 34 34 51
split_gain=556.676 218.822 153.428 115.33 75.8193 70.1481 60.6967 57.1382 52.3501 52.4666 47.7348 46.5427 44.7538 85.7043 40.5209 36.6655 36.3428 36.0767 35.5208 35.103
threshold=0.76124860815872064 0.96149485435199733 2.9893387720216222 -0.45847211554646489 1.939120495115231 1.0000000180025095e-35 -1.1414911627769468 70.844074249267592 2.5063721854075367 -0.28863650560379023 0.18152296958648265 0.43458102582037261 4.8113545757392027 0.99974862479368853 5.910750389099122 1.0000000180025095e-35 5.5600904374891744 0.5859971780275387 0.62137003481306896 13.178772926330568
decision_type=2 2 2 2 2 2 2 2 2 2 2 2 2 2 2 2 2 2 2 2
left_child=3 2 19 8 15 11 -4 10 -1 17 -7 18 13 -6 -8 -3 -14 -10 -5 -2
right_child=1 4 6 5 12 7 14 -9 9 -11 -12 -13 16 -15 -16 -17 -18 -19 -20 -21
leaf_value=-0.0010683873364255071 -0.0089145397297522942 -0.034666965443855585 0.0042801382615886294 0.011550603209129413 -0.0040040743004339779 0.0045401308750214727 -0.012363849219484833 -0.0031833120763287179 0.013084085647407978 -9.3871419877721604e-05 0.00061357592376224247 0.0014374764549236699 -0.025212090311518602 0.01822842449725455 -0.00031281475589825102 -0.010313817333134346 -0.0056312779826273923 0.0073515764146068578 0.004747686968163611 -0.0037602197055562367
leaf_weight=567.343346118927 1413.4200927913189 56.605993241071701 2814.0900970101357 1363.9435782283545 2084.7113699764013 4715.0162281394005 255.38041009008884 2079.3729638010263 1709.9480101019144 551.17694811522961 6812.5232483744621 1429.5545929968357 147.2783520668745 168.67817831039429 15034.726468294859 3261.8248882740736 202.75261270999908 2340.3901849091053 1399.6032804995775 7495.1256949156523
leaf_count=2266 6109 305 11233 5142 8936 18499 1137 8507 6342 2197 27367 5713 692 626 62099 14582 849 8995 5508 31539
internal_value=2.0605e-07 -0.00249983 -0.00135489 0.00358496 -0.00772255 0.00243942 0.000231114 0.00139396 0.00752986 0.00858998 0.00221962 0.00583201 -0.0038901 -0.00233985 -0.000514095 -0.0107292 -0.0138701 0.00977169 0.00810525 -0.004578
